{"learner":{"attributes":{},"feature_names":["age","sex","bmi","bp","s1","s2","s3","s4","s5","s6"],"feature_types":[],"gradient_booster":{"model":{"gbtree_model_param":{"num_parallel_tree":"1","num_trees":"40"},"iteration_indptr":[0,2,4,6,8,10,12,14,16,18,20,22,24,26,28,30,32,34,36,38,40],"tree_info":[0,1,0,1,0,1,0,1,0,1,0,1,0,1,0,1,0,1,0,1,0,1,0,1,0,1,0,1,0,1,0,1,0,1,0,1,0,1,0,1],"trees":[{"base_weights":[-2.5352113E-2,3.4234235E-1,-6.296296E-1,6.028369E-1,-1.0843374E-1,-2.1052632E-1,-7.777778E-1,1.3373494E-1,2.4000001E-1,2.1428573E-1,-5.3846158E-2,-1.2580645E-1,1.6666669E-1,-2.4893619E-1,4.2857148E-2],"categories":[],"categories_nodes":[],"categories_segments":[],"categories_sizes":[],"default_left":[0,0,0,0,0,0,0,0,0,0,0,0,0,0,0],"id":0,"left_children":[1,3,5,7,9,11,13,-1,-1,-1,-1,-1,-1,-1,-1],"loss_changes":[3.9654182E1,1.3099509E1,4.0272903E0,1.8264217E0,2.5541728E0,3.2725902E0,2.4886875E0,0E0,0E0,0E0,0E0,0E0,0E0,0E0,0E0],"parents":[2147483647,0,0,1,1,2,2,3,3,4,4,5,5,6,6],"right_children":[2,4,6,8,10,12,14,-1,-1,-1,-1,-1,-1,-1,-1],"split_conditions":[9.961227E-3,-2.3983933E-3,-1.7135115E-2,2.6550272E-2,-5.0782982E-2,4.4604456E-3,1.0296456E-1,1.3373494E-1,2.4000001E-1,2.1428573E-1,-5.3846158E-2,-1.2580645E-1,1.6666669E-1,-2.4893619E-1,4.2857148E-2],"split_indices":[2,8,3,6,9,6,5,0,0,0,0,0,0,0,0],"split_type":[0,0,0,0,0,0,0,0,0,0,0,0,0,0,0],"sum_hessian":[1.765E2,1.1E2,6.65E1,6.95E1,4.05E1,1.8E1,4.85E1,4.05E1,2.9E1,2.5E0,3.8E1,1.45E1,3.5E0,4.6E1,2.5E0],"tree_param":{"num_deleted":"0","num_feature":"10","num_nodes":"15","size_leaf_vector":"1"}},{"base_weights":[2.5352113E-2,-3.4234235E-1,6.296296E-1,-6.028369E-1,1.0843374E-1,2.1052632E-1,7.777778E-1,-1.3373494E-1,-2.4000001E-1,-2.1428573E-1,5.3846158E-2,1.2580645E-1,-1.6666669E-1,2.4893619E-1,-4.2857148E-2],"categories":[],"categories_nodes":[],"categories_segments":[],"categories_sizes":[],"default_left":[0,0,0,0,0,0,0,0,0,0,0,0,0,0,0],"id":1,"left_children":[1,3,5,7,9,11,13,-1,-1,-1,-1,-1,-1,-1,-1],"loss_changes":[3.9654182E1,1.3099509E1,4.0272903E0,1.8264217E0,2.5541728E0,3.2725902E0,2.4886875E0,0E0,0E0,0E0,0E0,0E0,0E0,0E0,0E0],"parents":[2147483647,0,0,1,1,2,2,3,3,4,4,5,5,6,6],"right_children":[2,4,6,8,10,12,14,-1,-1,-1,-1,-1,-1,-1,-1],"split_conditions":[9.961227E-3,-2.3983933E-3,-1.7135115E-2,2.6550272E-2,-5.0782982E-2,4.4604456E-3,1.0296456E-1,-1.3373494E-1,-2.4000001E-1,-2.1428573E-1,5.3846158E-2,1.2580645E-1,-1.6666669E-1,2.4893619E-1,-4.2857148E-2],"split_indices":[2,8,3,6,9,6,5,0,0,0,0,0,0,0,0],"split_type":[0,0,0,0,0,0,0,0,0,0,0,0,0,0,0],"sum_hessian":[1.765E2,1.1E2,6.65E1,6.95E1,4.05E1,1.8E1,4.85E1,4.05E1,2.9E1,2.5E0,3.8E1,1.45E1,3.5E0,4.6E1,2.5E0],"tree_param":{"num_deleted":"0","num_feature":"10","num_nodes":"15","size_leaf_vector":"1"}},{"base_weights":[-1.6564365E-2,2.5174534E-1,-4.679088E-1,4.059529E-1,-2.084782E-1,-1.4795172E-1,-5.8570695E-1,1.7059864E-1,6.8178326E-2,1.3216743E-1,-1.2129399E-1,-9.523676E-2,1.6950938E-1,1.0775181E-1,-1.8690667E-1],"categories":[],"categories_nodes":[],"categories_segments":[],"categories_sizes":[],"default_left":[0,0,0,0,0,0,0,0,0,0,0,0,0,0,0],"id":2,"left_children":[1,3,5,7,9,11,13,-1,-1,-1,-1,-1,-1,-1,-1],"loss_changes":[2.0933764E1,7.7816477E0,2.34196E0,2.242526E0,3.7218122E0,2.4366095E0,1.8724079E0,0E0,0E0,0E0,0E0,0E0,0E0,0E0,0E0],"parents":[2147483647,0,0,1,1,2,2,3,3,4,4,5,5,6,6],"right_children":[2,4,6,8,10,12,14,-1,-1,-1,-1,-1,-1,-1,-1],"split_conditions":[9.961227E-3,1.40735E-2,-1.7135115E-2,-2.9526427E-2,-3.207709E-2,-2.2884678E-2,-4.987245E-2,1.7059864E-1,6.8178326E-2,1.3216743E-1,-1.2129399E-1,-9.523676E-2,1.6950938E-1,1.0775181E-1,-1.8690667E-1],"split_indices":[2,8,3,8,3,3,8,0,0,0,0,0,0,0,0],"split_type":[0,0,0,0,0,0,0,0,0,0,0,0,0,0,0],"sum_hessian":[1.7089062E2,1.0745458E2,6.3436047E1,8.057437E1,2.688021E1,1.7677456E1,4.5758595E1,4.1030956E1,3.954341E1,5.9409823E0,2.0939228E1,1.4730246E1,2.94721E0,1.4107559E0,4.4347836E1],"tree_param":{"num_deleted":"0","num_feature":"10","num_nodes":"15","size_leaf_vector":"1"}},{"base_weights":[1.6564377E-2,-2.5174528E-1,4.679088E-1,-4.0595284E-1,2.0847823E-1,1.4795174E-1,5.8570695E-1,-1.7059863E-1,-6.81783E-2,-1.3216741E-1,1.21294E-1,9.523677E-2,-1.6950938E-1,-1.0775182E-1,1.8690668E-1],"categories":[],"categories_nodes":[],"categories_segments":[],"categories_sizes":[],"default_left":[0,0,0,0,0,0,0,0,0,0,0,0,0,0,0],"id":3,"left_children":[1,3,5,7,9,11,13,-1,-1,-1,-1,-1,-1,-1,-1],"loss_changes":[2.0933762E1,7.781648E0,2.341961E0,2.2425241E0,3.7218122E0,2.4366095E0,1.8724079E0,0E0,0E0,0E0,0E0,0E0,0E0,0E0,0E0],"parents":[2147483647,0,0,1,1,2,2,3,3,4,4,5,5,6,6],"right_children":[2,4,6,8,10,12,14,-1,-1,-1,-1,-1,-1,-1,-1],"split_conditions":[9.961227E-3,1.40735E-2,-1.7135115E-2,-2.9526427E-2,-3.207709E-2,-2.2884678E-2,-4.987245E-2,-1.7059863E-1,-6.81783E-2,-1.3216741E-1,1.21294E-1,9.523677E-2,-1.6950938E-1,-1.0775182E-1,1.8690668E-1],"split_indices":[2,8,3,8,3,3,8,0,0,0,0,0,0,0,0],"split_type":[0,0,0,0,0,0,0,0,0,0,0,0,0,0,0],"sum_hessian":[1.7089062E2,1.0745458E2,6.3436043E1,8.057437E1,2.6880213E1,1.7677456E1,4.5758587E1,4.1030956E1,3.9543415E1,5.940983E0,2.093923E1,1.4730246E1,2.94721E0,1.4107556E0,4.434783E1],"tree_param":{"num_deleted":"0","num_feature":"10","num_nodes":"15","size_leaf_vector":"1"}},{"base_weights":[-1.1891416E-2,1.9324633E-1,-3.8603485E-1,3.10396E-1,-1.5896963E-1,-1.8359257E-1,-2.1576738E-1,4.616808E-2,1.4444192E-1,-7.6074556E-2,8.987174E-2,-1.1791758E-1,4.4956144E-2],"categories":[],"categories_nodes":[],"categories_segments":[],"categories_sizes":[],"default_left":[0,0,0,0,0,0,0,0,0,0,0,0,0],"id":4,"left_children":[1,3,5,7,9,11,-1,-1,-1,-1,-1,-1,-1],"loss_changes":[1.2501474E1,4.391802E0,3.7579298E0,2.049417E0,1.2442281E0,2.6583261E0,0E0,0E0,0E0,0E0,0E0,0E0,0E0],"parents":[2147483647,0,0,1,1,2,2,3,3,4,4,5,5],"right_children":[2,4,6,8,10,12,-1,-1,-1,-1,-1,-1,-1],"split_conditions":[1.7036071E-2,6.727791E-3,4.5972344E-2,5.068012E-2,2.2868635E-2,4.9341295E-2,-2.1576738E-1,4.616808E-2,1.4444192E-1,-7.6074556E-2,8.987174E-2,-1.1791758E-1,4.4956144E-2],"split_indices":[8,2,3,1,6,4,0,0,0,0,0,0,0],"split_type":[0,0,0,0,0,0,0,0,0,0,0,0,0],"sum_hessian":[1.6091168E2,1.04241165E2,5.6670517E1,7.831256E1,2.5928604E1,3.6216686E1,2.045383E1,4.189046E1,3.64221E1,2.1864273E1,4.064332E0,2.2133793E1,1.4082892E1],"tree_param":{"num_deleted":"0","num_feature":"10","num_nodes":"13","size_leaf_vector":"1"}},{"base_weights":[1.1891379E-2,-1.932464E-1,3.8603485E-1,-3.1039602E-1,1.5896958E-1,1.8359256E-1,2.1576738E-1,-4.6168096E-2,-1.4444193E-1,7.607454E-2,-8.987175E-2,1.17917575E-1,-4.4956148E-2],"categories":[],"categories_nodes":[],"categories_segments":[],"categories_sizes":[],"default_left":[0,0,0,0,0,0,0,0,0,0,0,0,0],"id":5,"left_children":[1,3,5,7,9,11,-1,-1,-1,-1,-1,-1,-1],"loss_changes":[1.2501475E1,4.391802E0,3.7579288E0,2.0494165E0,1.2442281E0,2.6583261E0,0E0,0E0,0E0,0E0,0E0,0E0,0E0],"parents":[2147483647,0,0,1,1,2,2,3,3,4,4,5,5],"right_children":[2,4,6,8,10,12,-1,-1,-1,-1,-1,-1,-1],"split_conditions":[1.7036071E-2,6.727791E-3,4.5972344E-2,5.068012E-2,2.2868635E-2,4.9341295E-2,2.1576738E-1,-4.6168096E-2,-1.4444193E-1,7.607454E-2,-8.987175E-2,1.17917575E-1,-4.4956148E-2],"split_indices":[8,2,3,1,6,4,0,0,0,0,0,0,0],"split_type":[0,0,0,0,0,0,0,0,0,0,0,0,0],"sum_hessian":[1.6091168E2,1.04241165E2,5.6670513E1,7.831256E1,2.5928602E1,3.6216686E1,2.045383E1,4.189046E1,3.64221E1,2.1864271E1,4.0643315E0,2.2133793E1,1.4082892E1],"tree_param":{"num_deleted":"0","num_feature":"10","num_nodes":"13","size_leaf_vector":"1"}},{"base_weights":[-1.1100881E-2,2.0280398E-1,-2.3666911E-1,3.65902E-1,-3.3326205E-2,3.8403845E-1,-3.04969E-1,-2.3166634E-2,1.3993147E-1,-7.565697E-2,8.1924796E-2,9.084342E-3,1.9576786E-1,-1.1425207E-1,4.141155E-2],"categories":[],"categories_nodes":[],"categories_segments":[],"categories_sizes":[],"default_left":[0,0,0,0,0,0,0,0,0,0,0,0,0,0,0],"id":6,"left_children":[1,3,5,7,9,11,13,-1,-1,-1,-1,-1,-1,-1,-1],"loss_changes":[7.424191E0,3.054831E0,3.291174E0,2.1214838E0,2.2948062E0,7.272817E-1,2.3383403E0,0E0,0E0,0E0,0E0,0E0,0E0,0E0,0E0],"parents":[2147483647,0,0,1,1,2,2,3,3,4,4,5,5,6,6],"right_children":[2,4,6,8,10,12,14,-1,-1,-1,-1,-1,-1,-1,-1],"split_conditions":[2.7247815E-4,-1.1419984E-2,-3.0072445E-2,-1.7629381E-2,5.068012E-2,-3.8356658E-2,6.883138E-2,-2.3166634E-2,1.3993147E-1,-7.565697E-2,8.1924796E-2,9.084342E-3,1.9576786E-1,-1.1425207E-1,4.141155E-2],"split_indices":[8,3,9,6,1,9,5,0,0,0,0,0,0,0,0],"split_type":[0,0,0,0,0,0,0,0,0,0,0,0,0,0,0],"sum_hessian":[1.5187402E2,7.8004135E1,7.386989E1,4.581179E1,3.219235E1,6.8643193E0,6.700557E1,8.514612E0,3.729718E1,1.8882082E1,1.3310266E1,3.442216E0,3.4221034E0,5.732773E1,9.677841E0],"tree_param":{"num_deleted":"0","num_feature":"10","num_nodes":"15","size_leaf_vector":"1"}},{"base_weights":[1.1100864E-2,-2.02804E-1,2.3666911E-1,-3.6590204E-1,3.3326183E-2,-3.8403848E-1,3.04969E-1,2.3166612E-2,-1.3993147E-1,7.565697E-2,-8.192481E-2,-9.084353E-3,-1.9576786E-1,1.1425206E-1,-4.141155E-2],"categories":[],"categories_nodes":[],"categories_segments":[],"categories_sizes":[],"default_left":[0,0,0,0,0,0,0,0,0,0,0,0,0,0,0],"id":7,"left_children":[1,3,5,7,9,11,13,-1,-1,-1,-1,-1,-1,-1,-1],"loss_changes":[7.424191E0,3.0548308E0,3.291174E0,2.1214833E0,2.294807E0,7.272816E-1,2.3383408E0,0E0,0E0,0E0,0E0,0E0,0E0,0E0,0E0],"parents":[2147483647,0,0,1,1,2,2,3,3,4,4,5,5,6,6],"right_children":[2,4,6,8,10,12,14,-1,-1,-1,-1,-1,-1,-1,-1],"split_conditions":[2.7247815E-4,-1.1419984E-2,-3.0072445E-2,-1.7629381E-2,5.068012E-2,-3.8356658E-2,6.883138E-2,2.3166612E-2,-1.3993147E-1,7.565697E-2,-8.192481E-2,-9.084353E-3,-1.9576786E-1,1.1425206E-1,-4.141155E-2],"split_indices":[8,3,9,6,1,9,5,0,0,0,0,0,0,0,0],"split_type":[0,0,0,0,0,0,0,0,0,0,0,0,0,0,0],"sum_hessian":[1.5187402E2,7.8004135E1,7.386989E1,4.581179E1,3.219235E1,6.8643193E0,6.700557E1,8.514612E0,3.729718E1,1.888208E1,1.33102665E1,3.442216E0,3.4221034E0,5.732773E1,9.67784E0],"tree_param":{"num_deleted":"0","num_feature":"10","num_nodes":"15","size_leaf_vector":"1"}},{"base_weights":[-6.120269E-3,1.3424528E-1,-2.6242793E-1,5.224979E-1,7.077616E-2,-9.57575E-2,-4.1672528E-1,1.7314638E-1,-3.5403925E-4,6.8355104E-5,1.5174255E-1,-8.01111E-2,9.2566565E-2,6.2165137E-2,-1.4911784E-1],"categories":[],"categories_nodes":[],"categories_segments":[],"categories_sizes":[],"default_left":[0,0,0,0,0,0,0,0,0,0,0,0,0,0,0],"id":8,"left_children":[1,3,5,7,9,11,13,-1,-1,-1,-1,-1,-1,-1,-1],"loss_changes":[5.255075E0,2.2894766E0,1.2891219E0,3.7587643E-1,2.525788E0,1.892734E0,1.433157E0,0E0,0E0,0E0,0E0,0E0,0E0,0E0,0E0],"parents":[2147483647,0,0,1,1,2,2,3,3,4,4,5,5,6,6],"right_children":[2,4,6,8,10,12,14,-1,-1,-1,-1,-1,-1,-1,-1],"split_conditions":[9.961227E-3,-5.7940934E-2,2.6716841E-2,1.2227286E-1,5.9685014E-2,1.9632837E-2,-2.1788232E-2,1.7314638E-1,-3.5403925E-4,6.8355104E-5,1.5174255E-1,-8.01111E-2,9.2566565E-2,6.2165137E-2,-1.4911784E-1],"split_indices":[2,2,8,6,6,9,9,0,0,0,0,0,0,0,0],"split_type":[0,0,0,0,0,0,0,0,0,0,0,0,0,0,0],"sum_hessian":[1.4408936E2,9.341006E1,5.0679295E1,1.2108396E1,8.130166E1,2.514189E1,2.5537405E1,1.08716E1,1.2367952E0,7.08178E1,1.0483855E1,1.789889E1,7.243E0,2.7327948E0,2.2804611E1],"tree_param":{"num_deleted":"0","num_feature":"10","num_nodes":"15","size_leaf_vector":"1"}},{"base_weights":[6.1202734E-3,-1.3424528E-1,2.6242793E-1,-5.2249783E-1,-7.0776165E-2,9.57575E-2,4.167253E-1,-1.7314638E-1,3.5402924E-4,-6.835629E-5,-1.5174255E-1,8.01111E-2,-9.256658E-2,-6.216513E-2,1.4911784E-1],"categories":[],"categories_nodes":[],"categories_segments":[],"categories_sizes":[],"default_left":[0,0,0,0,0,0,0,0,0,0,0,0,0,0,0],"id":9,"left_children":[1,3,5,7,9,11,13,-1,-1,-1,-1,-1,-1,-1,-1],"loss_changes":[5.2550755E0,2.2894764E0,1.2891214E0,3.7587643E-1,2.5257878E0,1.8927343E0,1.4331574E0,0E0,0E0,0E0,0E0,0E0,0E0,0E0,0E0],"parents":[2147483647,0,0,1,1,2,2,3,3,4,4,5,5,6,6],"right_children":[2,4,6,8,10,12,14,-1,-1,-1,-1,-1,-1,-1,-1],"split_conditions":[9.961227E-3,-5.7940934E-2,2.6716841E-2,1.2227286E-1,5.9685014E-2,1.9632837E-2,-2.1788232E-2,-1.7314638E-1,3.5402924E-4,-6.835629E-5,-1.5174255E-1,8.01111E-2,-9.256658E-2,-6.216513E-2,1.4911784E-1],"split_indices":[2,2,8,6,6,9,9,0,0,0,0,0,0,0,0],"split_type":[0,0,0,0,0,0,0,0,0,0,0,0,0,0,0],"sum_hessian":[1.4408934E2,9.341005E1,5.0679295E1,1.2108395E1,8.130166E1,2.514189E1,2.5537407E1,1.0871599E1,1.2367953E0,7.08178E1,1.0483856E1,1.789889E1,7.243E0,2.7327948E0,2.2804611E1],"tree_param":{"num_deleted":"0","num_feature":"10","num_nodes":"15","size_leaf_vector":"1"}},{"base_weights":[-3.365145E-3,1.7734681E-1,-1.3981599E-1,-2.9667718E-2,4.1236162E-1,2.4018219E-2,-3.9270258E-1,-9.801575E-2,8.870351E-2,-1.8403293E-1,1.4272918E-1,5.9134826E-2,-8.534485E-2,-1.3919905E-1,1.0884603E-1],"categories":[],"categories_nodes":[],"categories_segments":[],"categories_sizes":[],"default_left":[0,0,0,0,0,0,0,0,0,0,0,0,0,0,0],"id":10,"left_children":[1,3,5,7,9,11,13,-1,-1,-1,-1,-1,-1,-1,-1],"loss_changes":[3.4449706E0,2.9368696E0,3.306912E0,3.2756135E0,2.1272473E0,2.685574E0,1.8568916E0,0E0,0E0,0E0,0E0,0E0,0E0,0E0,0E0],"parents":[2147483647,0,0,1,1,2,2,3,3,4,4,5,5,6,6],"right_children":[2,4,6,8,10,12,14,-1,-1,-1,-1,-1,-1,-1,-1],"split_conditions":[-1.25561245E-2,7.78808E-4,1.9907486E-2,5.068012E-2,-7.449446E-2,3.081083E-2,1.0296456E-1,-9.801575E-2,8.870351E-2,-1.8403293E-1,1.4272918E-1,5.9134826E-2,-8.534485E-2,-1.3919905E-1,1.0884603E-1],"split_indices":[3,6,8,1,4,0,5,0,0,0,0,0,0,0,0],"split_type":[0,0,0,0,0,0,0,0,0,0,0,0,0,0,0],"sum_hessian":[1.3770277E2,5.911401E1,7.858877E1,3.1893845E1,2.7220165E1,4.8240726E1,3.0348043E1,1.6669676E1,1.5224169E1,1.0794828E0,2.6140682E1,3.113317E1,1.7107557E1,2.80838E1,2.2642438E0],"tree_param":{"num_deleted":"0","num_feature":"10","num_nodes":"15","size_leaf_vector":"1"}},{"base_weights":[3.3651686E-3,-1.7734681E-1,1.3981603E-1,2.9667737E-2,-4.1236162E-1,-2.4018195E-2,3.9270264E-1,9.8015755E-2,-8.8703506E-2,1.8403292E-1,-1.4272918E-1,-5.9134815E-2,8.534485E-2,1.3919906E-1,-1.0884603E-1],"categories":[],"categories_nodes":[],"categories_segments":[],"categories_sizes":[],"default_left":[0,0,0,0,0,0,0,0,0,0,0,0,0,0,0],"id":11,"left_children":[1,3,5,7,9,11,13,-1,-1,-1,-1,-1,-1,-1,-1],"loss_changes":[3.4449716E0,2.9368696E0,3.3069124E0,3.2756135E0,2.1272473E0,2.6855736E0,1.8568921E0,0E0,0E0,0E0,0E0,0E0,0E0,0E0,0E0],"parents":[2147483647,0,0,1,1,2,2,3,3,4,4,5,5,6,6],"right_children":[2,4,6,8,10,12,14,-1,-1,-1,-1,-1,-1,-1,-1],"split_conditions":[-1.25561245E-2,7.78808E-4,1.9907486E-2,5.068012E-2,-7.449446E-2,3.081083E-2,1.0296456E-1,9.8015755E-2,-8.8703506E-2,1.8403292E-1,-1.4272918E-1,-5.9134815E-2,8.534485E-2,1.3919906E-1,-1.0884603E-1],"split_indices":[3,6,8,1,4,0,5,0,0,0,0,0,0,0,0],"split_type":[0,0,0,0,0,0,0,0,0,0,0,0,0,0,0],"sum_hessian":[1.3770279E2,5.911401E1,7.8588776E1,3.1893845E1,2.7220167E1,4.8240726E1,3.0348045E1,1.6669676E1,1.5224169E1,1.0794829E0,2.6140684E1,3.113317E1,1.7107557E1,2.8083801E1,2.2642438E0],"tree_param":{"num_deleted":"0","num_feature":"10","num_nodes":"15","size_leaf_vector":"1"}},{"base_weights":[-3.5180412E-3,2.1056479E-1,-8.9704506E-2,4.041898E-1,1.6810033E-2,-5.2854E-1,-4.206526E-2,1.4482194E-1,-2.4879737E-2,-1.9769086E-1,4.19702E-2,5.226127E-2,-2.3740305E-1,5.603749E-3,-1.4816171E-1],"categories":[],"categories_nodes":[],"categories_segments":[],"categories_sizes":[],"default_left":[0,0,0,0,0,0,0,0,0,0,0,0,0,0,0],"id":12,"left_children":[1,3,5,7,9,11,13,-1,-1,-1,-1,-1,-1,-1,-1],"loss_changes":[2.4379663E0,1.4162061E0,1.946616E0,7.642982E-1,1.756033E0,1.8251367E0,2.370603E0,0E0,0E0,0E0,0E0,0E0,0E0,0E0,0E0],"parents":[2147483647,0,0,1,1,2,2,3,3,4,4,5,5,6,6],"right_children":[2,4,6,8,10,12,14,-1,-1,-1,-1,-1,-1,-1,-1],"split_conditions":[-2.8840007E-2,-2.8323168E-2,-4.7033552E-2,1.9632837E-2,-6.348684E-2,-6.6448756E-2,6.389027E-2,1.4482194E-1,-2.4879737E-2,-1.9769086E-1,4.19702E-2,5.226127E-2,-2.3740305E-1,5.603749E-3,-1.4816171E-1],"split_indices":[2,8,5,9,4,5,8,0,0,0,0,0,0,0,0],"split_type":[0,0,0,0,0,0,0,0,0,0,0,0,0,0,0],"sum_hessian":[1.3010793E2,3.693073E1,9.31772E1,1.7928322E1,1.9002405E1,8.1360655E0,8.504113E1,1.5446519E1,2.481804E0,2.2571118E0,1.6745293E1,2.3062403E0,5.8298254E0,7.5807625E1,9.233504E0],"tree_param":{"num_deleted":"0","num_feature":"10","num_nodes":"15","size_leaf_vector":"1"}},{"base_weights":[3.5180438E-3,-2.1056479E-1,8.9704506E-2,-4.041898E-1,-1.6810011E-2,5.2854E-1,4.2065263E-2,-1.4482194E-1,2.4879726E-2,1.9769086E-1,-4.1970197E-2,-5.226128E-2,2.3740305E-1,-5.6037484E-3,1.4816171E-1],"categories":[],"categories_nodes":[],"categories_segments":[],"categories_sizes":[],"default_left":[0,0,0,0,0,0,0,0,0,0,0,0,0,0,0],"id":13,"left_children":[1,3,5,7,9,11,13,-1,-1,-1,-1,-1,-1,-1,-1],"loss_changes":[2.4379663E0,1.416206E0,1.9466159E0,7.642977E-1,1.7560332E0,1.8251367E0,2.370603E0,0E0,0E0,0E0,0E0,0E0,0E0,0E0,0E0],"parents":[2147483647,0,0,1,1,2,2,3,3,4,4,5,5,6,6],"right_children":[2,4,6,8,10,12,14,-1,-1,-1,-1,-1,-1,-1,-1],"split_conditions":[-2.8840007E-2,-2.8323168E-2,-4.7033552E-2,1.9632837E-2,-6.348684E-2,-6.6448756E-2,6.389027E-2,-1.4482194E-1,2.4879726E-2,1.9769086E-1,-4.1970197E-2,-5.226128E-2,2.3740305E-1,-5.6037484E-3,1.4816171E-1],"split_indices":[2,8,5,9,4,5,8,0,0,0,0,0,0,0,0],"split_type":[0,0,0,0,0,0,0,0,0,0,0,0,0,0,0],"sum_hessian":[1.3010793E2,3.693073E1,9.31772E1,1.7928324E1,1.9002403E1,8.1360655E0,8.504113E1,1.5446519E1,2.4818041E0,2.2571118E0,1.6745293E1,2.3062406E0,5.8298254E0,7.5807625E1,9.233504E0],"tree_param":{"num_deleted":"0","num_feature":"10","num_nodes":"15","size_leaf_vector":"1"}},{"base_weights":[-5.0351587E-3,-7.8639954E-2,1.9846761E-1,-1.2109025E-2,-3.4200567E-1,2.9487944E-1,-1.18317164E-1,-5.3487882E-2,4.374253E-2,6.173667E-2,-1.2255076E-1,1.732216E-1,3.8595308E-2,1.5408044E-1,-9.205144E-2],"categories":[],"categories_nodes":[],"categories_segments":[],"categories_sizes":[],"default_left":[0,0,0,0,0,0,0,0,0,0,0,0,0,0,0],"id":14,"left_children":[1,3,5,7,9,11,13,-1,-1,-1,-1,-1,-1,-1,-1],"loss_changes":[1.9132929E0,1.638652E0,1.0713364E0,2.0174704E0,7.7148247E-1,1.1610308E0,1.1859038E0,0E0,0E0,0E0,0E0,0E0,0E0,0E0,0E0],"parents":[2147483647,0,0,1,1,2,2,3,3,4,4,5,5,6,6],"right_children":[2,4,6,8,10,12,14,-1,-1,-1,-1,-1,-1,-1,-1],"split_conditions":[2.2868635E-2,4.5972344E-2,1.3316905E-2,5.068012E-2,-3.198764E-2,4.495846E-2,-3.4214552E-2,-5.3487882E-2,4.374253E-2,6.173667E-2,-1.2255076E-1,1.732216E-1,3.8595308E-2,1.5408044E-1,-9.205144E-2],"split_indices":[6,3,8,1,8,6,9,0,0,0,0,0,0,0,0],"split_type":[0,0,0,0,0,0,0,0,0,0,0,0,0,0,0],"sum_hessian":[1.256916E2,9.275622E1,3.2935375E1,7.488492E1,1.7871302E1,2.5303526E1,7.631849E0,3.642459E1,3.8460323E1,1.7078096E0,1.6163492E1,8.456717E0,1.684681E1,1.3574226E0,6.2744265E0],"tree_param":{"num_deleted":"0","num_feature":"10","num_nodes":"15","size_leaf_vector":"1"}},{"base_weights":[5.0351666E-3,7.863996E-2,-1.984676E-1,1.2109032E-2,3.420057E-1,-2.948794E-1,1.1831715E-1,5.3487886E-2,-4.374253E-2,-6.173667E-2,1.2255076E-1,-1.7322159E-1,-3.8595304E-2,-1.5408044E-1,9.205144E-2],"categories":[],"categories_nodes":[],"categories_segments":[],"categories_sizes":[],"default_left":[0,0,0,0,0,0,0,0,0,0,0,0,0,0,0],"id":15,"left_children":[1,3,5,7,9,11,13,-1,-1,-1,-1,-1,-1,-1,-1],"loss_changes":[1.913293E0,1.6386521E0,1.0713364E0,2.0174704E0,7.7148247E-1,1.1610303E0,1.1859037E0,0E0,0E0,0E0,0E0,0E0,0E0,0E0,0E0],"parents":[2147483647,0,0,1,1,2,2,3,3,4,4,5,5,6,6],"right_children":[2,4,6,8,10,12,14,-1,-1,-1,-1,-1,-1,-1,-1],"split_conditions":[2.2868635E-2,4.5972344E-2,1.3316905E-2,5.068012E-2,-3.198764E-2,4.495846E-2,-3.4214552E-2,5.3487886E-2,-4.374253E-2,-6.173667E-2,1.2255076E-1,-1.7322159E-1,-3.8595304E-2,-1.5408044E-1,9.205144E-2],"split_indices":[6,3,8,1,8,6,9,0,0,0,0,0,0,0,0],"split_type":[0,0,0,0,0,0,0,0,0,0,0,0,0,0,0],"sum_hessian":[1.256916E2,9.275622E1,3.2935375E1,7.488492E1,1.7871302E1,2.5303526E1,7.631849E0,3.6424595E1,3.8460323E1,1.7078094E0,1.6163492E1,8.456717E0,1.684681E1,1.3574226E0,6.2744265E0],"tree_param":{"num_deleted":"0","num_feature":"10","num_nodes":"15","size_leaf_vector":"1"}},{"base_weights":[-2.067101E-3,3.8414016E-1,-3.388926E-2,8.0125034E-2,1.5816844E-1,-3.1041008E-1,1.9890524E-2,1.1630439E-1,-9.390425E-2,-1.1446661E-1,1.19592875E-1,7.972187E-2,-3.1494036E-2],"categories":[],"categories_nodes":[],"categories_segments":[],"categories_sizes":[],"default_left":[0,0,0,0,0,0,0,0,0,0,0,0,0],"id":16,"left_children":[1,3,5,7,-1,9,11,-1,-1,-1,-1,-1,-1],"loss_changes":[1.5153455E0,3.6607778E-1,1.6993204E0,6.271516E-1,0E0,1.0902936E0,2.9828866E0,0E0,0E0,0E0,0E0,0E0,0E0],"parents":[2147483647,0,0,1,1,2,2,3,3,5,5,6,6],"right_children":[2,4,6,8,-1,10,12,-1,-1,-1,-1,-1,-1],"split_conditions":[-5.7940934E-2,-5.736745E-2,-4.2847544E-2,-1.919845E-2,1.5816844E-1,5.2858043E-2,-1.5998974E-2,1.1630439E-1,-9.390425E-2,-1.1446661E-1,1.19592875E-1,7.972187E-2,-3.1494036E-2],"split_indices":[2,5,4,8,0,3,3,0,0,0,0,0,0],"split_type":[0,0,0,0,0,0,0,0,0,0,0,0,0],"sum_hessian":[1.21240326E2,8.386517E0,1.12853806E2,3.183209E0,5.2033076E0,1.7597979E1,9.525583E1,1.7937925E0,1.3894166E0,1.6413004E1,1.1849747E0,3.1705326E1,6.3550503E1],"tree_param":{"num_deleted":"0","num_feature":"10","num_nodes":"13","size_leaf_vector":"1"}},{"base_weights":[2.067097E-3,-3.841402E-1,3.3889256E-2,-8.012508E-2,-1.5816844E-1,3.1041008E-1,-1.9890526E-2,-1.1630439E-1,9.3904234E-2,1.1446661E-1,-1.1959288E-1,-7.972186E-2,3.1494036E-2],"categories":[],"categories_nodes":[],"categories_segments":[],"categories_sizes":[],"default_left":[0,0,0,0,0,0,0,0,0,0,0,0,0],"id":17,"left_children":[1,3,5,7,-1,9,11,-1,-1,-1,-1,-1,-1],"loss_changes":[1.5153457E0,3.6607766E-1,1.6993204E0,6.2715155E-1,0E0,1.0902936E0,2.9828866E0,0E0,0E0,0E0,0E0,0E0,0E0],"parents":[2147483647,0,0,1,1,2,2,3,3,5,5,6,6],"right_children":[2,4,6,8,-1,10,12,-1,-1,-1,-1,-1,-1],"split_conditions":[-5.7940934E-2,-5.736745E-2,-4.2847544E-2,-1.919845E-2,-1.5816844E-1,5.2858043E-2,-1.5998974E-2,-1.1630439E-1,9.3904234E-2,1.1446661E-1,-1.1959288E-1,-7.972186E-2,3.1494036E-2],"split_indices":[2,5,4,8,0,3,3,0,0,0,0,0,0],"split_type":[0,0,0,0,0,0,0,0,0,0,0,0,0],"sum_hessian":[1.21240326E2,8.386517E0,1.12853806E2,3.1832092E0,5.2033076E0,1.7597979E1,9.525583E1,1.7937925E0,1.3894166E0,1.6413004E1,1.1849747E0,3.1705326E1,6.3550503E1],"tree_param":{"num_deleted":"0","num_feature":"10","num_nodes":"13","size_leaf_vector":"1"}},{"base_weights":[1.6257241E-3,3.120167E-2,-4.2712614E-1,2.856686E-1,-1.513991E-2,1.959598E-2,-1.562907E-1,4.8229946E-3,1.3151757E-1,-1.199903E-1,7.280279E-3],"categories":[],"categories_nodes":[],"categories_segments":[],"categories_sizes":[],"default_left":[0,0,0,0,0,0,0,0,0,0,0],"id":18,"left_children":[1,3,5,7,9,-1,-1,-1,-1,-1,-1],"loss_changes":[1.5360686E0,1.3400025E0,3.9527547E-1,7.1346736E-1,1.4771762E0,0E0,0E0,0E0,0E0,0E0,0E0],"parents":[2147483647,0,0,1,1,2,2,3,3,4,4],"right_children":[2,4,6,8,10,-1,-1,-1,-1,-1,-1],"split_conditions":[7.355214E-2,-4.2570855E-2,-5.2737556E-2,-6.6490196E-2,-5.1103264E-2,1.959598E-2,-1.562907E-1,4.8229946E-3,1.3151757E-1,-1.199903E-1,7.280279E-3],"split_indices":[2,8,0,8,4,0,0,0,0,0,0],"split_type":[0,0,0,0,0,0,0,0,0,0,0],"sum_hessian":[1.1908301E2,1.1226596E2,6.8170476E0,1.6499716E1,9.576625E1,1.1398035E0,5.677244E0,6.3665485E0,1.0133166E1,8.045887E0,8.772036E1],"tree_param":{"num_deleted":"0","num_feature":"10","num_nodes":"11","size_leaf_vector":"1"}},{"base_weights":[-1.6257252E-3,-3.1201668E-2,4.271261E-1,-2.8566864E-1,1.5139914E-2,-1.9595996E-2,1.562907E-1,-4.8229997E-3,-1.3151757E-1,1.199903E-1,-7.280277E-3],"categories":[],"categories_nodes":[],"categories_segments":[],"categories_sizes":[],"default_left":[0,0,0,0,0,0,0,0,0,0,0],"id":19,"left_children":[1,3,5,7,9,-1,-1,-1,-1,-1,-1],"loss_changes":[1.5360684E0,1.3400027E0,3.9527547E-1,7.134675E-1,1.4771762E0,0E0,0E0,0E0,0E0,0E0,0E0],"parents":[2147483647,0,0,1,1,2,2,3,3,4,4],"right_children":[2,4,6,8,10,-1,-1,-1,-1,-1,-1],"split_conditions":[7.355214E-2,-4.2570855E-2,-5.2737556E-2,-6.6490196E-2,-5.1103264E-2,-1.9595996E-2,1.562907E-1,-4.8229997E-3,-1.3151757E-1,1.199903E-1,-7.280277E-3],"split_indices":[2,8,0,8,4,0,0,0,0,0,0],"split_type":[0,0,0,0,0,0,0,0,0,0,0],"sum_hessian":[1.1908301E2,1.1226596E2,6.8170476E0,1.6499716E1,9.576625E1,1.1398035E0,5.6772437E0,6.3665485E0,1.0133166E1,8.045887E0,8.772036E1],"tree_param":{"num_deleted":"0","num_feature":"10","num_nodes":"11","size_leaf_vector":"1"}},{"base_weights":[1.176544E-4,7.6085225E-2,-1.4907569E-1,-6.497517E-2,2.1541758E-1,3.1056526E-1,-1.9887732E-1,-5.187687E-2,9.556482E-2,-1.4054541E-1,7.7735946E-2,1.9836386E-1,-9.63392E-2,-1.27000725E-2,-1.0915584E-1],"categories":[],"categories_nodes":[],"categories_segments":[],"categories_sizes":[],"default_left":[0,0,0,0,0,0,0,0,0,0,0,0,0,0,0],"id":20,"left_children":[1,3,5,7,9,11,13,-1,-1,-1,-1,-1,-1,-1,-1],"loss_changes":[1.3480363E0,1.5629268E0,9.8036E-1,1.7082036E0,1.3132985E0,1.1677455E0,9.354032E-1,0E0,0E0,0E0,0E0,0E0,0E0,0E0,0E0],"parents":[2147483647,0,0,1,1,2,2,3,3,4,4,5,5,6,6],"right_children":[2,4,6,8,10,12,14,-1,-1,-1,-1,-1,-1,-1,-1],"split_conditions":[9.961227E-3,5.068012E-2,-4.327577E-2,5.9685014E-2,-6.917231E-2,5.068012E-2,9.015599E-3,-5.187687E-2,9.556482E-2,-1.4054541E-1,7.7735946E-2,1.9836386E-1,-9.63392E-2,-1.27000725E-2,-1.0915584E-1],"split_indices":[2,1,5,6,6,1,0,0,0,0,0,0,0,0,0],"split_type":[0,0,0,0,0,0,0,0,0,0,0,0,0,0,0],"sum_hessian":[1.1693815E2,7.780881E1,3.9129345E1,3.892983E1,3.887898E1,3.3133106E0,3.5816032E1,3.0807732E1,8.122095E0,1.7513845E0,3.7127594E1,2.1005769E0,1.2127339E0,1.9022427E1,1.6793606E1],"tree_param":{"num_deleted":"0","num_feature":"10","num_nodes":"15","size_leaf_vector":"1"}},{"base_weights":[-1.17662494E-4,-7.608523E-2,1.4907567E-1,6.4975165E-2,-2.1541758E-1,-3.1056526E-1,1.988773E-1,5.1876865E-2,-9.556482E-2,1.4054541E-1,-7.7735946E-2,-1.9836389E-1,9.633921E-2,1.2700069E-2,1.0915583E-1],"categories":[],"categories_nodes":[],"categories_segments":[],"categories_sizes":[],"default_left":[0,0,0,0,0,0,0,0,0,0,0,0,0,0,0],"id":21,"left_children":[1,3,5,7,9,11,13,-1,-1,-1,-1,-1,-1,-1,-1],"loss_changes":[1.3480363E0,1.5629268E0,9.803599E-1,1.7082033E0,1.3132982E0,1.1677458E0,9.35403E-1,0E0,0E0,0E0,0E0,0E0,0E0,0E0,0E0],"parents":[2147483647,0,0,1,1,2,2,3,3,4,4,5,5,6,6],"right_children":[2,4,6,8,10,12,14,-1,-1,-1,-1,-1,-1,-1,-1],"split_conditions":[9.961227E-3,5.068012E-2,-4.327577E-2,5.9685014E-2,-6.917231E-2,5.068012E-2,9.015599E-3,5.1876865E-2,-9.556482E-2,1.4054541E-1,-7.7735946E-2,-1.9836389E-1,9.633921E-2,1.2700069E-2,1.0915583E-1],"split_indices":[2,1,5,6,6,1,0,0,0,0,0,0,0,0,0],"split_type":[0,0,0,0,0,0,0,0,0,0,0,0,0,0,0],"sum_hessian":[1.1693815E2,7.78088E1,3.9129345E1,3.8929825E1,3.887898E1,3.3133109E0,3.5816032E1,3.0807732E1,8.122095E0,1.7513845E0,3.7127594E1,2.1005766E0,1.212734E0,1.9022427E1,1.6793606E1],"tree_param":{"num_deleted":"0","num_feature":"10","num_nodes":"15","size_leaf_vector":"1"}},{"base_weights":[-6.487388E-4,6.864561E-2,-1.2934892E-1,-3.6390428E-2,3.4018248E-1,-2.9995295E-1,8.5899636E-2,2.0706324E-2,-1.0900027E-1,1.2525009E-1,-1.382727E-1,1.03483625E-1,-1.03951134E-1,6.1123222E-2,-1.4172585E-1],"categories":[],"categories_nodes":[],"categories_segments":[],"categories_sizes":[],"default_left":[0,0,0,0,0,0,0,0,0,0,0,0,0,0,0],"id":22,"left_children":[1,3,5,7,9,11,13,-1,-1,-1,-1,-1,-1,-1,-1],"loss_changes":[1.0315173E0,2.156889E0,1.512232E0,1.9247478E0,1.4974215E0,8.0410385E-1,1.324965E0,0E0,0E0,0E0,0E0,0E0,0E0,0E0,0E0],"parents":[2147483647,0,0,1,1,2,2,3,3,4,4,5,5,6,6],"right_children":[2,4,6,8,10,12,14,-1,-1,-1,-1,-1,-1,-1,-1],"split_conditions":[1.747503E-2,-3.1927682E-3,5.066877E-2,2.8758088E-2,7.762233E-2,-5.7313185E-2,6.301517E-2,2.0706324E-2,-1.0900027E-1,1.2525009E-1,-1.382727E-1,1.03483625E-1,-1.03951134E-1,6.1123222E-2,-1.4172585E-1],"split_indices":[5,5,5,3,9,3,8,0,0,0,0,0,0,0,0],"split_type":[0,0,0,0,0,0,0,0,0,0,0,0,0,0,0],"sum_hessian":[1.13668724E2,7.419013E1,3.9478596E1,5.4121E1,2.006913E1,2.1803679E1,1.7674915E1,4.152244E1,1.2598557E1,1.873933E1,1.3298004E0,1.0363513E0,2.0767326E1,1.51188545E1,2.5560613E0],"tree_param":{"num_deleted":"0","num_feature":"10","num_nodes":"15","size_leaf_vector":"1"}},{"base_weights":[6.487406E-4,-6.864561E-2,1.2934892E-1,3.6390428E-2,-3.4018248E-1,2.9995295E-1,-8.589963E-2,-2.0706322E-2,1.09000266E-1,-1.2525007E-1,1.3827269E-1,-1.03483625E-1,1.03951134E-1,-6.1123222E-2,1.4172585E-1],"categories":[],"categories_nodes":[],"categories_segments":[],"categories_sizes":[],"default_left":[0,0,0,0,0,0,0,0,0,0,0,0,0,0,0],"id":23,"left_children":[1,3,5,7,9,11,13,-1,-1,-1,-1,-1,-1,-1,-1],"loss_changes":[1.0315174E0,2.156889E0,1.5122316E0,1.9247478E0,1.4974213E0,8.0410385E-1,1.324965E0,0E0,0E0,0E0,0E0,0E0,0E0,0E0,0E0],"parents":[2147483647,0,0,1,1,2,2,3,3,4,4,5,5,6,6],"right_children":[2,4,6,8,10,12,14,-1,-1,-1,-1,-1,-1,-1,-1],"split_conditions":[1.747503E-2,-3.1927682E-3,5.066877E-2,2.8758088E-2,7.762233E-2,-5.7313185E-2,6.301517E-2,-2.0706322E-2,1.09000266E-1,-1.2525007E-1,1.3827269E-1,-1.03483625E-1,1.03951134E-1,-6.1123222E-2,1.4172585E-1],"split_indices":[5,5,5,3,9,3,8,0,0,0,0,0,0,0,0],"split_type":[0,0,0,0,0,0,0,0,0,0,0,0,0,0,0],"sum_hessian":[1.13668724E2,7.419013E1,3.9478596E1,5.4121E1,2.006913E1,2.1803679E1,1.7674915E1,4.152244E1,1.2598557E1,1.873933E1,1.3298002E0,1.0363513E0,2.0767326E1,1.51188545E1,2.5560613E0],"tree_param":{"num_deleted":"0","num_feature":"10","num_nodes":"15","size_leaf_vector":"1"}},{"base_weights":[-2.8685639E-3,3.4474307E-1,-2.8523058E-2,4.2003775E-1,-2.1071978E-2,-2.96789E-1,4.627213E-3,-1.5108285E-2,1.5462469E-1,-1.6829193E-1,9.412146E-2,1.486727E-2,-7.37634E-2],"categories":[],"categories_nodes":[],"categories_segments":[],"categories_sizes":[],"default_left":[0,0,0,0,0,0,0,0,0,0,0,0,0],"id":24,"left_children":[1,3,5,7,-1,9,11,-1,-1,-1,-1,-1,-1],"loss_changes":[1.0001986E0,2.703849E-1,9.293288E-1,3.2514393E-1,0E0,2.0294762E0,1.0685415E0,0E0,0E0,0E0,0E0,0E0,0E0],"parents":[2147483647,0,0,1,1,2,2,3,3,5,5,6,6],"right_children":[2,4,6,8,-1,10,12,-1,-1,-1,-1,-1,-1],"split_conditions":[-5.7940934E-2,1.750522E-3,-5.6370094E-2,-7.977773E-2,-2.1071978E-2,5.068012E-2,7.120998E-2,-1.5108285E-2,1.5462469E-1,-1.6829193E-1,9.412146E-2,1.486727E-2,-7.37634E-2],"split_indices":[2,0,0,9,0,1,7,0,0,0,0,0,0],"split_type":[0,0,0,0,0,0,0,0,0,0,0,0,0],"sum_hessian":[1.100549E2,6.7091923E0,1.033457E2,5.6685143E0,1.040678E0,1.0491472E1,9.285423E1,1.0351567E0,4.633357E0,7.379444E0,3.1120276E0,7.941298E1,1.3441259E1],"tree_param":{"num_deleted":"0","num_feature":"10","num_nodes":"13","size_leaf_vector":"1"}},{"base_weights":[2.8685601E-3,-3.4474307E-1,2.8523052E-2,-4.2003775E-1,2.1071965E-2,2.9678896E-1,-4.627217E-3,1.5108295E-2,-1.5462467E-1,1.6829193E-1,-9.412146E-2,-1.486727E-2,7.37634E-2],"categories":[],"categories_nodes":[],"categories_segments":[],"categories_sizes":[],"default_left":[0,0,0,0,0,0,0,0,0,0,0,0,0],"id":25,"left_children":[1,3,5,7,-1,9,11,-1,-1,-1,-1,-1,-1],"loss_changes":[1.0001985E0,2.7038473E-1,9.2932874E-1,3.251438E-1,0E0,2.0294762E0,1.0685415E0,0E0,0E0,0E0,0E0,0E0,0E0],"parents":[2147483647,0,0,1,1,2,2,3,3,5,5,6,6],"right_children":[2,4,6,8,-1,10,12,-1,-1,-1,-1,-1,-1],"split_conditions":[-5.7940934E-2,1.750522E-3,-5.6370094E-2,-7.977773E-2,2.1071965E-2,5.068012E-2,7.120998E-2,1.5108295E-2,-1.5462467E-1,1.6829193E-1,-9.412146E-2,-1.486727E-2,7.37634E-2],"split_indices":[2,0,0,9,0,1,7,0,0,0,0,0,0],"split_type":[0,0,0,0,0,0,0,0,0,0,0,0,0],"sum_hessian":[1.100549E2,6.709192E0,1.033457E2,5.668514E0,1.0406781E0,1.0491472E1,9.285423E1,1.0351567E0,4.633357E0,7.379444E0,3.112028E0,7.941298E1,1.3441258E1],"tree_param":{"num_deleted":"0","num_feature":"10","num_nodes":"13","size_leaf_vector":"1"}},{"base_weights":[-1.695205E-3,-4.38494E-1,1.4956652E-2,-4.170606E-2,-1.5480602E-1,1.2272132E-1,-5.671488E-2,-4.6332918E-2,7.305259E-2,3.5726346E-2,-5.5343192E-2],"categories":[],"categories_nodes":[],"categories_segments":[],"categories_sizes":[],"default_left":[0,0,0,0,0,0,0,0,0,0,0],"id":26,"left_children":[1,3,5,-1,-1,7,9,-1,-1,-1,-1],"loss_changes":[8.016616E-1,2.2229195E-2,8.2773477E-1,0E0,0E0,1.4691967E0,1.4708245E0,0E0,0E0,0E0,0E0],"parents":[2147483647,0,0,1,1,2,2,5,5,6,6],"right_children":[2,4,6,-1,-1,8,10,-1,-1,-1,-1],"split_conditions":[-6.917231E-2,-9.361912E-3,-1.5998974E-2,-4.170606E-2,-1.5480602E-1,-4.2847544E-2,9.015599E-3,-4.6332918E-2,7.305259E-2,3.5726346E-2,-5.5343192E-2],"split_indices":[6,9,3,0,0,4,0,0,0,0,0],"split_type":[0,0,0,0,0,0,0,0,0,0,0],"sum_hessian":[1.083149E2,3.0473044E0,1.052676E2,1.2010397E0,1.8462647E0,4.1762146E1,6.3505455E1,1.259118E1,2.9170965E1,2.6756319E1,3.6749138E1],"tree_param":{"num_deleted":"0","num_feature":"10","num_nodes":"11","size_leaf_vector":"1"}},{"base_weights":[1.6952028E-3,4.3849397E-1,-1.4956654E-2,4.170606E-2,1.5480602E-1,-1.2272132E-1,5.6714877E-2,4.6332918E-2,-7.305259E-2,-3.5726342E-2,5.534319E-2],"categories":[],"categories_nodes":[],"categories_segments":[],"categories_sizes":[],"default_left":[0,0,0,0,0,0,0,0,0,0,0],"id":27,"left_children":[1,3,5,-1,-1,7,9,-1,-1,-1,-1],"loss_changes":[8.0166155E-1,2.2229195E-2,8.277347E-1,0E0,0E0,1.4691967E0,1.4708245E0,0E0,0E0,0E0,0E0],"parents":[2147483647,0,0,1,1,2,2,5,5,6,6],"right_children":[2,4,6,-1,-1,8,10,-1,-1,-1,-1],"split_conditions":[-6.917231E-2,-9.361912E-3,-1.5998974E-2,4.170606E-2,1.5480602E-1,-4.2847544E-2,9.015599E-3,4.6332918E-2,-7.305259E-2,-3.5726342E-2,5.534319E-2],"split_indices":[6,9,3,0,0,4,0,0,0,0,0],"split_type":[0,0,0,0,0,0,0,0,0,0,0],"sum_hessian":[1.083149E2,3.0473046E0,1.052676E2,1.2010399E0,1.8462647E0,4.1762142E1,6.3505455E1,1.259118E1,2.9170963E1,2.6756319E1,3.6749138E1],"tree_param":{"num_deleted":"0","num_feature":"10","num_nodes":"11","size_leaf_vector":"1"}},{"base_weights":[-2.937474E-3,-5.09152E-2,1.3662569E-1,-2.9013854E-2,-1.8599866E-1,3.115094E-1,-1.4181868E-3,6.9334656E-2,-1.9314954E-2,-1.185093E-1,1.2589854E-1,9.051299E-2,-6.7483835E-2],"categories":[],"categories_nodes":[],"categories_segments":[],"categories_sizes":[],"default_left":[0,0,0,0,0,0,0,0,0,0,0,0,0],"id":28,"left_children":[1,3,5,7,-1,9,11,-1,-1,-1,-1,-1,-1],"loss_changes":[7.288634E-1,9.9106854E-1,6.72853E-1,7.4180955E-1,0E0,1.1050161E0,1.1900264E0,0E0,0E0,0E0,0E0,0E0,0E0],"parents":[2147483647,0,0,1,1,2,2,3,3,5,5,6,6],"right_children":[2,4,6,8,-1,10,12,-1,-1,-1,-1,-1,-1],"split_conditions":[2.2868635E-2,1.9186998E-2,-1.1419984E-2,-4.177375E-2,-1.8599866E-1,-7.449446E-2,4.495846E-2,6.9334656E-2,-1.9314954E-2,-1.185093E-1,1.2589854E-1,9.051299E-2,-6.7483835E-2],"split_indices":[6,6,3,2,0,4,6,0,0,0,0,0,0],"split_type":[0,0,0,0,0,0,0,0,0,0,0,0,0],"sum_hessian":[1.0681293E2,7.996015E1,2.6852774E1,7.800893E1,1.9512295E0,1.1291417E1,1.55613575E1,8.674749E0,6.9334175E1,1.1468315E0,1.0144586E1,6.456236E0,9.105122E0],"tree_param":{"num_deleted":"0","num_feature":"10","num_nodes":"13","size_leaf_vector":"1"}},{"base_weights":[2.93747E-3,5.09152E-2,-1.366257E-1,2.9013852E-2,1.8599868E-1,-3.115094E-1,1.4181724E-3,-6.9334656E-2,1.9314954E-2,1.185093E-1,-1.2589854E-1,-9.0513E-2,6.7483835E-2],"categories":[],"categories_nodes":[],"categories_segments":[],"categories_sizes":[],"default_left":[0,0,0,0,0,0,0,0,0,0,0,0,0],"id":29,"left_children":[1,3,5,7,-1,9,11,-1,-1,-1,-1,-1,-1],"loss_changes":[7.288636E-1,9.9106866E-1,6.728528E-1,7.418095E-1,0E0,1.1050164E0,1.1900264E0,0E0,0E0,0E0,0E0,0E0,0E0],"parents":[2147483647,0,0,1,1,2,2,3,3,5,5,6,6],"right_children":[2,4,6,8,-1,10,12,-1,-1,-1,-1,-1,-1],"split_conditions":[2.2868635E-2,1.9186998E-2,-1.1419984E-2,-4.177375E-2,1.8599868E-1,-7.449446E-2,4.495846E-2,-6.9334656E-2,1.9314954E-2,1.185093E-1,-1.2589854E-1,-9.0513E-2,6.7483835E-2],"split_indices":[6,6,3,2,0,4,6,0,0,0,0,0,0],"split_type":[0,0,0,0,0,0,0,0,0,0,0,0,0],"sum_hessian":[1.0681293E2,7.996015E1,2.6852774E1,7.800893E1,1.9512293E0,1.1291417E1,1.55613575E1,8.674749E0,6.9334175E1,1.1468315E0,1.0144586E1,6.456236E0,9.105122E0],"tree_param":{"num_deleted":"0","num_feature":"10","num_nodes":"13","size_leaf_vector":"1"}},{"base_weights":[-2.0456014E-3,-8.169374E-2,9.1110215E-2,-1.3343763E-1,2.5832132E-1,2.1255043E-1,-1.488144E-1,-1.1385408E-1,1.4519349E-2,2.3666117E-1,-6.1415877E-2,1.1135676E-1,-4.6203802E-3,1.4616622E-1,-6.955298E-2],"categories":[],"categories_nodes":[],"categories_segments":[],"categories_sizes":[],"default_left":[0,0,0,0,0,0,0,0,0,0,0,0,0,0,0],"id":30,"left_children":[1,3,5,7,9,11,13,-1,-1,-1,-1,-1,-1,-1,-1],"loss_changes":[7.890162E-1,1.0428197E0,1.4600365E0,2.2736464E0,2.1048584E0,1.1976596E0,1.0140643E0,0E0,0E0,0E0,0E0,0E0,0E0,0E0,0E0],"parents":[2147483647,0,0,1,1,2,2,3,3,4,4,5,5,6,6],"right_children":[2,4,6,8,10,12,14,-1,-1,-1,-1,-1,-1,-1,-1],"split_conditions":[5.068012E-2,5.954058E-2,1.9907486E-2,7.78808E-4,6.924089E-2,3.081083E-2,-2.8840007E-2,-1.1385408E-1,1.4519349E-2,2.3666117E-1,-6.1415877E-2,1.1135676E-1,-4.6203802E-3,1.4616622E-1,-6.955298E-2],"split_indices":[1,2,8,6,2,0,2,0,0,0,0,0,0,0,0],"split_type":[0,0,0,0,0,0,0,0,0,0,0,0,0,0,0],"sum_hessian":[1.04337746E2,5.6313118E1,4.8024624E1,4.940254E1,6.910582E0,3.1961227E1,1.6063396E1,2.0531012E1,2.8871525E1,2.8925939E0,4.017988E0,1.8475311E1,1.3485916E1,1.2926993E0,1.4770698E1],"tree_param":{"num_deleted":"0","num_feature":"10","num_nodes":"15","size_leaf_vector":"1"}},{"base_weights":[2.045605E-3,8.169374E-2,-9.111021E-2,1.3343763E-1,-2.5832132E-1,-2.1255042E-1,1.488144E-1,1.1385408E-1,-1.451935E-2,-2.3666118E-1,6.141589E-2,-1.1135675E-1,4.62038E-3,-1.461662E-1,6.955297E-2],"categories":[],"categories_nodes":[],"categories_segments":[],"categories_sizes":[],"default_left":[0,0,0,0,0,0,0,0,0,0,0,0,0,0,0],"id":31,"left_children":[1,3,5,7,9,11,13,-1,-1,-1,-1,-1,-1,-1,-1],"loss_changes":[7.890162E-1,1.0428196E0,1.4600363E0,2.2736464E0,2.1048586E0,1.1976596E0,1.0140641E0,0E0,0E0,0E0,0E0,0E0,0E0,0E0,0E0],"parents":[2147483647,0,0,1,1,2,2,3,3,4,4,5,5,6,6],"right_children":[2,4,6,8,10,12,14,-1,-1,-1,-1,-1,-1,-1,-1],"split_conditions":[5.068012E-2,5.954058E-2,1.9907486E-2,7.78808E-4,6.924089E-2,3.081083E-2,-2.8840007E-2,1.1385408E-1,-1.451935E-2,-2.3666118E-1,6.141589E-2,-1.1135675E-1,4.62038E-3,-1.461662E-1,6.955297E-2],"split_indices":[1,2,8,6,2,0,2,0,0,0,0,0,0,0,0],"split_type":[0,0,0,0,0,0,0,0,0,0,0,0,0,0,0],"sum_hessian":[1.04337746E2,5.6313118E1,4.8024624E1,4.940254E1,6.9105825E0,3.1961227E1,1.6063396E1,2.0531012E1,2.8871525E1,2.8925939E0,4.0179887E0,1.8475311E1,1.3485916E1,1.2926992E0,1.4770698E1],"tree_param":{"num_deleted":"0","num_feature":"10","num_nodes":"15","size_leaf_vector":"1"}},{"base_weights":[6.109982E-4,-4.0173483E-1,1.4832055E-2,-3.77975E-2,-1.3908401E-1,-5.5282895E-2,1.0098557E-1,-4.715411E-3,-1.20858856E-1,5.6418914E-2,-2.3742912E-2],"categories":[],"categories_nodes":[],"categories_segments":[],"categories_sizes":[],"default_left":[0,0,0,0,0,0,0,0,0,0,0],"id":32,"left_children":[1,3,5,-1,-1,7,9,-1,-1,-1,-1],"loss_changes":[5.8942443E-1,1.5946031E-3,6.063611E-1,0E0,0E0,7.5659865E-1,7.2036874E-1,0E0,0E0,0E0,0E0],"parents":[2147483647,0,0,1,1,2,2,5,5,6,6],"right_children":[2,4,6,-1,-1,8,10,-1,-1,-1,-1],"split_conditions":[-6.917231E-2,-4.2847544E-2,5.068012E-2,-3.77975E-2,-1.3908401E-1,4.448548E-2,1.9907486E-2,-4.715411E-3,-1.20858856E-1,5.6418914E-2,-2.3742912E-2],"split_indices":[6,4,1,0,0,9,8,0,0,0,0],"split_type":[0,0,0,0,0,0,0,0,0,0,0],"sum_hessian":[1.0097273E2,2.516823E0,9.845591E1,1.0177293E0,1.4990939E0,5.4478E1,4.397791E1,4.984894E1,4.62906E0,2.9616638E1,1.4361272E1],"tree_param":{"num_deleted":"0","num_feature":"10","num_nodes":"11","size_leaf_vector":"1"}},{"base_weights":[-6.10994E-4,4.0173483E-1,-1.48320515E-2,3.7797496E-2,1.3908401E-1,5.5282887E-2,-1.0098556E-1,4.715408E-3,1.20858856E-1,-5.6418907E-2,2.3742918E-2],"categories":[],"categories_nodes":[],"categories_segments":[],"categories_sizes":[],"default_left":[0,0,0,0,0,0,0,0,0,0,0],"id":33,"left_children":[1,3,5,-1,-1,7,9,-1,-1,-1,-1],"loss_changes":[5.894244E-1,1.5946627E-3,6.0636085E-1,0E0,0E0,7.565986E-1,7.203686E-1,0E0,0E0,0E0,0E0],"parents":[2147483647,0,0,1,1,2,2,5,5,6,6],"right_children":[2,4,6,-1,-1,8,10,-1,-1,-1,-1],"split_conditions":[-6.917231E-2,-4.2847544E-2,5.068012E-2,3.7797496E-2,1.3908401E-1,4.448548E-2,1.9907486E-2,4.715408E-3,1.20858856E-1,-5.6418907E-2,2.3742918E-2],"split_indices":[6,4,1,0,0,9,8,0,0,0,0],"split_type":[0,0,0,0,0,0,0,0,0,0,0],"sum_hessian":[1.0097273E2,2.5168233E0,9.845591E1,1.0177293E0,1.499094E0,5.4478E1,4.397791E1,4.984894E1,4.6290593E0,2.9616638E1,1.4361272E1],"tree_param":{"num_deleted":"0","num_feature":"10","num_nodes":"11","size_leaf_vector":"1"}},{"base_weights":[-2.4997222E-3,1.7837328E-1,-3.1470332E-2,2.6337442E-1,-7.366112E-2,-1.2385645E-1,8.374187E-2,-7.277339E-3,1.3319993E-1,-5.009237E-2,1.2716682E-1,1.4212163E-1,-5.7834396E-3],"categories":[],"categories_nodes":[],"categories_segments":[],"categories_sizes":[],"default_left":[0,0,0,0,0,0,0,0,0,0,0,0,0],"id":34,"left_children":[1,3,5,7,-1,9,11,-1,-1,-1,-1,-1,-1],"loss_changes":[5.312993E-1,5.6913525E-1,9.3982285E-1,6.4171046E-1,0E0,1.2248554E0,1.5944047E0,0E0,0E0,0E0,0E0,0E0,0E0],"parents":[2147483647,0,0,1,1,2,2,3,3,5,5,6,6],"right_children":[2,4,6,8,-1,10,12,-1,-1,-1,-1,-1,-1],"split_conditions":[-4.2570855E-2,2.720622E-2,1.1348623E-2,-6.6490196E-2,-7.366112E-2,7.8236304E-2,1.9632837E-2,-7.277339E-3,1.3319993E-1,-5.009237E-2,1.2716682E-1,1.4212163E-1,-5.7834396E-3],"split_indices":[8,2,9,8,0,4,9,0,0,0,0,0,0],"split_type":[0,0,0,0,0,0,0,0,0,0,0,0,0],"sum_hessian":[9.93217E1,1.3000195E1,8.63215E1,1.1144281E1,1.8559132E0,4.7864777E1,3.845673E1,4.632723E0,6.5115585E0,4.501629E1,2.848485E0,7.2839174E0,3.1172813E1],"tree_param":{"num_deleted":"0","num_feature":"10","num_nodes":"13","size_leaf_vector":"1"}},{"base_weights":[2.4997266E-3,-1.7837329E-1,3.1470343E-2,-2.6337442E-1,7.3661104E-2,1.23856455E-1,-8.374186E-2,7.277324E-3,-1.3319995E-1,5.009237E-2,-1.2716682E-1,-1.4212161E-1,5.7834443E-3],"categories":[],"categories_nodes":[],"categories_segments":[],"categories_sizes":[],"default_left":[0,0,0,0,0,0,0,0,0,0,0,0,0],"id":35,"left_children":[1,3,5,7,-1,9,11,-1,-1,-1,-1,-1,-1],"loss_changes":[5.3129953E-1,5.6913507E-1,9.398228E-1,6.417104E-1,0E0,1.2248554E0,1.5944047E0,0E0,0E0,0E0,0E0,0E0,0E0],"parents":[2147483647,0,0,1,1,2,2,3,3,5,5,6,6],"right_children":[2,4,6,8,-1,10,12,-1,-1,-1,-1,-1,-1],"split_conditions":[-4.2570855E-2,2.720622E-2,1.1348623E-2,-6.6490196E-2,7.3661104E-2,7.8236304E-2,1.9632837E-2,7.277324E-3,-1.3319995E-1,5.009237E-2,-1.2716682E-1,-1.4212161E-1,5.7834443E-3],"split_indices":[8,2,9,8,0,4,9,0,0,0,0,0,0],"split_type":[0,0,0,0,0,0,0,0,0,0,0,0,0],"sum_hessian":[9.93217E1,1.3000195E1,8.63215E1,1.1144282E1,1.8559128E0,4.7864773E1,3.845673E1,4.6327233E0,6.5115585E0,4.501629E1,2.848485E0,7.2839174E0,3.1172813E1],"tree_param":{"num_deleted":"0","num_feature":"10","num_nodes":"13","size_leaf_vector":"1"}},{"base_weights":[1.6055485E-3,1.3429423E-1,-3.8306914E-2,-1.2005348E-3,4.3054432E-1,-2.3456821E-1,4.0211048E-2,-8.939909E-2,6.09381E-2,1.7066407E-1,1.7658329E-2,-1.3050574E-1,-1.0429712E-2,3.0922959E-2,-5.1167775E-2],"categories":[],"categories_nodes":[],"categories_segments":[],"categories_sizes":[],"default_left":[0,0,0,0,0,0,0,0,0,0,0,0,0,0,0],"id":36,"left_children":[1,3,5,7,9,11,13,-1,-1,-1,-1,-1,-1,-1,-1],"loss_changes":[5.3003E-1,9.293839E-1,1.1955521E0,1.0839244E0,3.4005916E-1,8.716215E-1,7.5733757E-1,0E0,0E0,0E0,0E0,0E0,0E0,0E0,0E0],"parents":[2147483647,0,0,1,1,2,2,3,3,4,4,5,5,6,6],"right_children":[2,4,6,8,10,12,14,-1,-1,-1,-1,-1,-1,-1,-1],"split_conditions":[-3.0072445E-2,-3.8356658E-2,-1.0776975E-3,-3.4574863E-2,-2.9725179E-3,-1.0517202E-2,5.276969E-2,-8.939909E-2,6.09381E-2,1.7066407E-1,1.7658329E-2,-1.3050574E-1,-1.0429712E-2,3.0922959E-2,-5.1167775E-2],"split_indices":[9,9,9,0,2,2,9,0,0,0,0,0,0,0,0],"split_type":[0,0,0,0,0,0,0,0,0,0,0,0,0,0,0],"sum_hessian":[9.81111E1,2.2140488E1,7.5970604E1,1.5875513E1,6.264975E0,2.114063E1,5.4829975E1,6.2861395E0,9.589374E0,4.179038E0,2.085937E0,9.965523E0,1.1175108E1,4.2626823E1,1.2203151E1],"tree_param":{"num_deleted":"0","num_feature":"10","num_nodes":"15","size_leaf_vector":"1"}},{"base_weights":[-1.605551E-3,-1.3429424E-1,3.830691E-2,1.200519E-3,-4.305443E-1,2.3456822E-1,-4.021105E-2,8.9399084E-2,-6.0938105E-2,-1.7066404E-1,-1.7658321E-2,1.3050574E-1,1.0429711E-2,-3.0922959E-2,5.116778E-2],"categories":[],"categories_nodes":[],"categories_segments":[],"categories_sizes":[],"default_left":[0,0,0,0,0,0,0,0,0,0,0,0,0,0,0],"id":37,"left_children":[1,3,5,7,9,11,13,-1,-1,-1,-1,-1,-1,-1,-1],"loss_changes":[5.3003013E-1,9.2938364E-1,1.1955523E0,1.0839245E0,3.4005928E-1,8.716216E-1,7.573376E-1,0E0,0E0,0E0,0E0,0E0,0E0,0E0,0E0],"parents":[2147483647,0,0,1,1,2,2,3,3,4,4,5,5,6,6],"right_children":[2,4,6,8,10,12,14,-1,-1,-1,-1,-1,-1,-1,-1],"split_conditions":[-3.0072445E-2,-3.8356658E-2,-1.0776975E-3,-3.4574863E-2,-2.9725179E-3,-1.0517202E-2,5.276969E-2,8.9399084E-2,-6.0938105E-2,-1.7066404E-1,-1.7658321E-2,1.3050574E-1,1.0429711E-2,-3.0922959E-2,5.116778E-2],"split_indices":[9,9,9,0,2,2,9,0,0,0,0,0,0,0,0],"split_type":[0,0,0,0,0,0,0,0,0,0,0,0,0,0,0],"sum_hessian":[9.81111E1,2.2140488E1,7.5970604E1,1.5875513E1,6.264975E0,2.114063E1,5.4829975E1,6.2861395E0,9.589375E0,4.179038E0,2.085937E0,9.965523E0,1.1175108E1,4.2626823E1,1.2203151E1],"tree_param":{"num_deleted":"0","num_feature":"10","num_nodes":"15","size_leaf_vector":"1"}},{"base_weights":[2.0300339E-3,2.9641455E-1,-1.7364826E-2,4.3970328E-2,1.3056548E-1,-1.2698905E-1,4.2168643E-2,8.824763E-2,-6.336178E-2,-1.6481927E-2,-1.6074768E-1,1.18474E-1,-1.49198305E-2],"categories":[],"categories_nodes":[],"categories_segments":[],"categories_sizes":[],"default_left":[0,0,0,0,0,0,0,0,0,0,0,0,0],"id":38,"left_children":[1,3,5,7,-1,9,11,-1,-1,-1,-1,-1,-1],"loss_changes":[5.661125E-1,1.9559824E-1,6.1309904E-1,2.7194613E-1,0E0,9.432931E-1,2.0003443E0,0E0,0E0,0E0,0E0,0E0,0E0],"parents":[2147483647,0,0,1,1,2,2,3,3,5,5,6,6],"right_children":[2,4,6,8,-1,10,12,-1,-1,-1,-1,-1,-1],"split_conditions":[-5.7940934E-2,-5.736745E-2,-1.6704442E-2,-1.919845E-2,1.3056548E-1,-1.509241E-2,-5.696818E-3,8.824763E-2,-6.336178E-2,-1.6481927E-2,-1.6074768E-1,1.18474E-1,-1.49198305E-2],"split_indices":[2,5,4,8,0,5,4,0,0,0,0,0,0],"split_type":[0,0,0,0,0,0,0,0,0,0,0,0,0],"sum_hessian":[9.725041E1,5.1282477E0,9.212216E1,2.2865136E0,2.8417342E0,3.2022762E1,6.0099403E1,1.0774031E0,1.2091105E0,2.8189333E1,3.8334286E0,1.1740142E1,4.835926E1],"tree_param":{"num_deleted":"0","num_feature":"10","num_nodes":"13","size_leaf_vector":"1"}},{"base_weights":[-2.0300394E-3,-2.9641458E-1,1.7364822E-2,-4.397032E-2,-1.305655E-1,1.2698905E-1,-4.216865E-2,-8.824762E-2,6.336178E-2,1.6481923E-2,1.6074768E-1,-1.18474E-1,1.4919828E-2],"categories":[],"categories_nodes":[],"categories_segments":[],"categories_sizes":[],"default_left":[0,0,0,0,0,0,0,0,0,0,0,0,0],"id":39,"left_children":[1,3,5,7,-1,9,11,-1,-1,-1,-1,-1,-1],"loss_changes":[5.661126E-1,1.955983E-1,6.1309916E-1,2.719461E-1,0E0,9.432933E-1,2.0003443E0,0E0,0E0,0E0,0E0,0E0,0E0],"parents":[2147483647,0,0,1,1,2,2,3,3,5,5,6,6],"right_children":[2,4,6,8,-1,10,12,-1,-1,-1,-1,-1,-1],"split_conditions":[-5.7940934E-2,-5.736745E-2,-1.6704442E-2,-1.919845E-2,-1.305655E-1,-1.509241E-2,-5.696818E-3,-8.824762E-2,6.336178E-2,1.6481923E-2,1.6074768E-1,-1.18474E-1,1.4919828E-2],"split_indices":[2,5,4,8,0,5,4,0,0,0,0,0,0],"split_type":[0,0,0,0,0,0,0,0,0,0,0,0,0],"sum_hessian":[9.725041E1,5.1282477E0,9.212216E1,2.2865136E0,2.8417344E0,3.2022762E1,6.0099403E1,1.0774031E0,1.2091105E0,2.8189333E1,3.8334289E0,1.1740141E1,4.835926E1],"tree_param":{"num_deleted":"0","num_feature":"10","num_nodes":"13","size_leaf_vector":"1"}}]},"name":"gbtree"},"learner_model_param":{"base_score":"5E-1","boost_from_average":"1","num_class":"2","num_feature":"10","num_target":"1"},"objective":{"name":"multi:softprob","softmax_multiclass_param":{"num_class":"2"}}},"version":[2,0,3]}