{"learner":{"attributes":{"best_iteration":"19","best_ntree_limit":"20"},"feature_names":[],"feature_types":[],"gradient_booster":{"model":{"gbtree_model_param":{"num_parallel_tree":"1","num_trees":"40","size_leaf_vector":"0"},"tree_info":[0,1,0,1,0,1,0,1,0,1,0,1,0,1,0,1,0,1,0,1,0,1,0,1,0,1,0,1,0,1,0,1,0,1,0,1,0,1,0,1],"trees":[{"base_weights":[-2.5352113E-2,3.4234235E-1,-6.296296E-1,6.028369E-1,-1.0843374E-1,-2.1052632E-1,-7.777778E-1,4.4578314E-1,8E-1,7.1428573E-1,-1.7948718E-1,-4.1935483E-1,5.555556E-1,-8.2978725E-1,1.4285715E-1],"categories":[],"categories_nodes":[],"categories_segments":[],"categories_sizes":[],"default_left":[1,1,1,1,1,1,1,0,0,0,0,0,0,0,0],"id":0,"left_children":[1,3,5,7,9,11,13,-1,-1,-1,-1,-1,-1,-1,-1],"loss_changes":[3.9654182E1,1.3099509E1,4.0272903E0,1.8264217E0,2.5541728E0,3.2725902E0,2.4886875E0,0E0,0E0,0E0,0E0,0E0,0E0,0E0,0E0],"parents":[2147483647,0,0,1,1,2,2,3,3,4,4,5,5,6,6],"right_children":[2,4,6,8,10,12,14,-1,-1,-1,-1,-1,-1,-1,-1],"split_conditions":[9.422321E-3,-2.8587314E-3,-1.7720401E-2,2.4709454E-2,-5.2854035E-2,2.619627E-3,1.09540686E-1,1.3373494E-1,2.4000001E-1,2.1428573E-1,-5.3846158E-2,-1.2580645E-1,1.6666669E-1,-2.4893619E-1,4.2857148E-2],"split_indices":[2,8,3,6,9,6,5,0,0,0,0,0,0,0,0],"split_type":[0,0,0,0,0,0,0,0,0,0,0,0,0,0,0],"sum_hessian":[1.765E2,1.1E2,6.65E1,6.95E1,4.05E1,1.8E1,4.85E1,4.05E1,2.9E1,2.5E0,3.8E1,1.45E1,3.5E0,4.6E1,2.5E0],"tree_param":{"num_deleted":"0","num_feature":"10","num_nodes":"15","size_leaf_vector":"0"}},{"base_weights":[2.5352113E-2,-3.4234235E-1,6.296296E-1,-6.028369E-1,1.0843374E-1,2.1052632E-1,7.777778E-1,-4.4578314E-1,-8E-1,-7.1428573E-1,1.7948718E-1,4.1935483E-1,-5.555556E-1,8.2978725E-1,-1.4285715E-1],"categories":[],"categories_nodes":[],"categories_segments":[],"categories_sizes":[],"default_left":[1,1,1,1,1,1,1,0,0,0,0,0,0,0,0],"id":1,"left_children":[1,3,5,7,9,11,13,-1,-1,-1,-1,-1,-1,-1,-1],"loss_changes":[3.9654182E1,1.3099509E1,4.0272903E0,1.8264217E0,2.5541728E0,3.2725902E0,2.4886875E0,0E0,0E0,0E0,0E0,0E0,0E0,0E0,0E0],"parents":[2147483647,0,0,1,1,2,2,3,3,4,4,5,5,6,6],"right_children":[2,4,6,8,10,12,14,-1,-1,-1,-1,-1,-1,-1,-1],"split_conditions":[9.422321E-3,-2.8587314E-3,-1.7720401E-2,2.4709454E-2,-5.2854035E-2,2.619627E-3,1.09540686E-1,-1.3373494E-1,-2.4000001E-1,-2.1428573E-1,5.3846158E-2,1.2580645E-1,-1.6666669E-1,2.4893619E-1,-4.2857148E-2],"split_indices":[2,8,3,6,9,6,5,0,0,0,0,0,0,0,0],"split_type":[0,0,0,0,0,0,0,0,0,0,0,0,0,0,0],"sum_hessian":[1.765E2,1.1E2,6.65E1,6.95E1,4.05E1,1.8E1,4.85E1,4.05E1,2.9E1,2.5E0,3.8E1,1.45E1,3.5E0,4.6E1,2.5E0],"tree_param":{"num_deleted":"0","num_feature":"10","num_nodes":"15","size_leaf_vector":"0"}},{"base_weights":[-1.6564365E-2,2.5174534E-1,-4.679088E-1,4.059529E-1,-2.084782E-1,-1.4795172E-1,-5.8570695E-1,5.686621E-1,2.2726107E-1,4.4055808E-1,-4.043133E-1,-3.1745586E-1,5.6503123E-1,3.5917267E-1,-6.230222E-1],"categories":[],"categories_nodes":[],"categories_segments":[],"categories_sizes":[],"default_left":[1,1,1,1,1,1,1,0,0,0,0,0,0,0,0],"id":2,"left_children":[1,3,5,7,9,11,13,-1,-1,-1,-1,-1,-1,-1,-1],"loss_changes":[2.0933765E1,7.781649E0,2.3419619E0,2.2425241E0,3.7218122E0,2.4366095E0,1.872406E0,0E0,0E0,0E0,0E0,0E0,0E0,0E0,0E0],"parents":[2147483647,0,0,1,1,2,2,3,3,4,4,5,5,6,6],"right_children":[2,4,6,8,10,12,14,-1,-1,-1,-1,-1,-1,-1,-1],"split_conditions":[9.422321E-3,1.3695203E-2,-1.7720401E-2,-3.0137174E-2,-3.2059878E-2,-2.4038032E-2,-4.6290018E-2,1.7059864E-1,6.8178326E-2,1.3216743E-1,-1.2129399E-1,-9.523676E-2,1.6950938E-1,1.0775181E-1,-1.8690667E-1],"split_indices":[2,8,3,8,3,3,8,0,0,0,0,0,0,0,0],"split_type":[0,0,0,0,0,0,0,0,0,0,0,0,0,0,0],"sum_hessian":[1.7089062E2,1.0745458E2,6.3436047E1,8.057437E1,2.688021E1,1.7677456E1,4.5758595E1,4.1030956E1,3.954341E1,5.9409823E0,2.0939228E1,1.4730246E1,2.94721E0,1.4107559E0,4.4347836E1],"tree_param":{"num_deleted":"0","num_feature":"10","num_nodes":"15","size_leaf_vector":"0"}},{"base_weights":[1.6564377E-2,-2.5174528E-1,4.679088E-1,-4.0595284E-1,2.0847823E-1,1.4795174E-1,5.8570695E-1,-5.6866205E-1,-2.27261E-1,-4.4055805E-1,4.0431333E-1,3.174559E-1,-5.6503123E-1,-3.591727E-1,6.2302226E-1],"categories":[],"categories_nodes":[],"categories_segments":[],"categories_sizes":[],"default_left":[1,1,1,1,1,1,1,0,0,0,0,0,0,0,0],"id":3,"left_children":[1,3,5,7,9,11,13,-1,-1,-1,-1,-1,-1,-1,-1],"loss_changes":[2.0933764E1,7.7816477E0,2.34196E0,2.2425241E0,3.7218122E0,2.4366095E0,1.8724079E0,0E0,0E0,0E0,0E0,0E0,0E0,0E0,0E0],"parents":[2147483647,0,0,1,1,2,2,3,3,4,4,5,5,6,6],"right_children":[2,4,6,8,10,12,14,-1,-1,-1,-1,-1,-1,-1,-1],"split_conditions":[9.422321E-3,1.3695203E-2,-1.7720401E-2,-3.0137174E-2,-3.2059878E-2,-2.4038032E-2,-4.6290018E-2,-1.7059863E-1,-6.81783E-2,-1.3216741E-1,1.21294E-1,9.523677E-2,-1.6950938E-1,-1.0775182E-1,1.8690668E-1],"split_indices":[2,8,3,8,3,3,8,0,0,0,0,0,0,0,0],"split_type":[0,0,0,0,0,0,0,0,0,0,0,0,0,0,0],"sum_hessian":[1.7089062E2,1.0745458E2,6.3436043E1,8.057437E1,2.6880213E1,1.7677456E1,4.5758587E1,4.1030956E1,3.9543415E1,5.940983E0,2.093923E1,1.4730246E1,2.94721E0,1.4107556E0,4.434783E1],"tree_param":{"num_deleted":"0","num_feature":"10","num_nodes":"15","size_leaf_vector":"0"}},{"base_weights":[-1.1891416E-2,1.9324633E-1,-3.8603485E-1,3.10396E-1,-1.5896963E-1,-1.8359257E-1,-7.192246E-1,1.538936E-1,4.8147303E-1,-2.5358185E-1,2.9957247E-1,-3.930586E-1,1.4985381E-1],"categories":[],"categories_nodes":[],"categories_segments":[],"categories_sizes":[],"default_left":[1,1,1,1,1,1,0,0,0,0,0,0,0],"id":4,"left_children":[1,3,5,7,9,11,-1,-1,-1,-1,-1,-1,-1],"loss_changes":[1.2501474E1,4.391802E0,3.7579298E0,2.0494156E0,1.2442281E0,2.6583261E0,0E0,0E0,0E0,0E0,0E0,0E0,0E0],"parents":[2147483647,0,0,1,1,2,2,3,3,4,4,5,5],"right_children":[2,4,6,8,10,12,-1,-1,-1,-1,-1,-1,-1],"split_conditions":[1.6671447E-2,6.188885E-3,4.481899E-2,3.0192416E-3,2.1027816E-2,4.865332E-2,-2.1576738E-1,4.616808E-2,1.4444192E-1,-7.6074556E-2,8.987174E-2,-1.1791758E-1,4.4956144E-2],"split_indices":[8,2,3,1,6,4,0,0,0,0,0,0,0],"split_type":[0,0,0,0,0,0,0,0,0,0,0,0,0],"sum_hessian":[1.6091168E2,1.04241165E2,5.6670517E1,7.831256E1,2.5928604E1,3.6216686E1,2.045383E1,4.189046E1,3.64221E1,2.1864273E1,4.064332E0,2.2133793E1,1.4082892E1],"tree_param":{"num_deleted":"0","num_feature":"10","num_nodes":"13","size_leaf_vector":"0"}},{"base_weights":[1.1891379E-2,-1.932464E-1,3.8603485E-1,-3.1039602E-1,1.5896958E-1,1.8359256E-1,7.192246E-1,-1.5389365E-1,-4.814731E-1,2.535818E-1,-2.995725E-1,3.9305857E-1,-1.4985383E-1],"categories":[],"categories_nodes":[],"categories_segments":[],"categories_sizes":[],"default_left":[1,1,1,1,1,1,0,0,0,0,0,0,0],"id":5,"left_children":[1,3,5,7,9,11,-1,-1,-1,-1,-1,-1,-1],"loss_changes":[1.2501475E1,4.391802E0,3.7579288E0,2.0494165E0,1.2442281E0,2.6583261E0,0E0,0E0,0E0,0E0,0E0,0E0,0E0],"parents":[2147483647,0,0,1,1,2,2,3,3,4,4,5,5],"right_children":[2,4,6,8,10,12,-1,-1,-1,-1,-1,-1,-1],"split_conditions":[1.6671447E-2,6.188885E-3,4.481899E-2,3.0192416E-3,2.1027816E-2,4.865332E-2,2.1576738E-1,-4.6168096E-2,-1.4444193E-1,7.607454E-2,-8.987175E-2,1.17917575E-1,-4.4956148E-2],"split_indices":[8,2,3,1,6,4,0,0,0,0,0,0,0],"split_type":[0,0,0,0,0,0,0,0,0,0,0,0,0],"sum_hessian":[1.6091168E2,1.04241165E2,5.6670513E1,7.831256E1,2.5928602E1,3.6216686E1,2.045383E1,4.189046E1,3.64221E1,2.1864271E1,4.0643315E0,2.2133793E1,1.4082892E1],"tree_param":{"num_deleted":"0","num_feature":"10","num_nodes":"13","size_leaf_vector":"0"}},{"base_weights":[-1.1100881E-2,2.0280398E-1,-2.3666911E-1,3.65902E-1,-3.3326205E-2,3.8403845E-1,-3.04969E-1,-7.722211E-2,4.664382E-1,-2.521899E-1,2.7308264E-1,3.028114E-2,6.525595E-1,-3.808402E-1,1.3803849E-1],"categories":[],"categories_nodes":[],"categories_segments":[],"categories_sizes":[],"default_left":[1,1,1,1,1,1,1,0,0,0,0,0,0,0,0],"id":6,"left_children":[1,3,5,7,9,11,13,-1,-1,-1,-1,-1,-1,-1,-1],"loss_changes":[7.424191E0,3.0548308E0,3.2911735E0,2.1214852E0,2.2948065E0,7.272816E-1,2.3383412E0,0E0,0E0,0E0,0E0,0E0,0E0,0E0,0E0],"parents":[2147483647,0,0,1,1,2,2,3,3,4,4,5,5,6,6],"right_children":[2,4,6,8,10,12,14,-1,-1,-1,-1,-1,-1,-1,-1],"split_conditions":[-1.6962859E-4,-1.08346995E-2,-3.21435E-2,-1.94702E-2,3.0192416E-3,-4.0427715E-2,6.789193E-2,-2.3166634E-2,1.3993147E-1,-7.565697E-2,8.1924796E-2,9.084342E-3,1.9576786E-1,-1.1425207E-1,4.141155E-2],"split_indices":[8,3,9,6,1,9,5,0,0,0,0,0,0,0,0],"split_type":[0,0,0,0,0,0,0,0,0,0,0,0,0,0,0],"sum_hessian":[1.5187402E2,7.8004135E1,7.386989E1,4.581179E1,3.219235E1,6.8643193E0,6.700557E1,8.514612E0,3.729718E1,1.8882082E1,1.3310266E1,3.442216E0,3.4221034E0,5.732773E1,9.677841E0],"tree_param":{"num_deleted":"0","num_feature":"10","num_nodes":"15","size_leaf_vector":"0"}},{"base_weights":[1.1100864E-2,-2.02804E-1,2.3666911E-1,-3.6590204E-1,3.3326183E-2,-3.8403848E-1,3.04969E-1,7.7222034E-2,-4.664382E-1,2.521899E-1,-2.730827E-1,-3.0281177E-2,-6.525595E-1,3.8084018E-1,-1.3803849E-1],"categories":[],"categories_nodes":[],"categories_segments":[],"categories_sizes":[],"default_left":[1,1,1,1,1,1,1,0,0,0,0,0,0,0,0],"id":7,"left_children":[1,3,5,7,9,11,13,-1,-1,-1,-1,-1,-1,-1,-1],"loss_changes":[7.4241915E0,3.0548306E0,3.2911735E0,2.1214848E0,2.2948072E0,7.2728145E-1,2.3383408E0,0E0,0E0,0E0,0E0,0E0,0E0,0E0,0E0],"parents":[2147483647,0,0,1,1,2,2,3,3,4,4,5,5,6,6],"right_children":[2,4,6,8,10,12,14,-1,-1,-1,-1,-1,-1,-1,-1],"split_conditions":[-1.6962859E-4,-1.08346995E-2,-3.21435E-2,-1.94702E-2,3.0192416E-3,-4.0427715E-2,6.789193E-2,2.3166612E-2,-1.3993147E-1,7.565697E-2,-8.192481E-2,-9.084353E-3,-1.9576786E-1,1.1425206E-1,-4.141155E-2],"split_indices":[8,3,9,6,1,9,5,0,0,0,0,0,0,0,0],"split_type":[0,0,0,0,0,0,0,0,0,0,0,0,0,0,0],"sum_hessian":[1.5187402E2,7.8004135E1,7.386989E1,4.581179E1,3.219235E1,6.8643193E0,6.700557E1,8.514612E0,3.729718E1,1.888208E1,1.33102665E1,3.442216E0,3.4221034E0,5.732773E1,9.67784E0],"tree_param":{"num_deleted":"0","num_feature":"10","num_nodes":"15","size_leaf_vector":"0"}},{"base_weights":[-6.120269E-3,1.3424528E-1,-2.6242793E-1,5.224979E-1,7.077616E-2,-9.57575E-2,-4.1672528E-1,5.771546E-1,-1.1801308E-3,2.2785034E-4,5.058085E-1,-2.67037E-1,3.0855522E-1,2.0721711E-1,-4.9705943E-1],"categories":[],"categories_nodes":[],"categories_segments":[],"categories_sizes":[],"default_left":[1,1,1,1,1,1,1,0,0,0,0,0,0,0,0],"id":8,"left_children":[1,3,5,7,9,11,13,-1,-1,-1,-1,-1,-1,-1,-1],"loss_changes":[5.255075E0,2.2894769E0,1.2891219E0,3.7587643E-1,2.525788E0,1.892734E0,1.433157E0,0E0,0E0,0E0,0E0,0E0,0E0,0E0,0E0],"parents":[2147483647,0,0,1,1,2,2,3,3,4,4,5,5,6,6],"right_children":[2,4,6,8,10,12,14,-1,-1,-1,-1,-1,-1,-1,-1],"split_conditions":[9.422321E-3,-5.8479838E-2,2.6388679E-2,1.20432034E-1,5.7844196E-2,1.7561784E-2,-2.3859285E-2,1.7314638E-1,-3.5403925E-4,6.8355104E-5,1.5174255E-1,-8.01111E-2,9.2566565E-2,6.2165137E-2,-1.4911784E-1],"split_indices":[2,2,8,6,6,9,9,0,0,0,0,0,0,0,0],"split_type":[0,0,0,0,0,0,0,0,0,0,0,0,0,0,0],"sum_hessian":[1.4408936E2,9.341006E1,5.0679295E1,1.2108396E1,8.130166E1,2.514189E1,2.5537405E1,1.08716E1,1.2367952E0,7.08178E1,1.0483855E1,1.789889E1,7.243E0,2.7327948E0,2.2804611E1],"tree_param":{"num_deleted":"0","num_feature":"10","num_nodes":"15","size_leaf_vector":"0"}},{"base_weights":[6.1202734E-3,-1.3424528E-1,2.6242793E-1,-5.2249783E-1,-7.0776165E-2,9.57575E-2,4.167253E-1,-5.771546E-1,1.1800975E-3,-2.2785428E-4,-5.058085E-1,2.67037E-1,-3.0855525E-1,-2.072171E-1,4.9705946E-1],"categories":[],"categories_nodes":[],"categories_segments":[],"categories_sizes":[],"default_left":[1,1,1,1,1,1,1,0,0,0,0,0,0,0,0],"id":9,"left_children":[1,3,5,7,9,11,13,-1,-1,-1,-1,-1,-1,-1,-1],"loss_changes":[5.2550755E0,2.2894764E0,1.2891219E0,3.7587643E-1,2.525788E0,1.8927343E0,1.4331574E0,0E0,0E0,0E0,0E0,0E0,0E0,0E0,0E0],"parents":[2147483647,0,0,1,1,2,2,3,3,4,4,5,5,6,6],"right_children":[2,4,6,8,10,12,14,-1,-1,-1,-1,-1,-1,-1,-1],"split_conditions":[9.422321E-3,-5.8479838E-2,2.6388679E-2,1.20432034E-1,5.7844196E-2,1.7561784E-2,-2.3859285E-2,-1.7314638E-1,3.5402924E-4,-6.835629E-5,-1.5174255E-1,8.01111E-2,-9.256658E-2,-6.216513E-2,1.4911784E-1],"split_indices":[2,2,8,6,6,9,9,0,0,0,0,0,0,0,0],"split_type":[0,0,0,0,0,0,0,0,0,0,0,0,0,0,0],"sum_hessian":[1.4408934E2,9.341005E1,5.0679295E1,1.2108395E1,8.130166E1,2.514189E1,2.5537407E1,1.0871599E1,1.2367953E0,7.08178E1,1.0483856E1,1.789889E1,7.243E0,2.7327948E0,2.2804611E1],"tree_param":{"num_deleted":"0","num_feature":"10","num_nodes":"15","size_leaf_vector":"0"}},{"base_weights":[-3.365145E-3,1.7734681E-1,-1.3981599E-1,-2.9667718E-2,4.1236162E-1,2.4018219E-2,-3.9270258E-1,-3.2671914E-1,2.9567838E-1,-6.134431E-1,4.7576392E-1,1.9711608E-1,-2.8448284E-1,-4.6399683E-1,3.628201E-1],"categories":[],"categories_nodes":[],"categories_segments":[],"categories_sizes":[],"default_left":[1,1,1,1,1,1,1,0,0,0,0,0,0,0,0],"id":10,"left_children":[1,3,5,7,9,11,13,-1,-1,-1,-1,-1,-1,-1,-1],"loss_changes":[3.4449706E0,2.9368691E0,3.306912E0,3.2756135E0,2.1272473E0,2.685574E0,1.8568916E0,0E0,0E0,0E0,0E0,0E0,0E0,0E0,0E0],"parents":[2147483647,0,0,1,1,2,2,3,3,4,4,5,5,6,6],"right_children":[2,4,6,8,10,12,14,-1,-1,-1,-1,-1,-1,-1,-1],"split_conditions":[-1.4277549E-2,-1.0620109E-3,1.9551978E-2,3.0192416E-3,-7.518244E-2,2.899456E-2,1.0437373E-1,-9.801575E-2,8.870351E-2,-1.8403293E-1,1.4272918E-1,5.9134826E-2,-8.534485E-2,-1.3919905E-1,1.0884603E-1],"split_indices":[3,6,8,1,4,0,5,0,0,0,0,0,0,0,0],"split_type":[0,0,0,0,0,0,0,0,0,0,0,0,0,0,0],"sum_hessian":[1.3770277E2,5.911401E1,7.858877E1,3.1893845E1,2.7220165E1,4.8240726E1,3.0348043E1,1.6669676E1,1.5224169E1,1.0794828E0,2.6140682E1,3.113317E1,1.7107557E1,2.80838E1,2.2642438E0],"tree_param":{"num_deleted":"0","num_feature":"10","num_nodes":"15","size_leaf_vector":"0"}},{"base_weights":[3.3651686E-3,-1.7734681E-1,1.3981603E-1,2.9667737E-2,-4.1236162E-1,-2.4018195E-2,3.9270264E-1,3.2671916E-1,-2.9567835E-1,6.13443E-1,-4.7576392E-1,-1.9711605E-1,2.8448284E-1,4.6399686E-1,-3.628201E-1],"categories":[],"categories_nodes":[],"categories_segments":[],"categories_sizes":[],"default_left":[1,1,1,1,1,1,1,0,0,0,0,0,0,0,0],"id":11,"left_children":[1,3,5,7,9,11,13,-1,-1,-1,-1,-1,-1,-1,-1],"loss_changes":[3.4449716E0,2.9368696E0,3.3069124E0,3.2756135E0,2.1272473E0,2.6855736E0,1.8568921E0,0E0,0E0,0E0,0E0,0E0,0E0,0E0,0E0],"parents":[2147483647,0,0,1,1,2,2,3,3,4,4,5,5,6,6],"right_children":[2,4,6,8,10,12,14,-1,-1,-1,-1,-1,-1,-1,-1],"split_conditions":[-1.4277549E-2,-1.0620109E-3,1.9551978E-2,3.0192416E-3,-7.518244E-2,2.899456E-2,1.0437373E-1,9.8015755E-2,-8.8703506E-2,1.8403292E-1,-1.4272918E-1,-5.9134815E-2,8.534485E-2,1.3919906E-1,-1.0884603E-1],"split_indices":[3,6,8,1,4,0,5,0,0,0,0,0,0,0,0],"split_type":[0,0,0,0,0,0,0,0,0,0,0,0,0,0,0],"sum_hessian":[1.3770279E2,5.911401E1,7.8588776E1,3.1893845E1,2.7220167E1,4.8240726E1,3.0348045E1,1.6669676E1,1.5224169E1,1.0794829E0,2.6140684E1,3.113317E1,1.7107557E1,2.8083801E1,2.2642438E0],"tree_param":{"num_deleted":"0","num_feature":"10","num_nodes":"15","size_leaf_vector":"0"}},{"base_weights":[-3.5180412E-3,2.1056479E-1,-8.9704506E-2,4.041898E-1,1.6810033E-2,-5.2854E-1,-4.206526E-2,4.827398E-1,-8.293245E-2,-6.589695E-1,1.3990067E-1,1.7420423E-1,-7.9134345E-1,1.8679162E-2,-4.9387234E-1],"categories":[],"categories_nodes":[],"categories_segments":[],"categories_sizes":[],"default_left":[1,1,1,1,1,1,1,0,0,0,0,0,0,0,0],"id":12,"left_children":[1,3,5,7,9,11,13,-1,-1,-1,-1,-1,-1,-1,-1],"loss_changes":[2.4379666E0,1.4162058E0,1.9466159E0,7.6429796E-1,1.756033E0,1.8251367E0,2.370603E0,0E0,0E0,0E0,0E0,0E0,0E0,0E0,0E0],"parents":[2147483647,0,0,1,1,2,2,3,3,4,4,5,5,6,6],"right_children":[2,4,6,8,10,12,14,-1,-1,-1,-1,-1,-1,-1,-1],"split_conditions":[-2.9378913E-2,-2.8924797E-2,-4.7190126E-2,1.7561784E-2,-6.0046956E-2,-6.707506E-2,6.36715E-2,1.4482194E-1,-2.4879737E-2,-1.9769086E-1,4.19702E-2,5.226127E-2,-2.3740305E-1,5.603749E-3,-1.4816171E-1],"split_indices":[2,8,5,9,4,5,8,0,0,0,0,0,0,0,0],"split_type":[0,0,0,0,0,0,0,0,0,0,0,0,0,0,0],"sum_hessian":[1.3010793E2,3.693073E1,9.31772E1,1.7928322E1,1.9002405E1,8.1360655E0,8.504113E1,1.5446519E1,2.481804E0,2.2571118E0,1.6745293E1,2.3062403E0,5.8298254E0,7.5807625E1,9.233504E0],"tree_param":{"num_deleted":"0","num_feature":"10","num_nodes":"15","size_leaf_vector":"0"}},{"base_weights":[3.5180438E-3,-2.1056479E-1,8.9704506E-2,-4.041898E-1,-1.6810011E-2,5.2854E-1,4.2065263E-2,-4.827398E-1,8.293241E-2,6.589695E-1,-1.3990065E-1,-1.7420426E-1,7.9134345E-1,-1.867916E-2,4.9387234E-1],"categories":[],"categories_nodes":[],"categories_segments":[],"categories_sizes":[],"default_left":[1,1,1,1,1,1,1,0,0,0,0,0,0,0,0],"id":13,"left_children":[1,3,5,7,9,11,13,-1,-1,-1,-1,-1,-1,-1,-1],"loss_changes":[2.4379666E0,1.4162061E0,1.9466157E0,7.642977E-1,1.7560332E0,1.8251374E0,2.3706033E0,0E0,0E0,0E0,0E0,0E0,0E0,0E0,0E0],"parents":[2147483647,0,0,1,1,2,2,3,3,4,4,5,5,6,6],"right_children":[2,4,6,8,10,12,14,-1,-1,-1,-1,-1,-1,-1,-1],"split_conditions":[-2.9378913E-2,-2.8924797E-2,-4.7190126E-2,1.7561784E-2,-6.0046956E-2,-6.707506E-2,6.36715E-2,-1.4482194E-1,2.4879726E-2,1.9769086E-1,-4.1970197E-2,-5.226128E-2,2.3740305E-1,-5.6037484E-3,1.4816171E-1],"split_indices":[2,8,5,9,4,5,8,0,0,0,0,0,0,0,0],"split_type":[0,0,0,0,0,0,0,0,0,0,0,0,0,0,0],"sum_hessian":[1.3010793E2,3.693073E1,9.31772E1,1.7928324E1,1.9002403E1,8.1360655E0,8.504113E1,1.5446519E1,2.4818041E0,2.2571118E0,1.6745293E1,2.3062406E0,5.8298254E0,7.5807625E1,9.233504E0],"tree_param":{"num_deleted":"0","num_feature":"10","num_nodes":"15","size_leaf_vector":"0"}},{"base_weights":[-5.0351587E-3,-7.8639954E-2,1.9846761E-1,-1.2109025E-2,-3.4200567E-1,2.9487944E-1,-1.18317164E-1,-1.7829293E-1,1.4580843E-1,2.057889E-1,-4.0850252E-1,5.7740533E-1,1.2865102E-1,5.136014E-1,-3.0683812E-1],"categories":[],"categories_nodes":[],"categories_segments":[],"categories_sizes":[],"default_left":[1,1,1,1,1,1,1,0,0,0,0,0,0,0,0],"id":14,"left_children":[1,3,5,7,9,11,13,-1,-1,-1,-1,-1,-1,-1,-1],"loss_changes":[1.913293E0,1.638652E0,1.0713365E0,2.0174701E0,7.714827E-1,1.1610305E0,1.1859039E0,0E0,0E0,0E0,0E0,0E0,0E0,0E0,0E0],"parents":[2147483647,0,0,1,1,2,2,3,3,4,4,5,5,6,6],"right_children":[2,4,6,8,10,12,14,-1,-1,-1,-1,-1,-1,-1,-1],"split_conditions":[2.1027816E-2,4.481899E-2,1.4793633E-2,3.0192416E-3,-3.138601E-2,4.3117642E-2,-3.21435E-2,-5.3487882E-2,4.374253E-2,6.173667E-2,-1.2255076E-1,1.732216E-1,3.8595308E-2,1.5408044E-1,-9.205144E-2],"split_indices":[6,3,8,1,8,6,9,0,0,0,0,0,0,0,0],"split_type":[0,0,0,0,0,0,0,0,0,0,0,0,0,0,0],"sum_hessian":[1.256916E2,9.275622E1,3.2935375E1,7.488492E1,1.7871302E1,2.5303526E1,7.631849E0,3.642459E1,3.8460323E1,1.7078096E0,1.6163492E1,8.456717E0,1.684681E1,1.3574226E0,6.2744265E0],"tree_param":{"num_deleted":"0","num_feature":"10","num_nodes":"15","size_leaf_vector":"0"}},{"base_weights":[5.0351666E-3,7.863996E-2,-1.984676E-1,1.2109032E-2,3.420057E-1,-2.948794E-1,1.1831715E-1,1.7829295E-1,-1.4580843E-1,-2.057889E-1,4.0850252E-1,-5.774053E-1,-1.2865101E-1,-5.136014E-1,3.0683812E-1],"categories":[],"categories_nodes":[],"categories_segments":[],"categories_sizes":[],"default_left":[1,1,1,1,1,1,1,0,0,0,0,0,0,0,0],"id":15,"left_children":[1,3,5,7,9,11,13,-1,-1,-1,-1,-1,-1,-1,-1],"loss_changes":[1.9132929E0,1.6386521E0,1.0713364E0,2.0174704E0,7.7148247E-1,1.1610303E0,1.1859038E0,0E0,0E0,0E0,0E0,0E0,0E0,0E0,0E0],"parents":[2147483647,0,0,1,1,2,2,3,3,4,4,5,5,6,6],"right_children":[2,4,6,8,10,12,14,-1,-1,-1,-1,-1,-1,-1,-1],"split_conditions":[2.1027816E-2,4.481899E-2,1.4793633E-2,3.0192416E-3,-3.138601E-2,4.3117642E-2,-3.21435E-2,5.3487886E-2,-4.374253E-2,-6.173667E-2,1.2255076E-1,-1.7322159E-1,-3.8595304E-2,-1.5408044E-1,9.205144E-2],"split_indices":[6,3,8,1,8,6,9,0,0,0,0,0,0,0,0],"split_type":[0,0,0,0,0,0,0,0,0,0,0,0,0,0,0],"sum_hessian":[1.256916E2,9.275622E1,3.2935375E1,7.488492E1,1.7871302E1,2.5303526E1,7.631849E0,3.6424595E1,3.8460323E1,1.7078094E0,1.6163492E1,8.456717E0,1.684681E1,1.3574226E0,6.2744265E0],"tree_param":{"num_deleted":"0","num_feature":"10","num_nodes":"15","size_leaf_vector":"0"}},{"base_weights":[-2.067101E-3,3.8414016E-1,-3.388926E-2,8.0125034E-2,5.272281E-1,-3.1041008E-1,1.9890524E-2,3.8768128E-1,-3.1301415E-1,-3.8155535E-1,3.986429E-1,2.6573956E-1,-1.0498012E-1],"categories":[],"categories_nodes":[],"categories_segments":[],"categories_sizes":[],"default_left":[1,1,1,1,0,1,1,0,0,0,0,0,0],"id":16,"left_children":[1,3,5,7,-1,9,11,-1,-1,-1,-1,-1,-1],"loss_changes":[1.5153455E0,3.6607778E-1,1.6993204E0,6.2715155E-1,0E0,1.0902936E0,2.9828866E0,0E0,0E0,0E0,0E0,0E0,0E0],"parents":[2147483647,0,0,1,1,2,2,3,3,5,5,6,6],"right_children":[2,4,6,8,-1,10,12,-1,-1,-1,-1,-1,-1],"split_conditions":[-5.8479838E-2,-5.580171E-2,-4.3535523E-2,-1.9203007E-2,1.5816844E-1,5.4011397E-2,-1.6567044E-2,1.1630439E-1,-9.390425E-2,-1.1446661E-1,1.19592875E-1,7.972187E-2,-3.1494036E-2],"split_indices":[2,5,4,8,0,3,3,0,0,0,0,0,0],"split_type":[0,0,0,0,0,0,0,0,0,0,0,0,0],"sum_hessian":[1.21240326E2,8.386517E0,1.12853806E2,3.183209E0,5.2033076E0,1.7597979E1,9.525583E1,1.7937925E0,1.3894166E0,1.6413004E1,1.1849747E0,3.1705326E1,6.3550503E1],"tree_param":{"num_deleted":"0","num_feature":"10","num_nodes":"13","size_leaf_vector":"0"}},{"base_weights":[2.067097E-3,-3.841402E-1,3.3889256E-2,-8.012508E-2,-5.272281E-1,3.1041008E-1,-1.9890526E-2,-3.8768128E-1,3.130141E-1,3.8155535E-1,-3.9864293E-1,-2.6573953E-1,1.0498011E-1],"categories":[],"categories_nodes":[],"categories_segments":[],"categories_sizes":[],"default_left":[1,1,1,1,0,1,1,0,0,0,0,0,0],"id":17,"left_children":[1,3,5,7,-1,9,11,-1,-1,-1,-1,-1,-1],"loss_changes":[1.5153457E0,3.6607766E-1,1.6993204E0,6.271515E-1,0E0,1.0902936E0,2.9828866E0,0E0,0E0,0E0,0E0,0E0,0E0],"parents":[2147483647,0,0,1,1,2,2,3,3,5,5,6,6],"right_children":[2,4,6,8,-1,10,12,-1,-1,-1,-1,-1,-1],"split_conditions":[-5.8479838E-2,-5.580171E-2,-4.3535523E-2,-1.9203007E-2,-1.5816844E-1,5.4011397E-2,-1.6567044E-2,-1.1630439E-1,9.3904234E-2,1.1446661E-1,-1.1959288E-1,-7.972186E-2,3.1494036E-2],"split_indices":[2,5,4,8,0,3,3,0,0,0,0,0,0],"split_type":[0,0,0,0,0,0,0,0,0,0,0,0,0],"sum_hessian":[1.21240326E2,8.386517E0,1.12853806E2,3.1832092E0,5.2033076E0,1.7597979E1,9.525583E1,1.7937925E0,1.3894166E0,1.6413004E1,1.1849747E0,3.1705326E1,6.3550503E1],"tree_param":{"num_deleted":"0","num_feature":"10","num_nodes":"13","size_leaf_vector":"0"}},{"base_weights":[1.6257241E-3,3.120167E-2,-4.2712614E-1,2.856686E-1,-1.513991E-2,6.531993E-2,-5.20969E-1,1.6076649E-2,4.383919E-1,-3.9996764E-1,2.4267595E-2],"categories":[],"categories_nodes":[],"categories_segments":[],"categories_sizes":[],"default_left":[1,1,1,1,1,0,0,0,0,0,0],"id":18,"left_children":[1,3,5,7,9,-1,-1,-1,-1,-1,-1],"loss_changes":[1.5360687E0,1.3400025E0,3.9527535E-1,7.1346736E-1,1.4771762E0,0E0,0E0,0E0,0E0,0E0,0E0],"parents":[2147483647,0,0,1,1,2,2,3,3,4,4],"right_children":[2,4,6,8,10,-1,-1,-1,-1,-1,-1],"split_conditions":[7.301323E-2,-4.3277316E-2,-5.4553825E-2,-6.741087E-2,-5.2479215E-2,1.959598E-2,-1.562907E-1,4.8229946E-3,1.3151757E-1,-1.199903E-1,7.280279E-3],"split_indices":[2,8,0,8,4,0,0,0,0,0,0],"split_type":[0,0,0,0,0,0,0,0,0,0,0],"sum_hessian":[1.1908301E2,1.1226596E2,6.8170476E0,1.6499716E1,9.576625E1,1.1398035E0,5.677244E0,6.3665485E0,1.0133166E1,8.045887E0,8.772036E1],"tree_param":{"num_deleted":"0","num_feature":"10","num_nodes":"11","size_leaf_vector":"0"}},{"base_weights":[-1.6257252E-3,-3.1201668E-2,4.271261E-1,-2.8566864E-1,1.5139914E-2,-6.5319985E-2,5.20969E-1,-1.6076665E-2,-4.383919E-1,3.9996764E-1,-2.426759E-2],"categories":[],"categories_nodes":[],"categories_segments":[],"categories_sizes":[],"default_left":[1,1,1,1,1,0,0,0,0,0,0],"id":19,"left_children":[1,3,5,7,9,-1,-1,-1,-1,-1,-1],"loss_changes":[1.5360686E0,1.3400027E0,3.9527535E-1,7.134675E-1,1.4771762E0,0E0,0E0,0E0,0E0,0E0,0E0],"parents":[2147483647,0,0,1,1,2,2,3,3,4,4],"right_children":[2,4,6,8,10,-1,-1,-1,-1,-1,-1],"split_conditions":[7.301323E-2,-4.3277316E-2,-5.4553825E-2,-6.741087E-2,-5.2479215E-2,-1.9595996E-2,1.562907E-1,-4.8229997E-3,-1.3151757E-1,1.199903E-1,-7.280277E-3],"split_indices":[2,8,0,8,4,0,0,0,0,0,0],"split_type":[0,0,0,0,0,0,0,0,0,0,0],"sum_hessian":[1.1908301E2,1.1226596E2,6.8170476E0,1.6499716E1,9.576625E1,1.1398035E0,5.6772437E0,6.3665485E0,1.0133166E1,8.045887E0,8.772036E1],"tree_param":{"num_deleted":"0","num_feature":"10","num_nodes":"11","size_leaf_vector":"0"}},{"base_weights":[1.176544E-4,7.6085225E-2,-1.4907569E-1,-6.497517E-2,2.1541758E-1,3.1056526E-1,-1.9887732E-1,-1.729229E-1,3.185494E-1,-4.6848467E-1,2.591198E-1,6.612128E-1,-3.2113066E-1,-4.2333573E-2,-3.638528E-1],"categories":[],"categories_nodes":[],"categories_segments":[],"categories_sizes":[],"default_left":[1,1,1,1,1,1,1,0,0,0,0,0,0,0,0],"id":20,"left_children":[1,3,5,7,9,11,13,-1,-1,-1,-1,-1,-1,-1,-1],"loss_changes":[1.3480363E0,1.5629268E0,9.8036E-1,1.7082034E0,1.3132985E0,1.1677455E0,9.35403E-1,0E0,0E0,0E0,0E0,0E0,0E0,0E0,0E0],"parents":[2147483647,0,0,1,1,2,2,3,3,4,4,5,5,6,6],"right_children":[2,4,6,8,10,12,14,-1,-1,-1,-1,-1,-1,-1,-1],"split_conditions":[9.422321E-3,3.0192416E-3,-4.3275774E-2,5.7844196E-2,-7.101312E-2,3.0192416E-3,7.19933E-3,-5.187687E-2,9.556482E-2,-1.4054541E-1,7.7735946E-2,1.9836386E-1,-9.63392E-2,-1.27000725E-2,-1.0915584E-1],"split_indices":[2,1,5,6,6,1,0,0,0,0,0,0,0,0,0],"split_type":[0,0,0,0,0,0,0,0,0,0,0,0,0,0,0],"sum_hessian":[1.1693815E2,7.780881E1,3.9129345E1,3.892983E1,3.887898E1,3.3133106E0,3.5816032E1,3.0807732E1,8.122095E0,1.7513845E0,3.7127594E1,2.1005769E0,1.2127339E0,1.9022427E1,1.6793606E1],"tree_param":{"num_deleted":"0","num_feature":"10","num_nodes":"15","size_leaf_vector":"0"}},{"base_weights":[-1.17662494E-4,-7.608523E-2,1.4907567E-1,6.4975165E-2,-2.1541758E-1,-3.1056526E-1,1.988773E-1,1.7292288E-1,-3.185494E-1,4.6848467E-1,-2.591198E-1,-6.612129E-1,3.211307E-1,4.2333562E-2,3.6385277E-1],"categories":[],"categories_nodes":[],"categories_segments":[],"categories_sizes":[],"default_left":[1,1,1,1,1,1,1,0,0,0,0,0,0,0,0],"id":21,"left_children":[1,3,5,7,9,11,13,-1,-1,-1,-1,-1,-1,-1,-1],"loss_changes":[1.3480363E0,1.5629268E0,9.803599E-1,1.7082033E0,1.3132985E0,1.1677457E0,9.35403E-1,0E0,0E0,0E0,0E0,0E0,0E0,0E0,0E0],"parents":[2147483647,0,0,1,1,2,2,3,3,4,4,5,5,6,6],"right_children":[2,4,6,8,10,12,14,-1,-1,-1,-1,-1,-1,-1,-1],"split_conditions":[9.422321E-3,3.0192416E-3,-4.3275774E-2,5.7844196E-2,-7.101312E-2,3.0192416E-3,7.19933E-3,5.1876865E-2,-9.556482E-2,1.4054541E-1,-7.7735946E-2,-1.9836389E-1,9.633921E-2,1.2700069E-2,1.0915583E-1],"split_indices":[2,1,5,6,6,1,0,0,0,0,0,0,0,0,0],"split_type":[0,0,0,0,0,0,0,0,0,0,0,0,0,0,0],"sum_hessian":[1.1693815E2,7.78088E1,3.9129345E1,3.8929825E1,3.887898E1,3.3133109E0,3.5816032E1,3.0807732E1,8.122095E0,1.7513845E0,3.7127594E1,2.1005766E0,1.212734E0,1.9022427E1,1.6793606E1],"tree_param":{"num_deleted":"0","num_feature":"10","num_nodes":"15","size_leaf_vector":"0"}},{"base_weights":[-6.487388E-4,6.864561E-2,-1.2934892E-1,-3.6390428E-2,3.4018248E-1,-3.0437747E-1,9.812951E-2,6.9021076E-2,-3.6333424E-1,4.1750026E-1,-4.6090898E-1,3.449454E-1,-3.5046822E-1,2.203144E-1,-4.7241947E-1],"categories":[],"categories_nodes":[],"categories_segments":[],"categories_sizes":[],"default_left":[1,1,1,1,1,1,1,0,0,0,0,0,0,0,0],"id":22,"left_children":[1,3,5,7,9,11,13,-1,-1,-1,-1,-1,-1,-1,-1],"loss_changes":[1.0315173E0,2.156889E0,1.6415325E0,1.9247478E0,1.497422E0,8.1283593E-1,1.3838732E0,0E0,0E0,0E0,0E0,0E0,0E0,0E0,0E0],"parents":[2147483647,0,0,1,1,2,2,3,3,4,4,5,5,6,6],"right_children":[2,4,6,8,10,12,14,-1,-1,-1,-1,-1,-1,-1,-1],"split_conditions":[1.7318456E-2,-3.5059168E-3,5.0825343E-2,2.7036663E-2,7.969339E-2,-5.788126E-2,6.323394E-2,2.0706324E-2,-1.0900027E-1,1.2525009E-1,-1.382727E-1,1.03483625E-1,-1.0514047E-1,6.6094324E-2,-1.4172585E-1],"split_indices":[5,5,5,3,9,3,8,0,0,0,0,0,0,0,0],"split_type":[0,0,0,0,0,0,0,0,0,0,0,0,0,0,0],"sum_hessian":[1.13668724E2,7.419013E1,3.9478596E1,5.4121E1,2.006913E1,2.2120434E1,1.735816E1,4.152244E1,1.2598557E1,1.873933E1,1.3298004E0,1.0363513E0,2.1084084E1,1.4802098E1,2.5560613E0],"tree_param":{"num_deleted":"0","num_feature":"10","num_nodes":"15","size_leaf_vector":"0"}},{"base_weights":[6.487406E-4,-6.864561E-2,1.2934892E-1,3.6390428E-2,-3.4018248E-1,3.043775E-1,-9.8129496E-2,-6.902107E-2,3.633342E-1,-4.1750023E-1,4.6090895E-1,-3.449454E-1,3.5046822E-1,-2.2031438E-1,4.724195E-1],"categories":[],"categories_nodes":[],"categories_segments":[],"categories_sizes":[],"default_left":[1,1,1,1,1,1,1,0,0,0,0,0,0,0,0],"id":23,"left_children":[1,3,5,7,9,11,13,-1,-1,-1,-1,-1,-1,-1,-1],"loss_changes":[1.0315174E0,2.156889E0,1.6415324E0,1.9247477E0,1.4974217E0,8.128357E-1,1.3838732E0,0E0,0E0,0E0,0E0,0E0,0E0,0E0,0E0],"parents":[2147483647,0,0,1,1,2,2,3,3,4,4,5,5,6,6],"right_children":[2,4,6,8,10,12,14,-1,-1,-1,-1,-1,-1,-1,-1],"split_conditions":[1.7318456E-2,-3.5059168E-3,5.0825343E-2,2.7036663E-2,7.969339E-2,-5.788126E-2,6.323394E-2,-2.0706322E-2,1.09000266E-1,-1.2525007E-1,1.3827269E-1,-1.03483625E-1,1.0514047E-1,-6.609432E-2,1.4172585E-1],"split_indices":[5,5,5,3,9,3,8,0,0,0,0,0,0,0,0],"split_type":[0,0,0,0,0,0,0,0,0,0,0,0,0,0,0],"sum_hessian":[1.13668724E2,7.419013E1,3.9478596E1,5.4121E1,2.006913E1,2.2120434E1,1.735816E1,4.152244E1,1.2598557E1,1.873933E1,1.3298002E0,1.0363513E0,2.1084084E1,1.4802098E1,2.5560613E0],"tree_param":{"num_deleted":"0","num_feature":"10","num_nodes":"15","size_leaf_vector":"0"}},{"base_weights":[-2.860651E-3,3.4477976E-1,-2.8537521E-2,4.200751E-1,-7.0239924E-2,-2.9724705E-1,4.680717E-3,-5.0360948E-2,5.1545215E-1,-5.610111E-1,3.129593E-1,4.9263824E-2,-2.4500635E-1],"categories":[],"categories_nodes":[],"categories_segments":[],"categories_sizes":[],"default_left":[1,1,1,1,0,1,1,0,0,0,0,0,0],"id":24,"left_children":[1,3,5,7,-1,9,11,-1,-1,-1,-1,-1,-1],"loss_changes":[1.0004771E0,2.7042496E-1,9.3210953E-1,3.251871E-1,0E0,2.0244632E0,1.0560402E0,0E0,0E0,0E0,0E0,0E0,0E0],"parents":[2147483647,0,0,1,1,2,2,3,3,5,5,6,6],"right_children":[2,4,6,8,-1,10,12,-1,-1,-1,-1,-1,-1],"split_conditions":[-5.8479838E-2,-6.57473E-5,-5.8186363E-2,-7.770668E-2,-2.1071978E-2,3.0192416E-3,6.4383276E-2,-1.5108285E-2,1.5463565E-1,-1.6830333E-1,9.38878E-2,1.4779148E-2,-7.350191E-2],"split_indices":[2,0,0,9,0,1,7,0,0,0,0,0,0],"split_type":[0,0,0,0,0,0,0,0,0,0,0,0,0],"sum_hessian":[1.0997945E2,6.7096415E0,1.03269806E2,5.6689634E0,1.040678E0,1.0487317E1,9.278249E1,1.0351567E0,4.6338067E0,7.378537E0,3.1087804E0,7.940666E1,1.3375833E1],"tree_param":{"num_deleted":"0","num_feature":"10","num_nodes":"13","size_leaf_vector":"0"}},{"base_weights":[2.8606483E-3,-3.4477976E-1,2.8537517E-2,-4.2007506E-1,7.023988E-2,2.9724702E-1,-4.6807188E-3,5.036098E-2,-5.1545215E-1,5.610111E-1,-3.1295934E-1,-4.926382E-2,2.4500632E-1],"categories":[],"categories_nodes":[],"categories_segments":[],"categories_sizes":[],"default_left":[1,1,1,1,0,1,1,0,0,0,0,0,0],"id":25,"left_children":[1,3,5,7,-1,9,11,-1,-1,-1,-1,-1,-1],"loss_changes":[1.000477E0,2.704249E-1,9.321094E-1,3.251872E-1,0E0,2.0244634E0,1.05604E0,0E0,0E0,0E0,0E0,0E0,0E0],"parents":[2147483647,0,0,1,1,2,2,3,3,5,5,6,6],"right_children":[2,4,6,8,-1,10,12,-1,-1,-1,-1,-1,-1],"split_conditions":[-5.8479838E-2,-6.57473E-5,-5.8186363E-2,-7.770668E-2,2.1071965E-2,3.0192416E-3,6.4383276E-2,1.5108295E-2,-1.5463565E-1,1.6830333E-1,-9.3887806E-2,-1.4779147E-2,7.35019E-2],"split_indices":[2,0,0,9,0,1,7,0,0,0,0,0,0],"split_type":[0,0,0,0,0,0,0,0,0,0,0,0,0],"sum_hessian":[1.0997945E2,6.709642E0,1.03269806E2,5.6689634E0,1.0406781E0,1.0487318E1,9.278249E1,1.0351567E0,4.6338067E0,7.378537E0,3.1087806E0,7.940666E1,1.3375832E1],"tree_param":{"num_deleted":"0","num_feature":"10","num_nodes":"13","size_leaf_vector":"0"}},{"base_weights":[-1.6871892E-3,-4.3876734E-1,1.4996483E-2,-1.3908795E-1,-5.163313E-1,1.1888521E-1,-5.934559E-2,-1.5437685E-1,2.311056E-1,1.2365681E-1,-1.8807629E-1],"categories":[],"categories_nodes":[],"categories_segments":[],"categories_sizes":[],"default_left":[1,1,1,0,0,1,1,0,0,0,0],"id":26,"left_children":[1,3,5,-1,-1,7,9,-1,-1,-1,-1],"loss_changes":[8.0320907E-1,2.231735E-2,8.2723737E-1,0E0,0E0,1.4042333E0,1.4972199E0,0E0,0E0,0E0,0E0],"parents":[2147483647,0,0,1,1,2,2,5,5,6,6],"right_children":[2,4,6,-1,-1,8,10,-1,-1,-1,-1],"split_conditions":[-7.101312E-2,3.0644094E-3,-1.4277549E-2,-4.1726384E-2,-1.548994E-1,-4.3535523E-2,7.19933E-3,-4.6313055E-2,6.933168E-2,3.7097044E-2,-5.642289E-2],"split_indices":[6,9,3,0,0,4,0,0,0,0,0],"split_type":[0,0,0,0,0,0,0,0,0,0,0],"sum_hessian":[1.0824546E2,3.04971E0,1.05195755E2,1.2013453E0,1.8483648E0,4.3628414E1,6.156734E1,1.25916E1,3.1036814E1,2.544061E1,3.6126728E1],"tree_param":{"num_deleted":"0","num_feature":"10","num_nodes":"11","size_leaf_vector":"0"}},{"base_weights":[1.687194E-3,4.3876737E-1,-1.4996479E-2,1.3908798E-1,5.163313E-1,-1.18885204E-1,5.934559E-2,1.5437685E-1,-2.311056E-1,-1.2365682E-1,1.8807629E-1],"categories":[],"categories_nodes":[],"categories_segments":[],"categories_sizes":[],"default_left":[1,1,1,0,0,1,1,0,0,0,0],"id":27,"left_children":[1,3,5,-1,-1,7,9,-1,-1,-1,-1],"loss_changes":[8.032091E-1,2.231729E-2,8.272373E-1,0E0,0E0,1.4042332E0,1.4972199E0,0E0,0E0,0E0,0E0],"parents":[2147483647,0,0,1,1,2,2,5,5,6,6],"right_children":[2,4,6,-1,-1,8,10,-1,-1,-1,-1],"split_conditions":[-7.101312E-2,3.0644094E-3,-1.4277549E-2,4.1726395E-2,1.548994E-1,-4.3535523E-2,7.19933E-3,4.6313055E-2,-6.933168E-2,-3.7097048E-2,5.642289E-2],"split_indices":[6,9,3,0,0,4,0,0,0,0,0],"split_type":[0,0,0,0,0,0,0,0,0,0,0],"sum_hessian":[1.0824546E2,3.0497103E0,1.05195755E2,1.2013453E0,1.8483651E0,4.3628414E1,6.156734E1,1.25916E1,3.1036814E1,2.5440609E1,3.6126728E1],"tree_param":{"num_deleted":"0","num_feature":"10","num_nodes":"11","size_leaf_vector":"0"}},{"base_weights":[-2.9950398E-3,1.9691357E-1,-3.644312E-2,2.8710103E-1,-2.8711855E-1,-1.4840098E-1,3.924136E-2,3.740075E-1,-1.8499355E-1,-4.5110412E-2,-5.6627154E-1,1.3589056E-1,-1.7331535E-1],"categories":[],"categories_nodes":[],"categories_segments":[],"categories_sizes":[],"default_left":[1,1,1,1,0,1,1,0,0,0,0,0,0],"id":28,"left_children":[1,3,5,7,-1,9,11,-1,-1,-1,-1,-1,-1],"loss_changes":[7.2775644E-1,7.6354617E-1,7.952358E-1,6.293094E-1,0E0,1.6053698E0,1.1817287E0,0E0,0E0,0E0,0E0,0E0,0E0],"parents":[2147483647,0,0,1,1,2,2,3,3,5,5,6,6],"right_children":[2,4,6,8,-1,10,12,-1,-1,-1,-1,-1,-1],"split_conditions":[-4.3277316E-2,2.720622E-2,-3.148751E-3,1.7561784E-2,-8.6135566E-2,3.3922367E-2,4.2414427E-2,1.1220225E-1,-5.5498067E-2,-1.3533124E-2,-1.6988146E-1,4.076717E-2,-5.1994607E-2],"split_indices":[8,2,9,9,0,3,9,0,0,0,0,0,0],"split_type":[0,0,0,0,0,0,0,0,0,0,0,0,0],"sum_hessian":[1.0676549E2,1.4602689E1,9.2162796E1,1.2652131E1,1.9505582E0,3.678582E1,5.5376976E1,1.0860605E1,1.7915254E0,3.0383486E1,6.4023323E0,3.8315613E1,1.7061363E1],"tree_param":{"num_deleted":"0","num_feature":"10","num_nodes":"13","size_leaf_vector":"0"}},{"base_weights":[2.9950414E-3,-1.9691354E-1,3.6443118E-2,-2.8710103E-1,2.8711855E-1,1.4840096E-1,-3.924136E-2,-3.7400746E-1,1.8499355E-1,4.5110404E-2,5.6627154E-1,-1.3589056E-1,1.7331535E-1],"categories":[],"categories_nodes":[],"categories_segments":[],"categories_sizes":[],"default_left":[1,1,1,1,0,1,1,0,0,0,0,0,0],"id":29,"left_children":[1,3,5,7,-1,9,11,-1,-1,-1,-1,-1,-1],"loss_changes":[7.2775626E-1,7.635461E-1,7.9523575E-1,6.293093E-1,0E0,1.6053699E0,1.1817286E0,0E0,0E0,0E0,0E0,0E0,0E0],"parents":[2147483647,0,0,1,1,2,2,3,3,5,5,6,6],"right_children":[2,4,6,8,-1,10,12,-1,-1,-1,-1,-1,-1],"split_conditions":[-4.3277316E-2,2.720622E-2,-3.148751E-3,1.7561784E-2,8.6135566E-2,3.3922367E-2,4.2414427E-2,-1.1220224E-1,5.5498067E-2,1.3533122E-2,1.6988146E-1,-4.076717E-2,5.1994607E-2],"split_indices":[8,2,9,9,0,3,9,0,0,0,0,0,0],"split_type":[0,0,0,0,0,0,0,0,0,0,0,0,0],"sum_hessian":[1.0676549E2,1.4602689E1,9.2162796E1,1.2652131E1,1.9505582E0,3.678582E1,5.5376976E1,1.0860605E1,1.7915254E0,3.0383486E1,6.402333E0,3.8315613E1,1.7061363E1],"tree_param":{"num_deleted":"0","num_feature":"10","num_nodes":"13","size_leaf_vector":"0"}},{"base_weights":[-4.329331E-3,-8.054951E-2,8.576802E-2,-2.3289941E-1,5.0402153E-2,2.0671526E-1,-1.5066528E-1,-3.8420522E-1,3.2989702E-1,-3.2159574E-2,5.404598E-1,5.839176E-1,1.1511419E-1,5.15847E-1,-2.4034604E-1],"categories":[],"categories_nodes":[],"categories_segments":[],"categories_sizes":[],"default_left":[1,1,1,1,1,1,1,0,0,0,0,0,0,0,0],"id":30,"left_children":[1,3,5,7,9,11,13,-1,-1,-1,-1,-1,-1,-1,-1],"loss_changes":[7.3118526E-1,1.161882E0,1.4271562E0,2.4110718E0,1.3049905E0,1.0632797E0,1.1461008E0,0E0,0E0,0E0,0E0,0E0,0E0,0E0,0E0],"parents":[2147483647,0,0,1,1,2,2,3,3,4,4,5,5,6,6],"right_children":[2,4,6,8,10,12,14,-1,-1,-1,-1,-1,-1,-1,-1],"split_conditions":[3.0192416E-3,-1.0620109E-3,1.990293E-2,5.792386E-2,3.544503E-2,-3.2758594E-2,-2.8840007E-2,-1.1526157E-1,9.896911E-2,-9.647872E-3,1.6213796E-1,1.751753E-1,3.4534257E-2,1.5475412E-1,-7.210381E-2],"split_indices":[1,6,8,2,8,0,2,0,0,0,0,0,0,0,0],"split_type":[0,0,0,0,0,0,0,0,0,0,0,0,0,0,0],"sum_hessian":[1.0446842E2,5.664993E1,4.7818497E1,2.5825678E1,3.0824253E1,3.171858E1,1.6099916E1,2.0603758E1,5.221919E0,2.7179588E1,3.644664E0,5.1474433E0,2.6571136E1,1.3458023E0,1.4754114E1],"tree_param":{"num_deleted":"0","num_feature":"10","num_nodes":"15","size_leaf_vector":"0"}},{"base_weights":[4.329335E-3,8.0549516E-2,-8.576802E-2,2.3289941E-1,-5.0402142E-2,-2.0671527E-1,1.506653E-1,3.8420522E-1,-3.29897E-1,3.215958E-2,-5.404598E-1,-5.839176E-1,-1.15114205E-1,-5.15847E-1,2.4034604E-1],"categories":[],"categories_nodes":[],"categories_segments":[],"categories_sizes":[],"default_left":[1,1,1,1,1,1,1,0,0,0,0,0,0,0,0],"id":31,"left_children":[1,3,5,7,9,11,13,-1,-1,-1,-1,-1,-1,-1,-1],"loss_changes":[7.3118526E-1,1.1618819E0,1.4271564E0,2.4110718E0,1.3049903E0,1.0632796E0,1.1461008E0,0E0,0E0,0E0,0E0,0E0,0E0,0E0,0E0],"parents":[2147483647,0,0,1,1,2,2,3,3,4,4,5,5,6,6],"right_children":[2,4,6,8,10,12,14,-1,-1,-1,-1,-1,-1,-1,-1],"split_conditions":[3.0192416E-3,-1.0620109E-3,1.990293E-2,5.792386E-2,3.544503E-2,-3.2758594E-2,-2.8840007E-2,1.1526157E-1,-9.89691E-2,9.647875E-3,-1.6213796E-1,-1.751753E-1,-3.4534264E-2,-1.5475412E-1,7.210381E-2],"split_indices":[1,6,8,2,8,0,2,0,0,0,0,0,0,0,0],"split_type":[0,0,0,0,0,0,0,0,0,0,0,0,0,0,0],"sum_hessian":[1.0446843E2,5.664993E1,4.7818497E1,2.5825678E1,3.0824253E1,3.171858E1,1.6099916E1,2.0603758E1,5.221919E0,2.7179588E1,3.6446643E0,5.1474433E0,2.6571136E1,1.3458023E0,1.4754114E1],"tree_param":{"num_deleted":"0","num_feature":"10","num_nodes":"15","size_leaf_vector":"0"}},{"base_weights":[8.189216E-4,2.0876454E-2,-3.420397E-1,-6.1950884E-3,3.39781E-1,1.0904035E-1,-4.6036866E-1,-2.7344538E-2,4.2647904E-1,5.349224E-1,-3.834104E-1],"categories":[],"categories_nodes":[],"categories_segments":[],"categories_sizes":[],"default_left":[1,1,1,1,1,0,0,0,0,0,0],"id":32,"left_children":[1,3,5,7,9,-1,-1,-1,-1,-1,-1],"loss_changes":[7.146905E-1,8.494058E-1,3.5678422E-1,8.4847397E-1,1.2913833E0,0E0,0E0,0E0,0E0,0E0,0E0],"parents":[2147483647,0,0,1,1,2,2,3,3,4,4],"right_children":[2,4,6,8,10,-1,-1,-1,-1,-1,-1],"split_conditions":[7.301323E-2,5.792386E-2,-5.4553825E-2,8.855595E-2,6.5196015E-2,3.2712106E-2,-1.3811061E-1,-8.203362E-3,1.2794372E-1,1.6047673E-1,-1.1502312E-1],"split_indices":[2,2,0,4,9,0,0,0,0,0,0],"split_type":[0,0,0,0,0,0,0,0,0,0,0],"sum_hessian":[1.0188795E2,9.714404E1,4.743902E0,9.044668E1,6.69737E0,1.0021435E0,3.7417586E0,8.712475E1,3.3219247E0,5.479222E0,1.2181484E0],"tree_param":{"num_deleted":"0","num_feature":"10","num_nodes":"11","size_leaf_vector":"0"}},{"base_weights":[-8.189284E-4,-2.0876462E-2,3.420397E-1,6.195079E-3,-3.3978096E-1,-1.0904037E-1,4.6036866E-1,2.7344529E-2,-4.2647907E-1,-5.349224E-1,3.8341042E-1],"categories":[],"categories_nodes":[],"categories_segments":[],"categories_sizes":[],"default_left":[1,1,1,1,1,0,0,0,0,0,0],"id":33,"left_children":[1,3,5,7,9,-1,-1,-1,-1,-1,-1],"loss_changes":[7.1469057E-1,8.494057E-1,3.567844E-1,8.484739E-1,1.2913834E0,0E0,0E0,0E0,0E0,0E0,0E0],"parents":[2147483647,0,0,1,1,2,2,3,3,4,4],"right_children":[2,4,6,8,10,-1,-1,-1,-1,-1,-1],"split_conditions":[7.301323E-2,5.792386E-2,-5.4553825E-2,8.855595E-2,6.5196015E-2,-3.2712113E-2,1.3811061E-1,8.203359E-3,-1.2794372E-1,-1.6047673E-1,1.1502313E-1],"split_indices":[2,2,0,4,9,0,0,0,0,0,0],"split_type":[0,0,0,0,0,0,0,0,0,0,0],"sum_hessian":[1.0188795E2,9.714404E1,4.7439017E0,9.044668E1,6.6973705E0,1.0021434E0,3.7417586E0,8.712475E1,3.3219247E0,5.479222E0,1.2181486E0],"tree_param":{"num_deleted":"0","num_feature":"10","num_nodes":"11","size_leaf_vector":"0"}},{"base_weights":[3.9941858E-4,3.165469E-1,-2.0367425E-2,6.0131185E-2,4.4790378E-1,-4.5526527E-2,2.263586E-1,2.9863718E-1,-2.0412093E-1,-1.4070226E-1,5.106981E-2,-2.6908663E-1,3.6602166E-1],"categories":[],"categories_nodes":[],"categories_segments":[],"categories_sizes":[],"default_left":[1,1,1,1,0,1,1,0,0,0,0,0,0],"id":34,"left_children":[1,3,5,7,-1,9,11,-1,-1,-1,-1,-1,-1],"loss_changes":[6.784309E-1,1.8759733E-1,6.123194E-1,2.6974016E-1,0E0,8.2396007E-1,7.3106635E-1,0E0,0E0,0E0,0E0,0E0,0E0],"parents":[2147483647,0,0,1,1,2,2,3,3,5,5,6,6],"right_children":[2,4,6,8,-1,10,12,-1,-1,-1,-1,-1,-1],"split_conditions":[-5.8479838E-2,-5.580171E-2,5.7844196E-2,-1.9203007E-2,1.3437115E-1,3.0192416E-3,-2.7618349E-2,8.959116E-2,-6.123628E-2,-4.221068E-2,1.5320944E-2,-8.072599E-2,1.098065E-1],"split_indices":[2,5,6,8,0,1,5,0,0,0,0,0,0],"split_type":[0,0,0,0,0,0,0,0,0,0,0,0,0],"sum_hessian":[1.0135251E2,5.369293E0,9.5983215E1,2.3126485E0,3.0566444E0,8.784135E1,8.141864E0,1.1471465E0,1.165502E0,4.4016037E1,4.3825314E1,1.586649E0,6.5552154E0],"tree_param":{"num_deleted":"0","num_feature":"10","num_nodes":"13","size_leaf_vector":"0"}},{"base_weights":[-3.9941943E-4,-3.165469E-1,2.0367423E-2,-6.0131174E-2,-4.4790378E-1,4.5526527E-2,-2.2635864E-1,-2.9863718E-1,2.0412096E-1,1.4070228E-1,-5.1069822E-2,2.6908657E-1,-3.6602166E-1],"categories":[],"categories_nodes":[],"categories_segments":[],"categories_sizes":[],"default_left":[1,1,1,1,0,1,1,0,0,0,0,0,0],"id":35,"left_children":[1,3,5,7,-1,9,11,-1,-1,-1,-1,-1,-1],"loss_changes":[6.784308E-1,1.8759733E-1,6.123196E-1,2.6974016E-1,0E0,8.239602E-1,7.3106635E-1,0E0,0E0,0E0,0E0,0E0,0E0],"parents":[2147483647,0,0,1,1,2,2,3,3,5,5,6,6],"right_children":[2,4,6,8,-1,10,12,-1,-1,-1,-1,-1,-1],"split_conditions":[-5.8479838E-2,-5.580171E-2,5.7844196E-2,-1.9203007E-2,-1.3437115E-1,3.0192416E-3,-2.7618349E-2,-8.959116E-2,6.1236292E-2,4.2210683E-2,-1.5320947E-2,8.0725975E-2,-1.098065E-1],"split_indices":[2,5,6,8,0,1,5,0,0,0,0,0,0],"split_type":[0,0,0,0,0,0,0,0,0,0,0,0,0],"sum_hessian":[1.0135251E2,5.3692927E0,9.5983215E1,2.3126485E0,3.0566444E0,8.7841354E1,8.141865E0,1.1471466E0,1.1655021E0,4.4016037E1,4.3825314E1,1.5866492E0,6.5552154E0],"tree_param":{"num_deleted":"0","num_feature":"10","num_nodes":"13","size_leaf_vector":"0"}},{"base_weights":[2.520968E-3,-3.960752E-1,1.6743146E-2,-4.6405965E-1,-1.253265E-1,4.1570404E-1,4.8946454E-3,-2.6722068E-1,2.542535E-2],"categories":[],"categories_nodes":[],"categories_segments":[],"categories_sizes":[],"default_left":[1,1,1,0,0,0,1,0,0],"id":36,"left_children":[1,3,5,-1,-1,-1,7,-1,-1],"loss_changes":[5.783377E-1,6.5400004E-3,4.6280122E-1,0E0,0E0,0E0,5.459701E-1,0E0,0E0],"parents":[2147483647,0,0,1,1,2,2,6,6],"right_children":[2,4,6,-1,-1,-1,8,-1,-1],"split_conditions":[-7.101312E-2,-1.8820167E-3,-8.313457E-2,-1.392179E-1,-3.759795E-2,1.24711215E-1,-6.967863E-2,-8.0166206E-2,7.6276055E-3],"split_indices":[6,0,3,0,0,0,4,0,0],"split_type":[0,0,0,0,0,0,0,0,0],"sum_hessian":[9.984948E1,2.514966E0,9.733451E1,1.4395189E0,1.075447E0,1.8242342E0,9.551028E1,5.8576E0,8.965268E1],"tree_param":{"num_deleted":"0","num_feature":"10","num_nodes":"9","size_leaf_vector":"0"}},{"base_weights":[-2.5209575E-3,3.960752E-1,-1.6743135E-2,4.6405965E-1,1.253265E-1,-4.1570404E-1,-4.8946342E-3,2.672207E-1,-2.5425341E-2],"categories":[],"categories_nodes":[],"categories_segments":[],"categories_sizes":[],"default_left":[1,1,1,0,0,0,1,0,0],"id":37,"left_children":[1,3,5,-1,-1,-1,7,-1,-1],"loss_changes":[5.7833767E-1,6.5400004E-3,4.6280122E-1,0E0,0E0,0E0,5.459701E-1,0E0,0E0],"parents":[2147483647,0,0,1,1,2,2,6,6],"right_children":[2,4,6,-1,-1,-1,8,-1,-1],"split_conditions":[-7.101312E-2,-1.8820167E-3,-8.313457E-2,1.392179E-1,3.759795E-2,-1.24711215E-1,-6.967863E-2,8.016621E-2,-7.6276027E-3],"split_indices":[6,0,3,0,0,0,4,0,0],"split_type":[0,0,0,0,0,0,0,0,0],"sum_hessian":[9.984948E1,2.5149658E0,9.733451E1,1.4395188E0,1.0754468E0,1.8242341E0,9.551028E1,5.8575997E0,8.965268E1],"tree_param":{"num_deleted":"0","num_feature":"10","num_nodes":"9","size_leaf_vector":"0"}},{"base_weights":[6.397341E-4,1.3423625E-1,-3.9710056E-2,2.4819754E-1,-1.886112E-1,-2.2521034E-1,3.3343207E-2,-1.5951861E-1,4.3586966E-1,3.593748E-1,-3.6526313E-1,-4.3423682E-1,-2.3713477E-2,1.1690036E-1,-1.3891932E-1],"categories":[],"categories_nodes":[],"categories_segments":[],"categories_sizes":[],"default_left":[1,1,1,1,1,1,1,0,0,0,0,0,0,0,0],"id":38,"left_children":[1,3,5,7,9,11,13,-1,-1,-1,-1,-1,-1,-1,-1],"loss_changes":[5.475076E-1,9.136038E-1,1.0647794E0,1.4349344E0,7.8126574E-1,9.2358875E-1,8.344717E-1,0E0,0E0,0E0,0E0,0E0,0E0,0E0,0E0],"parents":[2147483647,0,0,1,1,2,2,3,3,4,4,5,5,6,6],"right_children":[2,4,6,8,10,12,14,-1,-1,-1,-1,-1,-1,-1,-1],"split_conditions":[-3.21435E-2,1.8776364E-3,-3.148751E-3,-5.0921284E-2,-6.726771E-2,-1.1056108E-2,1.912263E-2,-4.7855586E-2,1.3076091E-1,1.0781244E-1,-1.09578945E-1,-1.3027105E-1,-7.1140435E-3,3.507011E-2,-4.16758E-2],"split_indices":[9,2,9,0,0,2,2,0,0,0,0,0,0,0,0],"split_type":[0,0,0,0,0,0,0,0,0,0,0,0,0,0,0],"sum_hessian":[9.957841E1,2.2559153E1,7.701926E1,1.6844477E1,5.7146754E0,2.1172987E1,5.5846268E1,5.3568277E0,1.148765E1,1.1409639E0,4.573712E0,9.825386E0,1.1347601E1,3.782188E1,1.8024387E1],"tree_param":{"num_deleted":"0","num_feature":"10","num_nodes":"15","size_leaf_vector":"0"}},{"base_weights":[-6.397464E-4,-1.3423626E-1,3.9710045E-2,-2.4819756E-1,1.8861124E-1,2.2521031E-1,-3.3343215E-2,1.5951857E-1,-4.3586966E-1,-3.593748E-1,3.6526316E-1,4.3423676E-1,2.371346E-2,-1.1690037E-1,1.389193E-1],"categories":[],"categories_nodes":[],"categories_segments":[],"categories_sizes":[],"default_left":[1,1,1,1,1,1,1,0,0,0,0,0,0,0,0],"id":39,"left_children":[1,3,5,7,9,11,13,-1,-1,-1,-1,-1,-1,-1,-1],"loss_changes":[5.475076E-1,9.13604E-1,1.0647794E0,1.4349344E0,7.8126574E-1,9.235884E-1,8.344715E-1,0E0,0E0,0E0,0E0,0E0,0E0,0E0,0E0],"parents":[2147483647,0,0,1,1,2,2,3,3,4,4,5,5,6,6],"right_children":[2,4,6,8,10,12,14,-1,-1,-1,-1,-1,-1,-1,-1],"split_conditions":[-3.21435E-2,1.8776364E-3,-3.148751E-3,-5.0921284E-2,-6.726771E-2,-1.1056108E-2,1.912263E-2,4.7855575E-2,-1.3076091E-1,-1.0781244E-1,1.0957895E-1,1.3027103E-1,7.1140383E-3,-3.5070114E-2,4.167579E-2],"split_indices":[9,2,9,0,0,2,2,0,0,0,0,0,0,0,0],"split_type":[0,0,0,0,0,0,0,0,0,0,0,0,0,0,0],"sum_hessian":[9.957841E1,2.2559155E1,7.701926E1,1.6844479E1,5.7146754E0,2.1172987E1,5.5846268E1,5.356828E0,1.1487651E1,1.1409638E0,4.573712E0,9.825387E0,1.1347601E1,3.782188E1,1.8024387E1],"tree_param":{"num_deleted":"0","num_feature":"10","num_nodes":"15","size_leaf_vector":"0"}}]},"name":"gbtree"},"learner_model_param":{"base_score":"5E-1","num_class":"2","num_feature":"10","num_target":"1"},"objective":{"name":"multi:softprob","softmax_multiclass_param":{"num_class":"2"}}},"version":[1,6,2]}