{"learner":{"attributes":{"best_iteration":"99","best_ntree_limit":"100","scikit_learn":"{\"use_label_encoder\": true, \"n_estimators\": 100, \"objective\": \"binary:logistic\", \"max_depth\": null, \"learning_rate\": null, \"verbosity\": null, \"booster\": null, \"tree_method\": null, \"gamma\": null, \"min_child_weight\": null, \"max_delta_step\": null, \"subsample\": null, \"colsample_bytree\": null, \"colsample_bylevel\": null, \"colsample_bynode\": null, \"reg_alpha\": null, \"reg_lambda\": null, \"scale_pos_weight\": null, \"base_score\": null, \"missing\": NaN, \"num_parallel_tree\": null, \"random_state\": null, \"n_jobs\": null, \"monotone_constraints\": null, \"interaction_constraints\": null, \"importance_type\": null, \"gpu_id\": null, \"validate_parameters\": null, \"predictor\": null, \"enable_categorical\": false, \"classes_\": [0, 1], \"n_classes_\": 2, \"_le\": {\"classes_\": [0, 1]}, \"_estimator_type\": \"classifier\"}"},"feature_names":[],"feature_types":[],"gradient_booster":{"model":{"gbtree_model_param":{"num_trees":"100","size_leaf_vector":"0"},"tree_info":[0,0,0,0,0,0,0,0,0,0,0,0,0,0,0,0,0,0,0,0,0,0,0,0,0,0,0,0,0,0,0,0,0,0,0,0,0,0,0,0,0,0,0,0,0,0,0,0,0,0,0,0,0,0,0,0,0,0,0,0,0,0,0,0,0,0,0,0,0,0,0,0,0,0,0,0,0,0,0,0,0,0,0,0,0,0,0,0,0,0,0,0,0,0,0,0,0,0,0,0],"trees":[{"base_weights":[-5.3102624E-2,-1.8044165E-1,-1.3663868E-2,-4.9773756E-1,-1.2865497E-1,1.4035088E-1,-5.7687484E-2,-9.306931E-1,-1.2903225E-1,4E-1,-1.5882806E-1,2.5378346E-1,-2.0350876E-1,-9.90099E-2,1.9748653E-1,-1.372549E0,-4.4444445E-1,1.904762E-1,-7.2727275E-1,-3.2258064E-1,8.333333E-1,-1.4229867E-1,-1.0909091E0,1.5555556E0,2.2485207E-1,-1.1320755E-1,-1.1666666E0,2.0809248E-1,-1.3324709E-1,-7.826087E-1,2.3791821E-1,-1.7142857E0,-8.148148E-1,-1.1666666E0,1.1764706E-1,8.5714287E-1,-2.9850746E-2,3.3333334E-1,-1E0,8E-1,-7.2E-1,-5E-1,1E0,-1.1578947E0,-1.2658228E-1,-1.8181819E-1,-1.4666667E0,-7.1428573E-1,2.557856E-1,-3.0952382E-1,2.1782178E-1,-1.4E0,-0E0,-8.292683E-1,3.4304208E-1,-5.56391E-1,-1.14073575E-1,-1.1578947E0,5E-1,-6.2068963E-1,2.8460038E-1,-0E0,-1.1578947E0,-0E0,-1.4E0,8.5714287E-1,-3.3333334E-1,-5E-1,1.2941177E0,-4.6153846E-1,5E-1,-5E-1,1E0,-1.2E0,-0E0,-1.2E0,6.666667E-1,1.4285715E0,5.185185E-1,-4E-1,-1.3846154E0,-2.3346303E-2,-2.857143E-1,5E-1,-1E0,2.2665006E-1,1.2727273E0,-1.2727273E0,-1.6E-1,-7.692308E-1,5.316456E-1,5E-1,-1.027027E0,4.1114983E-1,-4.6153846E-1,7.4074075E-2,-6.909091E-1,-8.650647E-2,-3.9694658E-1,-1.3846154E0,-4E-1,4.6153846E-1,-1.2E0,4.1066667E-1,-5.6338027E-2],"categories":[],"categories_nodes":[],"categories_segments":[],"categories_sizes":[],"default_left":[true,true,true,true,true,true,true,true,true,true,true,true,true,true,true,true,true,true,true,true,true,true,true,false,true,true,true,true,true,true,true,false,true,true,true,true,true,true,true,false,true,false,true,true,true,false,false,true,true,true,true,false,false,true,true,true,true,true,false,true,true,false,false,false,false,false,false,false,false,false,false,false,false,false,false,false,false,false,false,false,false,false,false,false,false,false,false,false,false,false,false,false,false,false,false,false,false,false,false,false,false,false,false,false,false],"id":0,"left_children":[1,3,5,7,9,11,13,15,17,19,21,23,25,27,29,31,33,35,37,39,41,43,45,-1,47,49,51,53,55,57,59,-1,61,63,65,67,69,71,73,-1,75,-1,77,79,81,-1,-1,83,85,87,89,-1,-1,91,93,95,97,99,-1,101,103,-1,-1,-1,-1,-1,-1,-1,-1,-1,-1,-1,-1,-1,-1,-1,-1,-1,-1,-1,-1,-1,-1,-1,-1,-1,-1,-1,-1,-1,-1,-1,-1,-1,-1,-1,-1,-1,-1,-1,-1,-1,-1,-1,-1],"loss_changes":[8.41456E0,6.4470253E0,8.691948E0,8.699632E0,5.518827E0,1.1168041E1,1.0529692E1,4.814987E0,6.0639577E0,6.139785E0,4.840399E0,7.738164E0,6.064846E0,9.054274E0,5.7042427E0,1.0333023E0,5.617647E0,3.1101637E0,3.515151E0,4.0335484E0,3.166667E0,4.957123E0,1.6121211E0,0E0,6.3197002E0,4.3727727E0,1.6333332E0,1.2393732E1,6.207999E0,3.3466818E0,5.567635E0,0E0,1.8869395E0,1.6333332E0,3.120448E0,3.7605042E0,4.061998E0,2.1666667E0,1.8000002E0,0E0,4.96E0,0E0,1.5291004E0,2.6234818E-1,5.184625E0,0E0,0E0,2.9285715E0,5.792923E0,5.8452816E0,8.2304125E0,0E0,0E0,3.2079763E0,4.4229193E0,2.8710766E0,5.7420216E0,2.6234818E-1,0E0,5.099204E0,5.535428E0,0E0,0E0,0E0,0E0,0E0,0E0,0E0,0E0,0E0,0E0,0E0,0E0,0E0,0E0,0E0,0E0,0E0,0E0,0E0,0E0,0E0,0E0,0E0,0E0,0E0,0E0,0E0,0E0,0E0,0E0,0E0,0E0,0E0,0E0,0E0,0E0,0E0,0E0,0E0,0E0,0E0,0E0,0E0,0E0],"parents":[2147483647,0,0,1,1,2,2,3,3,4,4,5,5,6,6,7,7,8,8,9,9,10,10,11,11,12,12,13,13,14,14,15,15,16,16,17,17,18,18,19,19,20,20,21,21,22,22,24,24,25,25,26,26,27,27,28,28,29,29,30,30,32,32,33,33,34,34,35,35,36,36,37,37,38,38,40,40,42,42,43,43,44,44,47,47,48,48,49,49,50,50,53,53,54,54,55,55,56,56,57,57,59,59,60,60],"right_children":[2,4,6,8,10,12,14,16,18,20,22,24,26,28,30,32,34,36,38,40,42,44,46,-1,48,50,52,54,56,58,60,-1,62,64,66,68,70,72,74,-1,76,-1,78,80,82,-1,-1,84,86,88,90,-1,-1,92,94,96,98,100,-1,102,104,-1,-1,-1,-1,-1,-1,-1,-1,-1,-1,-1,-1,-1,-1,-1,-1,-1,-1,-1,-1,-1,-1,-1,-1,-1,-1,-1,-1,-1,-1,-1,-1,-1,-1,-1,-1,-1,-1,-1,-1,-1,-1,-1,-1],"split_conditions":[2.265198E-1,1.4409423E-1,2.1669409E-1,4.3977988E-1,5.555637E-2,7.3453104E-1,8.585534E-1,4.53086E-1,9.9414505E-2,3.52286E-1,2.2230783E-1,2.3807105E-1,9.376519E-1,8.713484E-2,2.3545541E-1,5.777745E-1,1.7317963E-1,4.9902123E-1,1.6189525E-1,1.9122237E-1,8.121254E-2,9.2969965E-3,3.769341E-1,4.666667E-1,4.1140936E-2,7.6037997E-1,8.9771193E-1,3.030995E-1,4.6651676E-2,6.82491E-1,5.2710738E-2,-5.1428574E-1,1.2800123E-1,5.281696E-1,3.5922867E-1,8.728612E-2,5.8525956E-1,9.727237E-2,9.2691493E-1,2.4000001E-1,4.4484917E-2,-1.5E-1,3.406931E-1,4.0691888E-1,6.275711E-1,-5.454546E-2,-4.4000003E-1,3.5153243E-1,7.138074E-1,7.500586E-2,2.9508352E-1,-4.2000002E-1,-0E0,8.020775E-2,9.264951E-1,3.8089782E-1,7.9006207E-1,4.843266E-1,1.5E-1,2.1659058E-2,7.1077967E-1,-0E0,-3.4736842E-1,-0E0,-4.2000002E-1,2.5714287E-1,-1.0000001E-1,-1.5E-1,3.8823533E-1,-1.3846155E-1,1.5E-1,-1.5E-1,3E-1,-3.6E-1,-0E0,-3.6E-1,2.0000002E-1,4.2857146E-1,1.5555556E-1,-1.20000005E-1,-4.1538465E-1,-7.0038913E-3,-8.5714296E-2,1.5E-1,-3E-1,6.799502E-2,3.818182E-1,-3.818182E-1,-4.8E-2,-2.3076925E-1,1.5949368E-1,1.5E-1,-3.0810812E-1,1.2334495E-1,-1.3846155E-1,2.2222223E-2,-2.0727274E-1,-2.5951942E-2,-1.1908398E-1,-4.1538465E-1,-1.20000005E-1,1.3846155E-1,-3.6E-1,1.2320001E-1,-1.690141E-2],"split_indices":[1,8,6,5,5,8,7,2,8,3,1,1,5,7,6,3,5,5,2,0,0,4,7,0,2,1,2,1,5,5,0,0,5,2,3,0,7,2,4,0,5,0,7,3,0,0,0,1,8,5,2,0,0,0,6,1,7,0,0,0,4,0,0,0,0,0,0,0,0,0,0,0,0,0,0,0,0,0,0,0,0,0,0,0,0,0,0,0,0,0,0,0,0,0,0,0,0,0,0,0,0,0,0,0,0],"split_type":[0,0,0,0,0,0,0,0,0,0,0,0,0,0,0,0,0,0,0,0,0,0,0,0,0,0,0,0,0,0,0,0,0,0,0,0,0,0,0,0,0,0,0,0,0,0,0,0,0,0,0,0,0,0,0,0,0,0,0,0,0,0,0,0,0,0,0,0,0,0,0,0,0,0,0,0,0,0,0,0,0,0,0,0,0,0,0,0,0,0,0,0,0,0,0,0,0,0,0,0,0,0,0,0,0],"sum_hessian":[1.675E3,3.9525E2,1.27975E3,5.425E1,3.41E2,2.84E2,9.9575E2,2.425E1,3E1,1.775E1,3.2325E2,2.1375E2,7.025E1,8.575E2,1.3825E2,1.175E1,1.25E1,2E1,1E1,6.75E0,1.1E1,3.1875E2,4.5E0,3.5E0,2.1025E2,6.525E1,5E0,8.55E1,7.72E2,4.75E0,1.335E2,6E0,5.75E0,5E0,7.5E0,4.25E0,1.575E1,2E0,8E0,1.5E0,5.25E0,1E0,1E1,3.75E0,3.15E2,1.75E0,2.75E0,6E0,2.0425E2,4.1E1,2.425E1,4E0,1E0,9.25E0,7.625E1,3.225E1,7.3975E2,3.75E0,1E0,6.25E0,1.2725E2,2E0,3.75E0,1E0,4E0,2.5E0,5E0,1E0,3.25E0,8.75E0,7E0,1E0,1E0,6.5E0,1.5E0,4E0,1.25E0,4.25E0,5.75E0,1.5E0,2.25E0,1.9175E2,1.2325E2,1E0,5E0,1.9975E2,4.5E0,4.5E0,3.65E1,5.5E0,1.875E1,1E0,8.25E0,7.075E1,5.5E0,5.75E0,2.65E1,6.7525E2,6.45E1,2.25E0,1.5E0,2.25E0,4E0,9.275E1,3.45E1],"tree_param":{"num_deleted":"0","num_feature":"9","num_nodes":"105","size_leaf_vector":"0"}},{"base_weights":[-3.909905E-2,-6.242613E-1,-3.2727193E-2,-1.4195244E0,-2.3403998E-1,-3.6668286E-2,7.837961E-1,4.241119E-1,-9.3014604E-1,-3.107287E-2,-1.1477835E0,1.3897554E0,-7.778005E-2,-8.013529E-2,1.3243138E0,2.5248775E-1,-1.2447208E0,-8.796818E-1,-2.7426874E-2,-1.5045344E0,-1.3210912E-1,1.1321406E0,-9.597284E-1,3.525135E-1,-7.830528E-1,-1.5043511E0,-2.0093429E-1,2.1583569E-1,-1.1560069E0,1.2403666E-3,-1.3342786E-1,8.122222E-1,-1.9441822E-1,-1.3567652E0,-2.4113165E-1,-4.097916E-1,1.504904E-2,4.9430618E-1,-1.6679637E-1],"categories":[],"categories_nodes":[],"categories_segments":[],"categories_sizes":[],"default_left":[true,true,true,false,true,true,true,true,true,true,true,false,true,true,false,false,true,true,true,false,false,false,false,true,false,false,false,false,true,true,true,false,false,false,false,false,false,false,false],"id":1,"left_children":[1,3,5,-1,7,9,11,13,15,17,19,-1,21,23,-1,-1,25,27,29,-1,-1,-1,-1,31,-1,-1,-1,-1,33,35,37,-1,-1,-1,-1,-1,-1,-1,-1],"loss_changes":[6.210181E0,5.236548E0,5.3516293E0,0E0,6.4581866E0,1.0204678E1,4.279596E0,3.5060093E0,2.823742E0,5.0497217E0,2.7815895E0,0E0,5.6176257E0,2.0228066E0,0E0,0E0,1.1873426E0,2.3634982E0,4.965198E0,0E0,0E0,0E0,0E0,1.2252192E0,0E0,0E0,0E0,0E0,7.2600746E-1,7.311382E0,7.368142E0,0E0,0E0,0E0,0E0,0E0,0E0,0E0,0E0],"parents":[2147483647,0,0,1,1,2,2,4,4,5,5,6,6,7,7,8,8,9,9,10,10,12,12,13,13,16,16,17,17,18,18,23,23,28,28,29,29,30,30],"right_children":[2,4,6,-1,8,10,12,14,16,18,20,-1,22,24,-1,-1,26,28,30,-1,-1,-1,-1,32,-1,-1,-1,-1,34,36,38,-1,-1,-1,-1,-1,-1,-1,-1],"split_conditions":[1.007081E-2,3.034128E-1,9.9591905E-1,-4.2585734E-1,5.6082815E-1,9.915618E-1,6.4237493E-1,6.622553E-1,1.4214268E-1,4.285894E-3,7.063196E-1,4.1692662E-1,3.0193698E-1,7.9385734E-1,3.9729413E-1,7.574633E-2,9.315419E-1,2.5396407E-1,7.956742E-1,-4.5136032E-1,-3.9632738E-2,3.396422E-1,-2.8791854E-1,5.979292E-1,-2.3491585E-1,-4.5130536E-1,-6.028029E-2,6.475071E-2,7.088461E-1,2.9794559E-2,5.724427E-2,2.4366666E-1,-5.832547E-2,-4.0702957E-1,-7.23395E-2,-1.2293748E-1,4.5147124E-3,1.4829186E-1,-5.0038915E-2],"split_indices":[1,5,3,0,8,3,6,4,3,8,8,0,0,5,0,0,2,4,2,0,0,0,0,2,0,0,0,0,0,3,5,0,0,0,0,0,0,0,0],"split_type":[0,0,0,0,0,0,0,0,0,0,0,0,0,0,0,0,0,0,0,0,0,0,0,0,0,0,0,0,0,0,0,0,0,0,0,0,0,0,0],"sum_hessian":[1.6700464E3,1.694476E1,1.6531017E3,4.709386E0,1.22353735E1,1.6461115E3,6.9901543E0,6.489984E0,5.74539E0,1.6388862E3,7.2252297E0,3.7439442E0,3.2462103E0,4.743755E0,1.746229E0,1.2486179E0,4.4967723E0,5.983346E0,1.632903E3,4.9908876E0,2.2343419E0,1.2490255E0,1.9971849E0,3.2449646E0,1.4987903E0,3.2476985E0,1.2490735E0,1.2492962E0,4.73405E0,1.2860797E3,3.4682315E2,1.499526E0,1.7454385E0,3.4860687E0,1.2479812E0,4.0869614E1,1.2452102E3,1.6808334E1,3.3001483E2],"tree_param":{"num_deleted":"0","num_feature":"9","num_nodes":"39","size_leaf_vector":"0"}},{"base_weights":[-2.8052736E-2,-1.1356805E-1,1.8270185E-3,1.4009448E-2,-2.156267E-1,2.1182829E-1,-2.2528293E-2,4.0101606E-2,-1.2325145E0,-3.842464E-1,-1.148402E-1,-2.1571697E-1,3.7859488E-1,1.3066174E-1,-6.110561E-2,-1.8575454E-1,1.7019188E-1,-2.664889E-1,-8.569943E-1,-4.2242107E-1,4.5965705E-3,9.7290313E-1,-3.9016604E-1,4.7443423E-1,-1.7390475E-1,1.7440912E-1,-6.240513E-1,-8.4102124E-2,2.8596923E-1,-2.6689515E-1,6.905898E-1,5.2819353E-1,5.78167E-2,-3.484248E-1,8.6889786E-1,-1.0754706E0,3.222386E-1,-9.629474E-1,8.440002E-2,-3.794996E-1,1.8085547E-1,1.459512E-1,1.208347E0,-5.0624776E-1,1.2185594E0,2.6454332E-1,7.420148E-1,-8.58538E-1,3.0752388E-1,2.3098817E-1,-2.965632E-1,1.9742632E-2,-1.1317358E0,-6.1545737E-2,-4.9115345E-1,5.812667E-1,-2.776191E-1,6.69041E-2,-4.6139959E-1,1.2599665E0,-3.459465E-1,1.9896439E-1,1.0085546E0,-7.4927956E-1,1.115264E-1,-6.863061E-2,-6.233545E-1,1.2193369E0,1.0058361E-3,4.326845E-2,-1.2505999E0,6.6699344E-1,-1.6802776E-1,-1.1165792E0,2.0553581E-1,-2.4761458E-1,7.7044636E-1,-4.248095E-2,-8.456286E-1,2.720103E-1,-4.976736E-1,-1.0013392E0,-2.5642708E-1,4.7234738E-1,-6.4984095E-1,8.4508115E-1,-6.204064E-1,-1.3606199E0,6.3783926E-1,6.1788154E-1,-7.764942E-1,-3.168581E-2,3.7789395E-1,7.4912876E-1,-5.0316966E-1,-7.1232873E-1,8.488052E-1,-1.555161E0,-2.6370448E-1,-7.364658E-2,7.144988E-1,-1.1575928E-1,-1.0227387E0,-3.720503E-1,7.8881735E-1,-7.044894E-1,6.007208E-1],"categories":[],"categories_nodes":[],"categories_segments":[],"categories_sizes":[],"default_left":[true,true,true,true,true,true,true,true,false,true,true,true,true,true,true,true,true,true,true,true,true,true,true,true,true,true,true,true,true,true,true,true,true,true,true,true,true,true,true,true,true,false,false,true,false,true,true,true,true,true,true,true,true,true,true,true,true,false,false,false,false,false,false,false,false,false,false,false,false,false,false,false,false,false,false,false,false,false,false,false,false,false,false,false,false,false,false,false,false,false,false,false,false,false,false,false,false,false,false,false,false,false,false,false,false,false,false],"id":2,"left_children":[1,3,5,7,9,11,13,15,-1,17,19,21,23,25,27,29,31,33,35,37,39,41,43,45,47,49,51,53,55,57,59,61,63,65,67,69,71,73,75,77,79,-1,-1,81,-1,83,85,87,89,91,93,95,97,99,101,103,105,-1,-1,-1,-1,-1,-1,-1,-1,-1,-1,-1,-1,-1,-1,-1,-1,-1,-1,-1,-1,-1,-1,-1,-1,-1,-1,-1,-1,-1,-1,-1,-1,-1,-1,-1,-1,-1,-1,-1,-1,-1,-1,-1,-1,-1,-1,-1,-1,-1,-1],"loss_changes":[4.265867E0,5.6315484E0,6.337384E0,6.3286858E0,4.038368E0,9.262863E0,6.569863E0,5.616269E0,0E0,4.75086E0,5.577823E0,8.003973E0,5.0068703E0,7.494275E0,7.1090565E0,5.157927E0,4.842474E0,7.0992055E0,4.8255873E0,1.171423E1,7.537122E0,7.956157E-1,6.7379327E0,4.2697144E0,5.036336E0,5.7233934E0,4.099467E0,7.620704E0,9.379417E0,4.2340894E0,4.0986295E0,4.356385E0,4.128552E0,5.2537174E0,1.5814123E0,2.9730396E0,7.0144176E-1,3.9327679E0,5.391974E0,5.4659457E0,4.8542514E0,0E0,0E0,3.6118546E0,0E0,9.06986E0,5.3549595E0,5.557227E0,3.5875442E0,7.3443766E0,5.388665E0,4.5391974E0,2.1595974E0,7.4777384E0,8.58381E0,7.5487003E0,7.8169775E0,0E0,0E0,0E0,0E0,0E0,0E0,0E0,0E0,0E0,0E0,0E0,0E0,0E0,0E0,0E0,0E0,0E0,0E0,0E0,0E0,0E0,0E0,0E0,0E0,0E0,0E0,0E0,0E0,0E0,0E0,0E0,0E0,0E0,0E0,0E0,0E0,0E0,0E0,0E0,0E0,0E0,0E0,0E0,0E0,0E0,0E0,0E0,0E0,0E0,0E0],"parents":[2147483647,0,0,1,1,2,2,3,3,4,4,5,5,6,6,7,7,9,9,10,10,11,11,12,12,13,13,14,14,15,15,16,16,17,17,18,18,19,19,20,20,21,21,22,22,23,23,24,24,25,25,26,26,27,27,28,28,29,29,30,30,31,31,32,32,33,33,34,34,35,35,36,36,37,37,38,38,39,39,40,40,43,43,45,45,46,46,47,47,48,48,49,49,50,50,51,51,52,52,53,53,54,54,55,55,56,56],"right_children":[2,4,6,8,10,12,14,16,-1,18,20,22,24,26,28,30,32,34,36,38,40,42,44,46,48,50,52,54,56,58,60,62,64,66,68,70,72,74,76,78,80,-1,-1,82,-1,84,86,88,90,92,94,96,98,100,102,104,106,-1,-1,-1,-1,-1,-1,-1,-1,-1,-1,-1,-1,-1,-1,-1,-1,-1,-1,-1,-1,-1,-1,-1,-1,-1,-1,-1,-1,-1,-1,-1,-1,-1,-1,-1,-1,-1,-1,-1,-1,-1,-1,-1,-1,-1,-1,-1,-1,-1,-1],"split_conditions":[2.49145E-1,4.3574625E-1,3.293751E-1,2.4515569E-1,6.575482E-1,2.6902747E-1,2.0100068E-1,1.5517908E-1,-3.6975437E-1,2.0444179E-1,2.6670808E-1,8.0562025E-2,8.6637664E-1,9.413954E-1,9.426555E-1,9.3347716E-1,2.3260306E-1,1.9267102E-1,9.0221334E-1,4.3339103E-1,3.1750882E-1,4.635983E-2,9.521432E-1,6.034509E-1,9.142481E-1,9.2622495E-1,4.224549E-1,9.006509E-1,6.3489294E-1,4.4092804E-1,9.789047E-1,1.5448938E-1,6.0025383E-2,5.144719E-1,6.448441E-1,1.1610648E-1,3.2715586E-1,9.428086E-1,6.538692E-1,8.5706633E-1,9.076612E-1,4.378536E-2,3.625041E-1,2.7719593E-1,3.6556783E-1,4.9733573E-1,9.4507885E-1,3.1908283E-1,8.427936E-1,3.058412E-1,1.9048554E-1,7.162596E-1,6.235969E-1,9.8545957E-1,7.420178E-1,1.6104965E-1,7.143153E-1,2.007123E-2,-1.3841988E-1,3.7798998E-1,-1.0378395E-1,5.9689317E-2,3.0256638E-1,-2.2478388E-1,3.345792E-2,-2.0589184E-2,-1.8700635E-1,3.6580107E-1,3.0175084E-4,1.2980536E-2,-3.7517998E-1,2.0009804E-1,-5.040833E-2,-3.3497375E-1,6.1660748E-2,-7.4284375E-2,2.3113392E-1,-1.2744285E-2,-2.536886E-1,8.1603095E-2,-1.4930208E-1,-3.0040178E-1,-7.6928124E-2,1.4170422E-1,-1.949523E-1,2.5352436E-1,-1.8612193E-1,-4.08186E-1,1.9135179E-1,1.8536447E-1,-2.3294827E-1,-9.505743E-3,1.1336819E-1,2.2473864E-1,-1.5095091E-1,-2.1369863E-1,2.5464156E-1,-4.6654832E-1,-7.9111345E-2,-2.2093976E-2,2.1434966E-1,-3.4727786E-2,-3.068216E-1,-1.1161509E-1,2.366452E-1,-2.1134683E-1,1.8021625E-1],"split_indices":[1,6,1,1,6,7,7,6,0,1,5,0,4,2,2,7,2,1,5,8,0,7,6,5,4,1,0,2,4,8,7,2,7,5,8,0,4,4,2,6,3,0,0,1,0,5,8,1,5,3,6,1,6,4,1,6,3,0,0,0,0,0,0,0,0,0,0,0,0,0,0,0,0,0,0,0,0,0,0,0,0,0,0,0,0,0,0,0,0,0,0,0,0,0,0,0,0,0,0,0,0,0,0,0,0,0,0],"split_type":[0,0,0,0,0,0,0,0,0,0,0,0,0,0,0,0,0,0,0,0,0,0,0,0,0,0,0,0,0,0,0,0,0,0,0,0,0,0,0,0,0,0,0,0,0,0,0,0,0,0,0,0,0,0,0,0,0,0,0,0,0,0,0,0,0,0,0,0,0,0,0,0,0,0,0,0,0,0,0,0,0,0,0,0,0,0,0,0,0,0,0,0,0,0,0,0,0,0,0,0,0,0,0,0,0,0,0],"sum_hessian":[1.6684186E3,4.3128574E2,1.2371328E3,1.9206247E2,2.3922327E2,1.2776804E2,1.1093649E3,1.8907265E2,2.9898272E0,8.844271E1,1.5078056E2,3.5769924E1,9.199812E1,2.2268771E2,8.866771E2,6.894534E1,1.201273E2,7.2057495E1,1.6385212E1,4.1463768E1,1.09316795E2,3.992149E0,3.1777773E1,7.8519104E1,1.3479023E1,2.112135E2,1.1474208E1,8.322889E2,5.4388195E1,6.3739185E1,5.206159E0,2.7814953E1,9.231235E1,6.7853905E1,4.2035966E0,1.38982725E1,2.4869392E0,1.9629192E1,2.1834574E1,3.4022743E1,7.529405E1,1.2437195E0,2.7484298E0,3.0278278E1,1.4994959E0,4.511748E1,3.340162E1,5.2416415E0,8.237382E0,1.890161E2,2.2197418E1,5.482708E0,5.9915004E0,7.8968066E2,4.2608257E1,3.566816E1,1.8720037E1,2.3708248E1,4.0030937E1,3.2211847E0,1.9849743E0,1.7342783E1,1.0472171E1,4.951753E0,8.7360596E1,3.4248775E1,3.3605125E1,2.7060156E0,1.497581E0,1.9830887E0,1.1915184E1,1.2485138E0,1.2384254E0,1.738751E1,2.2416825E0,1.5144439E1,6.690136E0,2.0379313E1,1.364343E1,6.690502E1,8.389026E0,9.145538E0,2.113274E1,3.7156647E1,7.960837E0,3.140553E1,1.9960879E0,3.9926915E0,1.2489502E0,6.738218E0,1.499164E0,6.8076546E1,1.20939545E2,3.228949E0,1.8968468E1,2.9864457E0,2.4962623E0,3.4950309E0,2.4964695E0,7.7844745E2,1.1233211E1,2.5686651E1,1.6921604E1,6.23538E0,2.9432777E1,1.2730828E1,5.9892097E0],"tree_param":{"num_deleted":"0","num_feature":"9","num_nodes":"107","size_leaf_vector":"0"}},{"base_weights":[-2.042427E-2,4.4539245E-3,-1.2344129E-1,-4.6218154E-3,6.251673E-1,-4.4839686E-1,-2.7587954E-2,-1.313574E-1,2.332499E-2,1.0303216E0,1.3657524E-1,-6.772806E-2,-7.8519166E-1,1.1608189E0,-4.8993137E-2,-4.108566E-2,-4.9232912E-1,-2.1662122E-2,1.3702919E-1,-8.762252E-2,1.2587266E0,5.5392945E-1,-5.58827E-1,-4.6589744E-1,1.4371729E0,-4.552323E-2,-9.9456257E-1,3.2351387E-1,1.3810037E0,4.6864443E-2,-2.5638232E-1,-1.1353013E-1,6.7165476E-1,-7.1647906E-1,1.5128899E-1,-1.0588472E-1,5.8378518E-2,-1.3622674E-1,2.8969115E-1,1.743216E-1,1.4156102E0,3.6786046E-2,1.2863799E0,-1.1467376E0,1.749161E-1,-6.0761404E-1,6.559957E-1,3.2491946E-1,-9.802374E-1,-6.478105E-1,-1.3702178E0,-4.4234774E-1,1.0911185E-1,-6.6329336E-1,-2.654063E-2,-6.302556E-2,-8.1730086E-1,1.0794263E0,5.997403E-2,-8.688082E-1,6.5871894E-2,7.193502E-1,-4.203102E-1,1.1553636E-1,-2.0278448E-1,-4.5047012E-1,8.7291144E-2,-2.2362281E-1,6.2621605E-1,5.158383E-1,1.20081335E-1,6.099153E-1,-7.731372E-1,-8.8758534E-1,-4.091062E-2,1.1203562E0,-1.5151386E-1,-4.3975684E-1,6.1798954E-1,-2.644004E-1,-1.3090601E0,-1.5420057E0,1.7302502E-2,-1.3442963E-2,-1.0132529E0,3.4415114E-1,-1.6047947E-2,-9.465864E-1,2.2304884E-1,1.7588857E-1,-7.463095E-1],"categories":[],"categories_nodes":[],"categories_segments":[],"categories_sizes":[],"default_left":[true,true,true,true,true,true,true,true,true,true,true,true,true,true,true,true,true,true,true,false,true,true,true,true,false,true,true,false,false,true,true,true,true,true,true,true,true,true,true,false,false,true,false,false,false,true,true,true,false,true,true,true,true,true,true,false,false,false,false,false,false,false,false,false,false,false,false,false,false,false,false,false,false,false,false,false,false,false,false,false,false,false,false,false,false,false,false,false,false,false,false],"id":3,"left_children":[1,3,5,7,9,11,13,15,17,19,21,23,25,27,29,31,33,35,37,-1,39,41,43,45,-1,47,49,-1,-1,51,53,55,57,59,61,63,65,67,69,-1,-1,71,-1,-1,-1,73,75,77,-1,79,81,83,85,87,89,-1,-1,-1,-1,-1,-1,-1,-1,-1,-1,-1,-1,-1,-1,-1,-1,-1,-1,-1,-1,-1,-1,-1,-1,-1,-1,-1,-1,-1,-1,-1,-1,-1,-1,-1,-1],"loss_changes":[4.2604265E0,7.55051E0,1.0059538E1,4.683539E0,3.6827354E0,9.381534E0,6.4358788E0,7.7646112E0,5.545676E0,2.7674398E0,3.1853123E0,2.2024727E1,5.986784E0,3.7866974E-1,4.928074E0,1.0000462E1,6.9902306E0,5.2458363E0,1.2859394E1,0E0,1.234314E0,2.4884129E0,2.0184631E0,4.9994264E0,0E0,3.6567576E0,3.0604477E0,0E0,0E0,5.2240806E0,7.3076196E0,6.1801634E0,4.3945036E0,4.2944546E0,4.5713573E0,8.157024E0,5.911915E0,7.5252447E0,7.512926E0,0E0,0E0,2.7708666E0,0E0,0E0,0E0,4.1224117E0,1.5670153E0,1.9874175E0,0E0,4.130664E0,3.2806797E0,4.732607E0,4.464686E0,7.2995186E0,7.575729E0,0E0,0E0,0E0,0E0,0E0,0E0,0E0,0E0,0E0,0E0,0E0,0E0,0E0,0E0,0E0,0E0,0E0,0E0,0E0,0E0,0E0,0E0,0E0,0E0,0E0,0E0,0E0,0E0,0E0,0E0,0E0,0E0,0E0,0E0,0E0,0E0],"parents":[2147483647,0,0,1,1,2,2,3,3,4,4,5,5,6,6,7,7,8,8,9,9,10,10,11,11,12,12,13,13,14,14,15,15,16,16,17,17,18,18,20,20,21,21,22,22,23,23,25,25,26,26,29,29,30,30,31,31,32,32,33,33,34,34,35,35,36,36,37,37,38,38,41,41,45,45,46,46,47,47,49,49,50,50,51,51,52,52,53,53,54,54],"right_children":[2,4,6,8,10,12,14,16,18,20,22,24,26,28,30,32,34,36,38,-1,40,42,44,46,-1,48,50,-1,-1,52,54,56,58,60,62,64,66,68,70,-1,-1,72,-1,-1,-1,74,76,78,-1,80,82,84,86,88,90,-1,-1,-1,-1,-1,-1,-1,-1,-1,-1,-1,-1,-1,-1,-1,-1,-1,-1,-1,-1,-1,-1,-1,-1,-1,-1,-1,-1,-1,-1,-1,-1,-1,-1,-1,-1],"split_conditions":[8.137136E-1,8.017323E-1,8.5929716E-1,1.7720565E-1,5.109645E-1,4.9152863E-1,1.7172284E-2,8.0506825E-1,7.211299E-1,2.0261045E-1,4.9888077E-1,7.724306E-1,2.2870776E-1,2.4126378E-1,6.825577E-1,7.288418E-1,7.185173E-1,3.920121E-1,3.3809018E-1,-2.6286758E-2,1.2501304E-1,8.102563E-1,7.1598184E-1,9.2037356E-1,4.311519E-1,7.2970027E-1,5.777769E-1,9.705416E-2,4.1430113E-1,1.072014E-1,9.098109E-1,1.6777745E-1,7.655847E-1,8.014503E-1,9.302524E-2,1.2488326E-1,5.4076478E-2,8.935121E-1,5.288194E-1,5.2296486E-2,4.2468306E-1,8.069949E-1,3.85914E-1,-3.440213E-1,5.2474834E-2,6.8128836E-1,3.1251043E-1,3.218373E-1,-2.9407123E-1,8.471464E-1,9.4875115E-1,3.951258E-1,4.0859973E-1,9.340575E-1,7.937878E-1,-1.8907668E-2,-2.4519026E-1,3.238279E-1,1.799221E-2,-2.6064247E-1,1.976157E-2,2.1580507E-1,-1.2609306E-1,3.466091E-2,-6.0835347E-2,-1.3514104E-1,2.6187344E-2,-6.7086846E-2,1.8786483E-1,1.5475151E-1,3.6024403E-2,1.829746E-1,-2.3194118E-1,-2.662756E-1,-1.2273187E-2,3.3610687E-1,-4.545416E-2,-1.3192706E-1,1.8539687E-1,-7.932012E-2,-3.9271805E-1,-4.6260172E-1,5.1907506E-3,-4.0328894E-3,-3.0397588E-1,1.0324535E-1,-4.8143845E-3,-2.8397593E-1,6.6914655E-2,5.2766573E-2,-2.2389287E-1],"split_indices":[0,0,0,4,5,4,6,1,5,1,8,5,8,1,2,0,7,0,3,0,8,0,5,8,0,5,5,0,0,1,0,4,0,8,4,0,8,1,4,0,0,0,0,0,0,1,4,3,0,0,5,2,1,2,5,0,0,0,0,0,0,0,0,0,0,0,0,0,0,0,0,0,0,0,0,0,0,0,0,0,0,0,0,0,0,0,0,0,0,0,0],"split_type":[0,0,0,0,0,0,0,0,0,0,0,0,0,0,0,0,0,0,0,0,0,0,0,0,0,0,0,0,0,0,0,0,0,0,0,0,0,0,0,0,0,0,0,0,0,0,0,0,0,0,0,0,0,0,0,0,0,0,0,0,0,0,0,0,0,0,0,0,0,0,0,0,0,0,0,0,0,0,0,0,0,0,0,0,0,0,0,0,0,0,0],"sum_hessian":[1.6611461E3,1.3387904E3,3.223557E2,1.3204757E3,1.8314735E1,7.258954E1,2.4976617E2,2.3790471E2,1.0825709E3,9.406143E0,8.908593E0,3.463911E1,3.795043E1,3.477298E0,2.4628886E2,1.912026E2,4.670209E1,7.762549E2,3.0631607E2,1.700297E0,7.7058463E0,5.6944427E0,3.21415E0,2.7937716E1,6.7013974E0,8.640959E0,2.9309471E1,1.2381653E0,2.239133E0,1.6896527E2,7.73236E1,1.743246E2,1.6878014E1,3.4554684E1,1.2147407E1,3.780888E2,3.9816608E2,1.09831604E2,1.9648447E2,1.2407476E0,6.465099E0,3.9533916E0,1.7410514E0,1.4719181E0,1.742232E0,2.521143E1,2.7262845E0,6.655615E0,1.9853438E0,1.6657808E1,1.2651663E1,1.8383125E1,1.5058214E2,2.7229933E1,5.0093666E1,1.6366882E2,1.0655781E1,9.668141E0,7.2098713E0,2.8830648E1,5.7240357E0,5.9629135E0,6.184493E0,1.1503512E2,2.6305368E2,2.062341E1,3.775427E2,9.917072E1,1.066088E1,8.333262E1,1.13151855E2,2.4597414E0,1.4936501E0,1.6495737E1,8.715694E0,1.4849427E0,1.2413418E0,1.7053945E0,4.95022E0,1.1430152E1,5.2276573E0,1.1158765E1,1.4928983E0,1.1081475E1,7.30165E0,5.17154E1,9.8866745E1,2.0583164E1,6.6467686E0,3.9687508E1,1.0406159E1],"tree_param":{"num_deleted":"0","num_feature":"9","num_nodes":"91","size_leaf_vector":"0"}},{"base_weights":[-1.464463E-2,-1.7843047E-2,6.715734E-1,-8.69897E-3,-4.5555234E-1,1.1142446E0,1.8537734E-2,-1.6353406E-2,4.620189E-1,-9.227587E-1,-1.0019825E-1,1.017141E0,-7.574451E-1,-6.8213624E-1,-1.2545609E-2,7.2528434E-1,-1.0644789E0,-1.5294112E0,-3.979647E-1,4.3635473E-1,-5.783077E-1,-2.9596463E-3,-1.331115E0,5.245489E-1,-1.7481262E-2,3.9635193E-1,1.4134698E0,-1.322802E0,-2.387454E-1,-1.1697085E0,1.659037E-1,-1.1057658E-1,1.2300522E0,2.5392944E-1,-7.983725E-1,9.640677E-1,-9.7167635E-1,-3.364174E-2,1.2845229E0,-1.4220936E0,-1.3963056E-2,5.937471E-1,-8.4073544E-1,1.6503763E0,4.3437508E-1,-7.2365254E-1,6.001494E-1,-1.076294E0,6.5651387E-1,-1.006713E0,2.9437825E-1],"categories":[],"categories_nodes":[],"categories_segments":[],"categories_sizes":[],"default_left":[true,true,true,true,true,false,true,true,true,true,true,false,false,true,true,true,true,false,true,true,true,true,false,true,true,true,true,false,false,false,true,true,false,false,true,false,false,false,false,false,false,false,false,false,false,false,false,false,false,false,false],"id":4,"left_children":[1,3,5,7,9,-1,11,13,15,17,19,-1,-1,21,23,25,27,-1,29,31,33,35,-1,37,39,41,43,-1,-1,-1,45,47,-1,-1,49,-1,-1,-1,-1,-1,-1,-1,-1,-1,-1,-1,-1,-1,-1,-1,-1],"loss_changes":[3.6461463E0,6.5964346E0,2.2074697E0,5.831445E0,5.5069056E0,0E0,3.971416E0,4.0260744E0,1.1179636E1,3.991212E0,5.45429E0,0E0,0E0,3.9769049E0,4.2067175E0,4.5744343E0,5.831981E-1,0E0,4.153391E0,4.5312424E0,2.24537E0,6.009707E0,0E0,6.1733923E0,7.73856E0,4.5862913E0,8.9424896E-1,0E0,0E0,0E0,2.8034291E0,5.8268423E0,0E0,0E0,2.3594394E0,0E0,0E0,0E0,0E0,0E0,0E0,0E0,0E0,0E0,0E0,0E0,0E0,0E0,0E0,0E0,0E0],"parents":[2147483647,0,0,1,1,2,2,3,3,4,4,6,6,7,7,8,8,9,9,10,10,13,13,14,14,15,15,16,16,18,18,19,19,20,20,21,21,23,23,24,24,25,25,26,26,30,30,31,31,34,34],"right_children":[2,4,6,8,10,-1,12,14,16,18,20,-1,-1,22,24,26,28,-1,30,32,34,36,-1,38,40,42,44,-1,-1,-1,46,48,-1,-1,50,-1,-1,-1,-1,-1,-1,-1,-1,-1,-1,-1,-1,-1,-1,-1,-1],"split_conditions":[9.9591905E-1,9.7569E-1,6.4237493E-1,9.623709E-1,4.7408473E-1,3.342734E-1,3.0193698E-1,5.8043897E-3,8.76975E-1,4.2550337E-1,5.496119E-1,3.051423E-1,-2.2723354E-1,3.8153723E-1,1.36250425E-2,7.0544696E-1,5.605949E-1,-4.5882338E-1,3.464902E-1,3.3075958E-1,1.9531778E-1,5.376624E-1,-3.9933452E-1,1.1268234E-2,1.5156932E-2,5.9883416E-1,9.293901E-1,-3.968406E-1,-7.162362E-2,-3.5091257E-1,1.23190954E-1,4.6392787E-1,3.690157E-1,7.6178834E-2,8.388372E-1,2.8922033E-1,-2.9150292E-1,-1.0092523E-2,3.8535687E-1,-4.266281E-1,-4.188917E-3,1.7812413E-1,-2.5222063E-1,4.9511293E-1,1.3031253E-1,-2.1709578E-1,1.8004483E-1,-3.228882E-1,1.9695418E-1,-3.0201393E-1,8.8313475E-2],"split_indices":[3,3,6,3,8,0,0,7,0,7,0,0,0,3,7,7,8,0,6,0,7,5,0,7,7,7,7,0,0,0,8,1,0,0,2,0,0,0,0,0,0,0,0,0,0,0,0,0,0,0,0],"split_type":[0,0,0,0,0,0,0,0,0,0,0,0,0,0,0,0,0,0,0,0,0,0,0,0,0,0,0,0,0,0,0,0,0,0,0,0,0,0,0,0,0,0,0,0,0,0,0,0,0,0,0],"sum_hessian":[1.6547983E3,1.6480907E3,6.70764E0,1.6153644E3,3.2726303E1,3.5767956E0,3.1308448E0,1.5904668E3,2.4897633E1,1.34482765E1,1.9278025E1,1.233146E0,1.8976989E0,8.031543E0,1.5824352E3,2.1682978E1,3.2146554E0,5.3497515E0,8.098526E0,9.124966E0,1.0153058E1,4.4153266E0,3.6162167E0,1.3450798E1,1.5689844E3,1.5737063E1,5.9459143E0,1.9900993E0,1.2245562E0,2.9654284E0,5.133097E0,5.9118404E0,3.2131252E0,2.091098E0,8.06196E0,2.2119915E0,2.2033348E0,8.305934E0,5.1448636E0,2.912681E0,1.5660718E3,1.4020012E1,1.7170507E0,4.235466E0,1.7104484E0,1.4651878E0,3.6679094E0,2.4386506E0,3.47319E0,6.837146E0,1.2248147E0],"tree_param":{"num_deleted":"0","num_feature":"9","num_nodes":"51","size_leaf_vector":"0"}},{"base_weights":[-1.0762632E-2,-4.4439587E-1,-5.900184E-3,-6.5901095E-1,6.6753024E-1,-2.048414E-2,1.4450607E-1,-7.995883E-2,-1.2388816E0,1.1512847E0,-1.1282902E-1,7.336117E-2,-5.790103E-2,2.115773E-1,-2.5417927E-1,4.8315746E-1,-5.707141E-1,-2.0615703E-1,-1.3957522E0,-8.054219E-1,1.0355474E-1,-1.3688982E-1,1.16192615E-2,3.5187292E-1,-1.837794E-2,-1.0019436E0,3.2395504E-2,-3.1315106E-1,9.73404E-1,3.5517097E-2,-9.7443146E-1,-9.6500003E-1,2.2206873E-1,-7.207547E-2,2.2320282E-1,-1.010259E-1,-6.026298E-1,6.172571E-1,-1.562339E-2,-8.8293E-1,4.0432566E-1,9.4995695E-1,-1.7083018E-1,-1.2956885E0,-7.5414926E-2,7.07373E-1,-3.4450716E-1,-2.844041E-1,-1.1903435E0,-1.0284502E-2,-9.4553065E-1,5.7791394E-1,1.6343687E-1,-8.924901E-2,-8.9308804E-1,-1.9372965E-1,-1.1021967E0,-1.1691471E-1,1.0768529E0,-8.0014735E-2,2.4110639E-1,-2.3842373E-1,-1.1295663E0,3.028214E-1,1.041599E0,1.389715E-1,1.469246E0,-4.8478958E-1,3.1200933E-1,1.4276868E-1,1.1049849E0,-9.090884E-1,2.2679789E-2],"categories":[],"categories_nodes":[],"categories_segments":[],"categories_sizes":[],"default_left":[true,true,true,true,true,true,true,true,true,false,false,true,true,true,true,true,true,false,false,true,true,true,true,true,true,true,true,false,false,false,false,true,false,true,true,true,true,true,true,true,true,true,true,false,false,true,true,false,false,false,false,false,false,false,false,false,false,false,false,false,false,false,false,false,false,false,false,false,false,false,false,false,false],"id":5,"left_children":[1,3,5,7,9,11,13,15,17,-1,-1,19,21,23,25,27,29,-1,-1,31,33,35,37,39,41,43,45,-1,-1,-1,-1,47,-1,49,51,53,55,57,59,61,63,65,67,-1,-1,69,71,-1,-1,-1,-1,-1,-1,-1,-1,-1,-1,-1,-1,-1,-1,-1,-1,-1,-1,-1,-1,-1,-1,-1,-1,-1,-1],"loss_changes":[3.4819655E0,4.809902E0,3.590044E0,5.223954E0,1.4358538E0,5.2419815E0,3.9224052E0,2.7632039E0,9.8428917E-1,0E0,0E0,1.1377139E1,5.8608217E0,4.0193696E0,4.5942783E0,2.152545E0,1.3239304E0,0E0,0E0,2.5511951E0,8.681904E0,8.283448E0,9.388355E0,5.363826E0,7.260485E0,1.516048E0,4.4053435E0,0E0,0E0,0E0,0E0,1.5821695E0,0E0,9.049782E0,5.110693E0,4.2582593E0,7.0415506E0,8.39047E0,9.027821E0,2.8132153E-1,4.5256243E0,2.6143742E0,6.5772405E0,0E0,0E0,1.2316394E0,2.3361523E0,0E0,0E0,0E0,0E0,0E0,0E0,0E0,0E0,0E0,0E0,0E0,0E0,0E0,0E0,0E0,0E0,0E0,0E0,0E0,0E0,0E0,0E0,0E0,0E0,0E0,0E0],"parents":[2147483647,0,0,1,1,2,2,3,3,4,4,5,5,6,6,7,7,8,8,11,11,12,12,13,13,14,14,15,15,16,16,19,19,20,20,21,21,22,22,23,23,24,24,25,25,26,26,31,31,33,33,34,34,35,35,36,36,37,37,38,38,39,39,40,40,41,41,42,42,45,45,46,46],"right_children":[2,4,6,8,10,12,14,16,18,-1,-1,20,22,24,26,28,30,-1,-1,32,34,36,38,40,42,44,46,-1,-1,-1,-1,48,-1,50,52,54,56,58,60,62,64,66,68,-1,-1,70,72,-1,-1,-1,-1,-1,-1,-1,-1,-1,-1,-1,-1,-1,-1,-1,-1,-1,-1,-1,-1,-1,-1,-1,-1,-1,-1],"split_conditions":[1.08751785E-2,9.488355E-1,9.1140103E-1,5.5575615E-1,5.6050223E-1,2.7481866E-1,8.733595E-1,3.8799232E-1,2.0469473E-1,3.4538543E-1,-3.3848707E-2,4.1140936E-2,6.0942316E-1,9.6919596E-1,9.0652287E-1,2.318122E-1,3.4601742E-1,-6.184711E-2,-4.1872567E-1,8.730012E-1,1.1430055E-1,5.855007E-1,6.2512624E-1,4.0802695E-2,1.2754646E-1,6.8962E-1,9.3628275E-1,-9.3945324E-2,2.9202121E-1,1.0655129E-2,-2.9232946E-1,2.8868806E-1,6.662062E-2,9.307708E-1,1.3838294E-1,9.870897E-1,6.2572443E-1,3.933829E-1,8.04261E-1,5.5695236E-1,7.6009333E-1,6.797968E-2,5.9164304E-1,-3.8870656E-1,-2.2624478E-2,9.22539E-1,4.7601643E-1,-8.532123E-2,-3.5710305E-1,-3.0853509E-3,-2.8365922E-1,1.7337419E-1,4.9031064E-2,-2.6774703E-2,-2.6792642E-1,-5.81189E-2,-3.3065903E-1,-3.5074417E-2,3.230559E-1,-2.4004422E-2,7.233192E-2,-7.152712E-2,-3.388699E-1,9.084642E-2,3.1247973E-1,4.169145E-2,4.4077381E-1,-1.4543688E-1,9.360281E-2,4.2830605E-2,3.3149546E-1,-2.7272654E-1,6.803937E-3],"split_indices":[1,2,7,8,5,6,3,7,3,0,0,2,6,7,3,8,8,0,0,4,6,6,6,0,0,8,3,0,0,0,0,0,0,3,6,8,4,1,8,5,3,0,4,0,0,3,0,0,0,0,0,0,0,0,0,0,0,0,0,0,0,0,0,0,0,0,0,0,0,0,0,0,0],"split_type":[0,0,0,0,0,0,0,0,0,0,0,0,0,0,0,0,0,0,0,0,0,0,0,0,0,0,0,0,0,0,0,0,0,0,0,0,0,0,0,0,0,0,0,0,0,0,0,0,0,0,0,0,0,0,0,0,0,0,0,0,0,0,0,0,0,0,0,0,0,0,0,0,0],"sum_hessian":[1.6516233E3,1.7312366E1,1.6343109E3,1.4852903E1,2.4594638E0,1.490637E3,1.4367393E2,8.001043E0,6.85186E0,1.2248423E0,1.2346214E0,4.24639E2,1.0659979E3,1.2338592E2,2.0288025E1,3.7330472E0,4.2679963E0,1.2087162E0,5.6431437E0,1.32524185E1,4.113866E2,4.9856287E2,5.67435E2,7.630319E1,4.708273E1,4.9293957E0,1.5358628E1,1.5601423E0,2.1729047E0,2.0706644E0,2.1973321E0,1.1523533E1,1.7288857E0,1.668568E2,2.4452982E2,4.640463E2,3.4516586E1,2.349325E1,5.439418E2,2.464028E0,7.3839165E1,5.6927514E0,4.1389977E1,3.440267E0,1.4891286E0,5.18903E0,1.0169599E1,3.429038E0,8.094495E0,1.5677762E2,1.0079168E1,3.40101E1,2.1051971E2,4.5834402E2,5.702277E0,1.9743855E1,1.4772732E1,9.331866E0,1.4161384E1,4.3542065E2,1.08521126E2,1.2262671E0,1.2377608E0,6.496654E1,8.872622E0,2.7170665E0,2.975685E0,2.5078808E1,1.631117E1,2.7058372E0,2.4831927E0,3.4260051E0,6.743593E0],"tree_param":{"num_deleted":"0","num_feature":"9","num_nodes":"73","size_leaf_vector":"0"}},{"base_weights":[-8.291516E-3,-5.2681225E-3,-6.7427444E-1,-7.5093156E-1,-2.7336164E-3,-2.2886151E-2,-1.4110346E0,-1.2599238E0,1.3045856E-1,5.4375845E-1,-7.243419E-3,-6.5492797E-1,1.042126E0,-1.739422E-1,9.688574E-1,-9.28438E-3,8.319878E-1,1.9325498E-2,-1.1127198E0,4.742949E-1,-8.701265E-1,1.1847585E0,-4.3043647E-2,-2.9223268E-3,-5.909132E-1,1.2962977E0,-1.1148631E-1,-2.0181105E-1,9.036279E-1,2.576085E-1,1.3313851E0,-9.8455865E-3,6.350419E-1,-7.7625763E-1,1.024373E0],"categories":[],"categories_nodes":[],"categories_segments":[],"categories_sizes":[],"default_left":[true,true,true,true,true,true,false,false,false,true,true,true,false,true,true,true,true,false,false,true,false,true,false,true,true,false,false,false,false,false,false,false,false,false,false],"id":6,"left_children":[1,3,5,7,9,11,-1,-1,-1,13,15,17,-1,19,21,23,25,-1,-1,27,-1,29,-1,31,33,-1,-1,-1,-1,-1,-1,-1,-1,-1,-1],"loss_changes":[3.3139658E0,3.099586E0,3.5373638E0,2.6568134E0,4.0375047E0,4.024111E0,0E0,0E0,0E0,4.259357E0,2.7897356E0,1.1726701E0,0E0,3.0461996E0,1.9239378E0,5.997507E0,1.8755038E0,0E0,0E0,1.2473806E0,0E0,6.223049E-1,0E0,7.09398E0,6.0454926E0,0E0,0E0,0E0,0E0,0E0,0E0,0E0,0E0,0E0,0E0],"parents":[2147483647,0,0,1,1,2,2,3,3,4,4,5,5,9,9,10,10,11,11,13,13,14,14,15,15,16,16,19,19,21,21,23,23,24,24],"right_children":[2,4,6,8,10,12,-1,-1,-1,14,16,18,-1,20,22,24,26,-1,-1,28,-1,30,-1,32,34,-1,-1,-1,-1,-1,-1,-1,-1,-1,-1],"split_conditions":[9.968106E-1,2.9551028E-3,7.1338737E-1,7.087928E-1,1.0025271E-2,5.8602333E-1,-4.233104E-1,-3.7797716E-1,3.9137572E-2,4.351412E-1,9.9728274E-1,6.084255E-1,3.1263784E-1,5.817366E-3,8.8300884E-1,9.8701525E-1,6.9896793E-1,5.7976497E-3,-3.3381593E-1,4.991771E-3,-2.6103795E-1,2.1328977E-1,-1.2913095E-2,9.749434E-1,9.3507975E-1,3.888893E-1,-3.3445895E-2,-6.0543317E-2,2.7108836E-1,7.7282555E-2,3.9941555E-1,-2.953676E-3,1.9051258E-1,-2.328773E-1,3.0731192E-1],"split_indices":[5,8,3,1,8,2,0,0,0,5,8,8,0,8,7,8,5,0,0,8,0,1,0,8,6,0,0,0,0,0,0,0,0,0,0],"split_type":[0,0,0,0,0,0,0,0,0,0,0,0,0,0,0,0,0,0,0,0,0,0,0,0,0,0,0,0,0,0,0,0,0,0,0],"sum_hessian":[1.6466135E3,1.6401755E3,6.438072E0,4.5557966E0,1.6356198E3,3.9642453E0,2.473827E0,2.6157556E0,1.9400411E0,1.240844E1,1.6232113E3,2.7294676E0,1.2347778E0,4.835469E0,7.5729713E0,1.6202598E3,2.9514394E0,1.4911014E0,1.2383662E0,2.6690044E0,2.1664643E0,6.100527E0,1.4724444E0,1.6037228E3,1.653704E1,1.7273839E0,1.2240555E0,1.2424146E0,1.4265898E0,1.2095015E0,4.891025E0,1.5874799E3,1.6242943E1,1.5300796E1,1.2362449E0],"tree_param":{"num_deleted":"0","num_feature":"9","num_nodes":"35","size_leaf_vector":"0"}},{"base_weights":[-5.6903246E-3,-8.331752E-3,5.884558E-1,-4.754436E-3,-7.756345E-1,9.5225173E-1,4.1270707E-2,-1.0506308E-2,2.5823134E-1,-1.1862112E0,-1.5009578E-1,3.0123514E-1,1.0773761E0,8.7901956E-1,-6.277447E-1,-5.40773E-3,-5.206501E-1,3.9659387E-1,-6.65132E-1,4.5823655E-1,-8.437818E-1,-8.82359E-3,5.513707E-1,-7.2191626E-1,1.0267525E0,1.1198688E0,1.714341E-1,7.2805893E-1,-1.3315214E0,1.2678339E-2,-1.1821724E-1,1.411517E0,5.721745E-2,-9.913523E-1,2.474581E-1,1.3978014E0,1.5661506E-1,3.5233885E-1,-8.804443E-1],"categories":[],"categories_nodes":[],"categories_segments":[],"categories_sizes":[],"default_left":[true,true,true,true,true,true,true,true,true,false,true,false,false,false,false,true,true,true,true,false,false,true,true,true,false,true,true,false,false,false,false,false,false,false,false,false,false,false,false],"id":7,"left_children":[1,3,5,7,9,11,13,15,17,-1,19,-1,-1,-1,-1,21,23,25,27,-1,-1,29,31,33,-1,35,37,-1,-1,-1,-1,-1,-1,-1,-1,-1,-1,-1,-1],"loss_changes":[2.5882602E0,4.4973354E0,1.4137979E0,2.4731631E0,1.7747378E0,2.8925419E-2,2.7714667E0,4.1566844E0,4.7346554E0,0E0,2.1412134E0,0E0,0E0,0E0,0E0,3.0181494E0,5.666418E0,4.866311E0,5.5501695E0,0E0,0E0,3.7078128E0,4.032254E0,4.053713E0,0E0,1.70681E0,5.042251E0,0E0,0E0,0E0,0E0,0E0,0E0,0E0,0E0,0E0,0E0,0E0,0E0],"parents":[2147483647,0,0,1,1,2,2,3,3,4,4,5,5,6,6,7,7,8,8,10,10,15,15,16,16,17,17,18,18,21,21,22,22,23,23,25,25,26,26],"right_children":[2,4,6,8,10,12,14,16,18,-1,20,-1,-1,-1,-1,22,24,26,28,-1,-1,30,32,34,-1,36,38,-1,-1,-1,-1,-1,-1,-1,-1,-1,-1,-1,-1],"split_conditions":[9.9591905E-1,9.915618E-1,6.4237493E-1,9.819871E-1,9.93323E-1,1.3793515E-1,3.0193698E-1,9.7275954E-1,8.957685E-1,-3.558634E-1,6.202089E-1,9.037054E-2,3.2321286E-1,2.6370588E-1,-1.8832341E-1,9.683405E-1,8.361933E-1,2.6376212E-1,2.7289E-1,1.3747098E-1,-2.5313455E-1,8.138714E-1,3.3328998E-1,7.409578E-1,3.0802575E-1,7.1641016E-1,8.7158287E-1,2.1841769E-1,-3.9945644E-1,3.8035018E-3,-3.5465173E-2,4.2345512E-1,1.7165236E-2,-2.9740572E-1,7.4237436E-2,4.1934043E-1,4.698452E-2,1.0570166E-1,-2.641333E-1],"split_indices":[3,3,6,0,3,0,0,0,2,0,5,0,0,0,0,0,2,8,5,0,0,0,1,7,0,1,3,0,0,0,0,0,0,0,0,0,0,0,0],"split_type":[0,0,0,0,0,0,0,0,0,0,0,0,0,0,0,0,0,0,0,0,0,0,0,0,0,0,0,0,0,0,0,0,0,0,0,0,0,0,0],"sum_hessian":[1.6450853E3,1.6387858E3,6.2996635E0,1.6321824E3,6.603359E0,3.3392742E0,2.9603891E0,1.5981877E3,3.399458E1,3.4455473E0,3.1578116E0,1.0876688E0,2.2516053E0,1.1750622E0,1.7853271E0,1.5833735E3,1.4814257E1,3.0060602E1,3.933978E0,1.8632452E0,1.2945665E0,1.5746968E3,8.676684E0,1.3581248E1,1.2330079E0,6.1930766E0,2.3867525E1,1.2429192E0,2.6910589E0,1.3167637E3,2.5793314E2,2.488554E0,6.1881304E0,1.0609643E1,2.9716055E0,4.4561853E0,1.7368912E0,2.0932531E1,2.9349923E0],"tree_param":{"num_deleted":"0","num_feature":"9","num_nodes":"39","size_leaf_vector":"0"}},{"base_weights":[-3.6522187E-3,-5.706722E-3,7.1449506E-1,-1.8855252E-3,-8.4582573E-1,1.2255383E0,-2.7570277E-3,-6.024516E-3,6.969436E-1,-1.2388803E0,5.3666383E-2,3.2302244E-3,-2.6411223E-1,-2.0070782E-1,1.2383959E0,-2.7125037E-1,-1.4695513E0,-9.5546335E-1,5.9040473E-3,-3.3097363E-1,1.0508158E0,4.865503E-1,-1.0996779E0,1.4482987E0,2.0335846E-1,-1.55172E-1,-1.2114679E0,6.176846E-1,1.4172937E-3,-7.162686E-1,-1.5002373E-1],"categories":[],"categories_nodes":[],"categories_segments":[],"categories_sizes":[],"default_left":[true,true,true,true,true,false,false,true,true,true,false,true,true,true,true,false,false,true,true,true,false,false,false,false,false,false,false,false,false,false,false],"id":8,"left_children":[1,3,5,7,9,-1,-1,11,13,15,-1,17,19,21,23,-1,-1,25,27,29,-1,-1,-1,-1,-1,-1,-1,-1,-1,-1,-1],"loss_changes":[2.4289222E0,5.2625275E0,1.7247682E0,4.7286015E0,2.690662E0,0E0,0E0,3.8815837E0,4.9269314E0,7.6356316E-1,0E0,4.0288005E0,5.2937326E0,3.3041935E0,1.0401955E0,0E0,0E0,7.0759416E-1,4.29794E0,3.6779213E0,0E0,0E0,0E0,0E0,0E0,0E0,0E0,0E0,0E0,0E0,0E0],"parents":[2147483647,0,0,1,1,2,2,3,3,4,4,7,7,8,8,9,9,11,11,12,12,13,13,14,14,17,17,18,18,19,19],"right_children":[2,4,6,8,10,-1,-1,12,14,16,-1,18,20,22,24,-1,-1,26,28,30,-1,-1,-1,-1,-1,-1,-1,-1,-1,-1,-1],"split_conditions":[9.971165E-1,9.9304163E-1,4.5554638E-1,9.8682725E-1,6.3213027E-1,3.6766148E-1,-8.2710834E-4,9.528277E-1,4.2751825E-1,2.3599927E-1,1.6099915E-2,2.2214777E-3,9.6763706E-1,2.0394935E-1,7.887194E-1,-8.1375115E-2,-4.4086543E-1,9.889158E-4,6.9623846E-3,9.623776E-1,3.1524476E-1,1.459651E-1,-3.299034E-1,4.3448964E-1,6.100754E-2,-4.6551604E-2,-3.6344036E-1,1.8530539E-1,4.2518813E-4,-2.1488059E-1,-4.500712E-2],"split_indices":[4,4,8,4,3,0,0,4,1,6,0,5,2,1,8,0,0,5,5,4,0,0,0,0,0,0,0,0,0,0,0],"split_type":[0,0,0,0,0,0,0,0,0,0,0,0,0,0,0,0,0,0,0,0,0,0,0,0,0,0,0,0,0,0,0],"sum_hessian":[1.6424768E3,1.6387805E3,3.6962328E0,1.6323582E3,6.422373E0,1.7445679E0,1.9516648E0,1.6237325E3,8.625586E0,4.2068E0,2.2155724E0,1.5684762E3,5.5256344E1,3.4820898E0,5.143496E0,1.2286632E0,2.978137E0,3.3712797E0,1.565105E3,5.3294712E1,1.9616314E0,2.2334204E0,1.2486694E0,3.9443257E0,1.1991705E0,1.206328E0,2.1649516E0,1.0399777E1,1.5547052E3,1.6085539E1,3.720917E1],"tree_param":{"num_deleted":"0","num_feature":"9","num_nodes":"31","size_leaf_vector":"0"}},{"base_weights":[-2.5619469E-3,-1.3721883E-4,-5.511527E-1,-2.6845244E-1,5.4462277E-3,-2.2195142E-2,-1.156595E0,9.305553E-1,-3.6157754E-1,6.0383034E-1,2.3026594E-3,-5.554445E-1,8.921227E-1,3.4370875E-1,-5.243334E-1,-8.301323E-2,1.2277541E0,-4.8247167E-1,6.599648E-3,-1.0022167E0,6.482257E-2,-4.1863203E-1,1.0574331E0,-1.6074038E-1,-8.8049215E-1,6.93268E-1,-8.4559804E-1,1.4511948E0,3.485791E-1,1.6124877E-1,-8.074902E-1,-1.5042057E-2,9.97464E-2,3.66495E-1,-9.059037E-1,2.7887702E-1,-6.7147976E-1,1.1614345E-1,-1.0671035E0,-3.716208E-1,8.548845E-1,8.550246E-2,-1.0083488E0,2.3468453E-1,-2.6268916E-2,2.8293118E-2,4.2303646E-1],"categories":[],"categories_nodes":[],"categories_segments":[],"categories_sizes":[],"default_left":[true,true,true,true,true,true,false,false,true,true,true,true,false,true,true,true,true,true,true,false,false,true,false,true,true,false,false,false,false,true,true,true,true,false,false,false,false,false,false,false,false,false,false,false,false,false,false],"id":9,"left_children":[1,3,5,7,9,11,-1,-1,13,15,17,19,-1,21,23,25,27,29,31,-1,-1,33,-1,35,37,-1,-1,-1,-1,39,41,43,45,-1,-1,-1,-1,-1,-1,-1,-1,-1,-1,-1,-1,-1,-1],"loss_changes":[2.1843917E0,2.4523983E0,2.2885876E0,4.062482E0,3.0151436E0,2.8730326E0,0E0,0E0,3.8173385E0,3.6916642E0,3.3282995E0,1.0892798E0,0E0,4.003779E0,3.2435422E0,3.5011244E0,3.6885595E-1,3.0673022E0,3.1930397E0,0E0,0E0,1.8167899E0,0E0,3.3662503E0,2.538333E0,0E0,0E0,0E0,0E0,2.3666565E0,1.7892475E0,3.610517E0,6.8862886E0,0E0,0E0,0E0,0E0,0E0,0E0,0E0,0E0,0E0,0E0,0E0,0E0,0E0,0E0],"parents":[2147483647,0,0,1,1,2,2,3,3,4,4,5,5,8,8,9,9,10,10,11,11,13,13,14,14,15,15,16,16,17,17,18,18,21,21,23,23,24,24,29,29,30,30,31,31,32,32],"right_children":[2,4,6,8,10,12,-1,-1,14,16,18,20,-1,22,24,26,28,30,32,-1,-1,34,-1,36,38,-1,-1,-1,-1,40,42,44,46,-1,-1,-1,-1,-1,-1,-1,-1,-1,-1,-1,-1,-1,-1],"split_conditions":[9.968106E-1,2.0063467E-2,7.1338737E-1,3.9503656E-2,2.3944877E-2,5.8602333E-1,-3.4697852E-1,2.791666E-1,2.3956457E-1,6.044903E-1,8.716632E-3,2.9713568E-1,2.676368E-1,1.598112E-1,1.1222698E-2,4.6137586E-1,7.737279E-1,3.3448452E-1,8.067427E-1,-3.0066502E-1,1.9446772E-2,6.1387092E-2,3.1722996E-1,5.3706E-1,2.091155E-1,2.0798041E-1,-2.5367942E-1,4.3535843E-1,1.04573734E-1,6.4721227E-1,3.6484972E-1,4.996258E-2,8.191192E-1,1.0994851E-1,-2.7177113E-1,8.3663106E-2,-2.0144394E-1,3.4843035E-2,-3.2013106E-1,-1.1148625E-1,2.5646538E-1,2.565074E-2,-3.0250466E-1,7.0405364E-2,-7.880676E-3,8.487936E-3,1.2691094E-1],"split_indices":[5,3,3,1,3,2,0,0,5,1,1,4,0,5,3,6,5,8,6,0,0,5,0,8,2,0,0,0,0,2,7,1,8,0,0,0,0,0,0,0,0,0,0,0,0,0,0],"split_type":[0,0,0,0,0,0,0,0,0,0,0,0,0,0,0,0,0,0,0,0,0,0,0,0,0,0,0,0,0,0,0,0,0,0,0,0,0,0,0,0,0,0,0,0,0,0,0],"sum_hessian":[1.6412302E3,1.6350039E3,6.226339E0,3.236996E1,1.602634E3,3.8763459E0,2.3499928E0,1.6848317E0,3.0685127E1,7.3767233E0,1.5952572E3,2.696307E0,1.1800388E0,5.544929E0,2.51402E1,3.923979E0,3.452744E0,1.3038237E1,1.582219E3,1.2094033E0,1.4869037E0,2.8810675E0,2.6638618E0,1.3158425E1,1.1981774E1,1.9895711E0,1.9344078E0,2.2342749E0,1.2184693E0,4.5434723E0,8.494765E0,1.2845948E3,2.976241E2,1.1982402E0,1.6828274E0,7.3155556E0,5.8428693E0,1.9492155E0,1.0032558E1,2.8320541E0,1.7114179E0,1.6653113E0,6.8294535E0,5.4410122E1,1.2301848E3,2.4464125E2,5.2982876E1],"tree_param":{"num_deleted":"0","num_feature":"9","num_nodes":"47","size_leaf_vector":"0"}},{"base_weights":[-1.7842313E-3,-7.162804E-2,1.8566411E-2,2.7682902E-2,-1.9141321E-1,1.332056E0,1.4987129E-2,-1.0345254E-2,8.780334E-1,-2.81599E-1,2.4972098E-1,1.4685988E-1,-1.0592377E-2,9.3283504E-1,-3.8550634E-2,1.3105096E0,5.7222452E-2,-1.6373038E-1,-5.954803E-1,1.0742539E0,-1.4685224E-1,2.3059301E-1,-2.2111897E-1,-1.3522704E-3,-4.7942036E-1,1.2129667E0,3.2930072E-2,-1.361618E-1,2.4980612E-1,1.8757743E-1,1.5812948E0,-9.4182765E-1,7.923348E-1,-2.2595687E-1,6.038433E-1,-6.6339815E-1,5.79565E-1,7.913786E-2,1.7432489E0,3.723016E-1,-5.1320374E-1,-3.1842673E-1,3.0079338E-1,-7.048993E-1,1.228452E-1,-3.7065202E-1,1.046689E-2,4.3142024E-1,-6.656251E-1,-4.929434E-2,-5.684686E-1,7.535455E-1,-1.1986569E-2,5.4109167E-2,-4.0828004E-1,-6.5298957E-1,1.1845639E0,-7.828829E-1,9.931069E-2,-7.364715E-1,1.1766887E0,-2.1542686E-1,1.1854652E0,-7.9877675E-1,3.7571037E-1,8.412379E-1,-6.1889243E-1,3.4263602E-1,-6.1191887E-1,-2.0339763E-1,-1.3204185E0,-6.283152E-1,2.930974E-1,-1.0640562E-1,-8.5338753E-1,-1.7923772E-2,1.4223903E-1,1.2691474E0,-9.1120374E-1,-8.4049505E-1,2.8992686E-1],"categories":[],"categories_nodes":[],"categories_segments":[],"categories_sizes":[],"default_left":[true,true,true,true,true,false,true,true,true,true,true,true,true,true,true,true,true,true,true,true,true,true,true,true,true,false,false,true,true,false,false,false,false,true,true,true,false,true,false,true,true,true,true,true,true,true,true,true,true,false,false,false,false,false,false,false,false,false,false,false,false,false,false,false,false,false,false,false,false,false,false,false,false,false,false,false,false,false,false,false,false],"id":10,"left_children":[1,3,5,7,9,-1,11,13,15,17,19,21,23,25,27,29,31,33,35,37,39,41,43,45,47,-1,-1,49,51,-1,-1,-1,-1,53,55,57,-1,59,-1,61,63,65,67,69,71,73,75,77,79,-1,-1,-1,-1,-1,-1,-1,-1,-1,-1,-1,-1,-1,-1,-1,-1,-1,-1,-1,-1,-1,-1,-1,-1,-1,-1,-1,-1,-1,-1,-1,-1],"loss_changes":[2.332214E0,4.4093733E0,5.953921E0,6.582584E0,6.7514935E0,0E0,4.2796082E0,5.23856E0,3.0180583E0,5.078375E0,9.651946E0,6.4014325E0,4.604852E0,1.4015665E0,5.4057813E0,1.4247141E0,3.7223666E0,5.060219E0,3.4022808E0,6.219697E0,4.0872383E0,6.585663E0,6.5289626E0,4.5589314E0,3.7717152E0,0E0,0E0,5.350743E0,6.4205675E0,0E0,0E0,0E0,0E0,4.9283834E0,6.6144667E0,3.378007E0,0E0,5.2410884E0,0E0,4.582835E0,3.4556155E0,7.341572E0,5.9310207E0,4.7433367E0,3.1868174E0,4.0410056E0,3.7892656E0,5.7611523E0,3.1597629E0,0E0,0E0,0E0,0E0,0E0,0E0,0E0,0E0,0E0,0E0,0E0,0E0,0E0,0E0,0E0,0E0,0E0,0E0,0E0,0E0,0E0,0E0,0E0,0E0,0E0,0E0,0E0,0E0,0E0,0E0,0E0,0E0],"parents":[2147483647,0,0,1,1,2,2,3,3,4,4,6,6,7,7,8,8,9,9,10,10,11,11,12,12,13,13,14,14,15,15,16,16,17,17,18,18,19,19,20,20,21,21,22,22,23,23,24,24,27,27,28,28,33,33,34,34,35,35,37,37,39,39,40,40,41,41,42,42,43,43,44,44,45,45,46,46,47,47,48,48],"right_children":[2,4,6,8,10,-1,12,14,16,18,20,22,24,26,28,30,32,34,36,38,40,42,44,46,48,-1,-1,50,52,-1,-1,-1,-1,54,56,58,-1,60,-1,62,64,66,68,70,72,74,76,78,80,-1,-1,-1,-1,-1,-1,-1,-1,-1,-1,-1,-1,-1,-1,-1,-1,-1,-1,-1,-1,-1,-1,-1,-1,-1,-1,-1,-1,-1,-1,-1,-1],"split_conditions":[2.178713E-1,1.2114367E-1,2.1897036E-1,9.506166E-1,8.664088E-1,3.9961684E-1,1.7102818E-1,3.0143512E-2,3.7789053E-1,6.3547623E-1,9.123148E-1,8.2341015E-1,9.8229444E-1,5.3517354E-1,9.343674E-2,1.4626515E-1,4.0536627E-1,5.836308E-1,9.561999E-1,3.8089216E-1,4.4488654E-1,1.0150349E-1,7.381558E-2,1.9615462E-1,1.3054842E-1,3.6389002E-1,9.879022E-3,7.870747E-2,3.1176305E-1,5.627323E-2,4.7438845E-1,-2.825483E-1,2.3770045E-1,4.3733495E-1,4.1625136E-1,2.0328629E-1,1.738695E-1,5.218737E-1,5.229747E-1,7.3635364E-1,7.540486E-1,1.9472662E-1,9.723985E-1,5.914026E-1,8.622087E-1,1.8763998E-1,8.168817E-1,6.8136525E-1,7.864859E-1,-1.4788303E-2,-1.7054057E-1,2.2606367E-1,-3.5959708E-3,1.6232751E-2,-1.2248402E-1,-1.9589688E-1,3.5536918E-1,-2.3486489E-1,2.9793208E-2,-2.2094145E-1,3.530066E-1,-6.4628065E-2,3.5563958E-1,-2.3963304E-1,1.1271311E-1,2.5237137E-1,-1.8566774E-1,1.0279081E-1,-1.8357566E-1,-6.101929E-2,-3.9612556E-1,-1.8849458E-1,8.792923E-2,-3.192169E-2,-2.5601628E-1,-5.377132E-3,4.267171E-2,3.8074425E-1,-2.7336115E-1,-2.5214854E-1,8.697806E-2],"split_indices":[1,1,1,8,0,0,8,5,2,0,0,4,5,7,1,2,5,0,3,3,5,3,8,8,3,0,0,1,7,0,0,0,0,4,7,1,0,6,0,2,4,5,6,3,4,8,6,8,7,0,0,0,0,0,0,0,0,0,0,0,0,0,0,0,0,0,0,0,0,0,0,0,0,0,0,0,0,0,0,0,0],"split_type":[0,0,0,0,0,0,0,0,0,0,0,0,0,0,0,0,0,0,0,0,0,0,0,0,0,0,0,0,0,0,0,0,0,0,0,0,0,0,0,0,0,0,0,0,0,0,0,0,0,0,0,0,0,0,0,0,0,0,0,0,0,0,0,0,0,0,0,0,0,0,0,0,0,0,0,0,0,0,0,0,0],"sum_hessian":[1.63889E3,3.6921545E2,1.2696746E3,2.0227943E2,1.6693602E2,2.4418201E0,1.2672327E3,1.9456616E2,7.7132754E0,1.3890071E2,2.8035313E1,2.0510283E2,1.0621299E3,4.7181907E0,1.8984798E2,4.660897E0,3.0523787E0,1.0208676E2,3.681395E1,8.549931E0,1.9485382E1,1.6738739E2,3.7715435E1,1.0425845E3,1.9545359E1,3.33283E0,1.3853606E0,1.422298E2,4.7618176E1,1.2344431E0,3.4264538E0,1.174703E0,1.8776755E0,9.5084015E1,7.002752E0,3.5214E1,1.5999465E0,3.8867562E0,4.6631746E0,8.054778E0,1.1430603E1,1.857567E1,1.4881172E2,1.5236372E1,2.2479063E1,3.1390833E1,1.01119366E3,3.0939674E0,1.6451391E1,1.1935975E2,2.287005E1,1.56418495E1,3.1976324E1,3.7769547E1,5.7314465E1,2.1737456E0,4.829006E0,3.042173E1,4.792271E0,2.4185073E0,1.468249E0,5.10217E0,2.952608E0,8.728033E0,2.7025702E0,3.4521437E0,1.5123528E1,1.4288582E2,5.9259043E0,9.1289215E0,6.1074505E0,3.6563933E0,1.882267E1,2.1074957E1,1.0315877E1,8.32659E2,1.7853465E2,1.9389131E0,1.1550545E0,1.4008235E1,2.443156E0],"tree_param":{"num_deleted":"0","num_feature":"9","num_nodes":"81","size_leaf_vector":"0"}},{"base_weights":[-6.117029E-4,6.643741E-2,-2.0173393E-2,-1.1003553E-2,2.94962E-1,7.405075E-1,-2.4358597E-2,2.8355604E-2,-6.138436E-1,-4.5073876E-1,3.4509027E-1,-6.247699E-1,1.1479148E0,-3.137471E-2,4.1677755E-1,-4.131993E-1,8.216745E-2,-7.4526453E-1,7.3162186E-1,-1.374207E0,2.888844E-1,4.615395E-1,-1.4801098E-3,2.0851527E-1,1.3627943E0,1.8853097E-1,-4.693044E-2,-7.2152054E-1,6.5620905E-1,-5.44476E-1,3.3288562E-1,6.43849E-1,3.9746046E-2,-9.063854E-1,2.8105715E-1,6.4306E-1,-3.6563808E-1,1.7474695E-1,7.1654266E-1,-4.3032026E-1,6.5902656E-1,1.1660184E-1,1.0749785E0,-8.93143E-1,-4.102253E-2,-6.5957054E-2,-1.0912614E0,-3.9444315E-1,9.034755E-1,-1.3944514E-1,-8.1301105E-1,8.4790075E-1,-6.696839E-1,-2.5617924E-1,9.6762675E-1,1.987972E-1,-8.202993E-2,-2.1129386E-1,-1.2141762E0,3.9095703E-1,-5.7666343E-1,9.06811E-1,-7.089327E-3,-1.0462401E0,1.1447649E-1,1.166327E0,-5.844738E-1,-4.2343837E-1,2.2154161E-1,1.3292787E0,4.1977283E-1,-1.096037E0,2.1789987E-2,-7.281736E-2,9.248429E-2,-1.0647233E0,4.441308E-1,1.095083E0,4.5763026E-3],"categories":[],"categories_nodes":[],"categories_segments":[],"categories_sizes":[],"default_left":[true,true,true,true,true,true,true,true,true,true,true,false,true,true,true,true,true,true,false,false,true,true,true,false,false,true,true,true,true,true,true,true,true,true,false,false,false,true,true,true,true,true,true,true,true,false,false,true,true,false,false,false,false,false,false,false,false,false,false,false,false,false,false,false,false,false,false,false,false,false,false,false,false,false,false,false,false,false,false],"id":11,"left_children":[1,3,5,7,9,11,13,15,17,19,21,-1,23,25,27,29,31,33,-1,-1,35,37,39,-1,-1,41,43,45,47,49,51,53,55,57,-1,-1,-1,59,61,63,65,67,69,71,73,-1,-1,75,77,-1,-1,-1,-1,-1,-1,-1,-1,-1,-1,-1,-1,-1,-1,-1,-1,-1,-1,-1,-1,-1,-1,-1,-1,-1,-1,-1,-1,-1,-1],"loss_changes":[2.144436E0,6.5383744E0,4.0474863E0,6.5845137E0,3.6506748E0,4.587084E0,3.912017E0,6.2300167E0,3.5524936E0,4.7158017E0,3.559348E0,0E0,8.686247E-1,4.25384E0,5.8676376E0,2.9719648E0,5.532712E0,2.8987398E0,0E0,0E0,1.240595E0,4.7018795E0,6.84752E0,0E0,0E0,5.1146774E0,5.761383E0,8.7718606E-1,4.740609E0,2.5632505E0,3.0895777E0,5.002292E0,4.237872E0,2.7506962E0,0E0,0E0,0E0,5.487336E0,4.772505E0,5.0375433E0,6.685699E0,4.4652033E0,4.4943762E-1,1.507596E0,4.900016E0,0E0,0E0,2.6712513E0,2.4002419E0,0E0,0E0,0E0,0E0,0E0,0E0,0E0,0E0,0E0,0E0,0E0,0E0,0E0,0E0,0E0,0E0,0E0,0E0,0E0,0E0,0E0,0E0,0E0,0E0,0E0,0E0,0E0,0E0,0E0,0E0],"parents":[2147483647,0,0,1,1,2,2,3,3,4,4,5,5,6,6,7,7,8,8,9,9,10,10,12,12,13,13,14,14,15,15,16,16,17,17,20,20,21,21,22,22,25,25,26,26,27,27,28,28,29,29,30,30,31,31,32,32,33,33,37,37,38,38,39,39,40,40,41,41,42,42,43,43,44,44,47,47,48,48],"right_children":[2,4,6,8,10,12,14,16,18,20,22,-1,24,26,28,30,32,34,-1,-1,36,38,40,-1,-1,42,44,46,48,50,52,54,56,58,-1,-1,-1,60,62,64,66,68,70,72,74,-1,-1,76,78,-1,-1,-1,-1,-1,-1,-1,-1,-1,-1,-1,-1,-1,-1,-1,-1,-1,-1,-1,-1,-1,-1,-1,-1,-1,-1,-1,-1,-1,-1],"split_conditions":[2.1709351E-1,1.6473736E-1,3.9628423E-3,9.307708E-1,8.123918E-2,1.69581E-1,9.853751E-1,1.0957974E-1,9.941645E-1,5.022012E-1,7.6368976E-1,-1.8743098E-1,1.9723636E-1,6.548533E-2,3.0031782E-1,8.026636E-1,1.6524446E-1,9.423821E-1,2.1948656E-1,-4.122621E-1,9.5285773E-1,4.3384802E-1,9.147744E-1,6.255458E-2,4.088383E-1,6.161774E-2,1.0755704E-2,2.722854E-1,1.8953887E-1,4.4944662E-1,6.8860006E-1,2.8987196E-1,4.230388E-1,3.1765264E-1,8.431715E-2,1.9291802E-1,-1.09691426E-1,8.0737615E-1,9.077142E-1,4.8438245E-1,5.8965653E-1,1.431213E-1,5.4760087E-1,8.776267E-1,8.2038504E-1,-1.9787118E-2,-3.2737842E-1,4.5890343E-1,8.403458E-1,-4.1833542E-2,-2.4390332E-1,2.5437024E-1,-2.0090517E-1,-7.6853774E-2,2.9028803E-1,5.963916E-2,-2.460898E-2,-6.338816E-2,-3.6425287E-1,1.17287114E-1,-1.7299904E-1,2.7204332E-1,-2.1267983E-3,-3.1387204E-1,3.434295E-2,3.498981E-1,-1.7534214E-1,-1.2703152E-1,6.646249E-2,3.9878362E-1,1.2593186E-1,-3.288111E-1,6.5369965E-3,-2.184521E-2,2.7745288E-2,-3.19417E-1,1.3323925E-1,3.2852492E-1,1.3728908E-3],"split_indices":[6,6,2,3,0,0,2,7,3,3,0,0,5,7,6,1,7,7,0,0,3,5,0,0,0,7,2,6,7,8,0,3,8,7,0,0,0,1,5,7,7,5,0,6,7,0,0,4,5,0,0,0,0,0,0,0,0,0,0,0,0,0,0,0,0,0,0,0,0,0,0,0,0,0,0,0,0,0,0],"split_type":[0,0,0,0,0,0,0,0,0,0,0,0,0,0,0,0,0,0,0,0,0,0,0,0,0,0,0,0,0,0,0,0,0,0,0,0,0,0,0,0,0,0,0,0,0,0,0,0,0,0,0,0,0,0,0,0,0,0,0,0,0,0,0,0,0,0,0,0,0,0,0,0,0,0,0,0,0,0,0],"sum_hessian":[1.6329628E3,3.682755E2,1.2646873E3,2.757746E2,9.250089E1,5.9574523E0,1.2587299E3,2.5976746E2,1.6007137E1,5.32313E0,8.7177765E1,1.2465538E0,4.7108984E0,1.239938E3,1.8791893E1,2.7493122E1,2.3227435E2,1.4989137E1,1.0180013E0,1.9857757E0,3.3373544E0,6.5004295E1,2.2173473E1,1.2437811E0,3.4671173E0,8.1181725E1,1.1587562E3,2.9158711E0,1.5876021E1,2.360921E1,3.883913E0,1.53152275E1,2.1695912E2,1.3056305E1,1.9328318E0,2.176901E0,1.1604534E0,3.1388306E1,3.3615986E1,1.3655809E1,8.517664E0,7.61354E1,5.0463266E0,6.9926605E0,1.1517635E3,1.4764538E0,1.4394174E0,2.9111462E0,1.2964875E1,1.00181465E1,1.3591063E1,2.6677666E0,1.2161465E0,4.107128E0,1.1208099E1,9.380642E1,1.231527E2,4.5246525E0,8.531652E0,2.4747257E1,6.641049E0,2.6416912E1,7.199074E0,5.9775124E0,7.6782975E0,6.0937204E0,2.4239428E0,1.1893599E1,6.42418E1,2.8942187E0,2.1521082E0,5.5614257E0,1.4312351E0,9.305955E2,2.2116801E2,1.4680425E0,1.4431036E0,1.050698E1,2.4578958E0],"tree_param":{"num_deleted":"0","num_feature":"9","num_nodes":"79","size_leaf_vector":"0"}},{"base_weights":[-4.580766E-4,-5.7761973E-1,1.8444479E-3,-5.487889E-2,-9.099362E-1,4.819826E-1,-1.794462E-3,-6.203264E-1,5.689772E-1,-1.3624997E-1,8.794653E-1,-4.929071E-1,9.082943E-4,-6.905893E-1,6.376741E-1,1.2349864E0,7.87575E-2,-1.0220515E0,2.5603184E-1,7.751147E-2,-1.9301917E-2,-9.8814976E-1,-9.953051E-3,5.5865836E-1,-4.513778E-1,3.9144024E-2,-1.2872928E0,9.443608E-1,-9.380088E-1,1.0993459E-1,-5.1552945E-1,-7.304913E-1,-1.1196985E-2,-2.236966E-1,1.5658277E-1,1.1640291E-1,-9.438586E-1,3.2330435E-2,-1.1662567E0,6.848776E-1,-1.7945869E-2],"categories":[],"categories_nodes":[],"categories_segments":[],"categories_sizes":[],"default_left":[true,true,true,true,false,true,true,false,false,true,true,true,true,true,false,false,true,true,true,true,true,false,false,false,false,false,false,false,false,true,true,true,true,false,false,false,false,false,false,false,false],"id":12,"left_children":[1,3,5,7,-1,9,11,-1,-1,13,15,17,19,21,-1,-1,23,25,27,29,31,-1,-1,-1,-1,-1,-1,-1,-1,33,35,37,39,-1,-1,-1,-1,-1,-1,-1,-1],"loss_changes":[2.1643724E0,1.07427E0,2.8354645E0,1.6155901E0,0E0,3.1195586E0,2.1390586E0,0E0,0E0,2.8612657E0,2.0560246E0,3.7570808E0,2.4837625E0,7.5329185E-1,0E0,0E0,1.1156367E0,1.5615659E0,4.544348E0,6.496355E0,7.309119E0,0E0,0E0,0E0,0E0,0E0,0E0,0E0,0E0,4.9899206E0,4.8566604E0,4.787357E0,5.9134007E0,0E0,0E0,0E0,0E0,0E0,0E0,0E0,0E0],"parents":[2147483647,0,0,1,1,2,2,3,3,5,5,6,6,9,9,10,10,11,11,12,12,13,13,16,16,17,17,18,18,19,19,20,20,29,29,30,30,31,31,32,32],"right_children":[2,4,6,8,-1,10,12,-1,-1,14,16,18,20,22,-1,-1,24,26,28,30,32,-1,-1,-1,-1,-1,-1,-1,-1,34,36,38,40,-1,-1,-1,-1,-1,-1,-1,-1],"split_conditions":[4.285894E-3,5.379145E-1,1.0342306E-2,7.03749E-1,-2.7298087E-1,4.351412E-1,5.8043897E-3,-1.8609792E-1,1.7069316E-1,6.236975E-1,6.230616E-1,4.9574733E-1,2.1234378E-1,7.399161E-1,1.9130224E-1,3.7049595E-1,5.300462E-1,2.2934686E-1,4.7197277E-3,9.436379E-1,2.2007537E-1,-2.9644495E-1,-2.9859154E-3,1.6759752E-1,-1.3541335E-1,1.1743207E-2,-3.8618788E-1,2.8330824E-1,-2.8140265E-1,1.2378454E-1,5.0279707E-1,3.310166E-1,2.2655505E-1,-6.710898E-2,4.6974834E-2,3.4920875E-2,-2.831576E-1,9.69913E-3,-3.49877E-1,2.0546328E-1,-5.3837607E-3],"split_indices":[8,4,8,1,0,5,7,0,0,0,7,0,7,6,0,0,3,5,7,5,7,0,0,0,0,0,0,0,0,5,8,2,7,0,0,0,0,0,0,0,0],"split_type":[0,0,0,0,0,0,0,0,0,0,0,0,0,0,0,0,0,0,0,0,0,0,0,0,0,0,0,0,0,0,0,0,0,0,0,0,0,0,0,0,0],"sum_hessian":[1.6268577E3,5.471542E0,1.6213861E3,2.5793345E0,2.8922074E0,1.1207093E1,1.6101791E3,1.3559728E0,1.2233618E0,4.6428943E0,6.564199E0,7.8201632E0,1.6023589E3,2.7679617E0,1.8749324E0,4.170218E0,2.3939807E0,4.368817E0,3.4513464E0,3.3390744E2,1.2684514E3,1.6115998E0,1.1563619E0,1.2282834E0,1.1656973E0,1.0440662E0,3.324751E0,2.3219285E0,1.1294179E0,3.1737057E2,1.6536867E1,1.3288478E1,1.255163E3,3.8465702E1,2.7890488E2,6.9748354E0,9.562033E0,5.167829E0,8.120649E0,1.1087877E1,1.2440751E3],"tree_param":{"num_deleted":"0","num_feature":"9","num_nodes":"41","size_leaf_vector":"0"}},{"base_weights":[-8.9223916E-4,-7.7590095E-3,1.6306473E-1,-9.517305E-4,-3.006413E-1,3.7363803E-1,-6.306732E-1,-4.083956E-3,9.3138224E-1,-1.0079103E0,-9.9359624E-2,1.4219044E-1,6.5621996E-1,5.7505953E-1,-1.0350784E0,-6.0017924E-3,9.242594E-1,1.1393912E0,1.4525662E-1,-1.448961E0,-3.300899E-1,-4.8806116E-1,2.3951134E-1,-3.5291308E-1,4.4533876E-1,-2.9415515E-1,8.260603E-1,1.0062535E0,-2.5916597E-1,-1.1297468E0,-2.9935265E-1,-1.0122571E-3,-4.6257576E-1,8.0264616E-1,-1.1725702E0,5.9506707E-2,-1.4837277E0,8.020451E-1,-4.208203E-1,1.3597442E-1,-8.605923E-1,-1.8189676E-1,7.834884E-1,-9.857582E-1,3.836825E-1,-1.7095429E-1,9.6872103E-1,-2.8219888E-1,-1.2451632E0,-6.4244415E-3,4.8812446E-1,-6.1019635E-1,8.1797063E-1,-6.711511E-1,3.8343003E-1,1.0014913E0,-2.5380012E-1,-8.512828E-1,1.8975869E-1,-3.4003568E-1,7.42206E-1,-1.7635438E-1,-1.1249568E0,6.923276E-1,-6.044251E-1,-5.1268786E-2,1.0787648E0,-5.509229E-1,2.760094E-1,1.2546463E0,4.0675548E-1,-3.9277148E-1,-1.3266231E0],"categories":[],"categories_nodes":[],"categories_segments":[],"categories_sizes":[],"default_left":[true,true,true,true,true,true,true,true,true,true,true,true,true,true,true,true,false,false,false,false,true,true,true,true,true,true,true,false,false,true,false,true,true,false,false,true,false,true,true,true,true,true,true,false,false,true,true,false,true,false,false,false,false,false,false,false,false,false,false,false,false,false,false,false,false,false,false,false,false,false,false,false,false],"id":13,"left_children":[1,3,5,7,9,11,13,15,17,19,21,23,25,27,29,31,-1,-1,-1,-1,33,35,37,39,41,43,45,-1,-1,47,-1,49,51,-1,-1,53,-1,55,57,59,61,63,65,-1,-1,67,69,-1,71,-1,-1,-1,-1,-1,-1,-1,-1,-1,-1,-1,-1,-1,-1,-1,-1,-1,-1,-1,-1,-1,-1,-1,-1],"loss_changes":[1.8309529E0,3.1114917E0,1.1162145E1,4.4611206E0,4.9463954E0,3.3269053E0,7.4601283E0,2.7157176E0,6.7090464E-1,1.8368306E0,3.8979082E0,4.6636033E0,3.9989805E0,1.7639959E0,4.2098522E-1,3.4623957E0,0E0,0E0,0E0,0E0,5.090184E0,7.556757E0,6.283194E0,3.0855472E0,4.1861095E0,2.3778174E0,3.0108948E0,0E0,0E0,5.5803585E-1,0E0,3.986372E0,3.6049473E0,0E0,0E0,2.5766788E0,0E0,2.1467667E0,2.2691755E0,2.2598252E0,8.8763237E-1,3.184939E0,3.1548915E0,0E0,0E0,7.216859E-1,2.3256912E0,0E0,2.6750565E-2,0E0,0E0,0E0,0E0,0E0,0E0,0E0,0E0,0E0,0E0,0E0,0E0,0E0,0E0,0E0,0E0,0E0,0E0,0E0,0E0,0E0,0E0,0E0,0E0],"parents":[2147483647,0,0,1,1,2,2,3,3,4,4,5,5,6,6,7,7,8,8,9,9,10,10,11,11,12,12,13,13,14,14,15,15,20,20,21,21,22,22,23,23,24,24,25,25,26,26,29,29,31,31,32,32,35,35,37,37,38,38,39,39,40,40,41,41,42,42,45,45,46,46,48,48],"right_children":[2,4,6,8,10,12,14,16,18,20,22,24,26,28,30,32,-1,-1,-1,-1,34,36,38,40,42,44,46,-1,-1,48,-1,50,52,-1,-1,54,-1,56,58,60,62,64,66,-1,-1,68,70,-1,72,-1,-1,-1,-1,-1,-1,-1,-1,-1,-1,-1,-1,-1,-1,-1,-1,-1,-1,-1,-1,-1,-1,-1,-1],"split_conditions":[9.58962E-1,9.371739E-1,7.505728E-1,9.349532E-1,1.5179157E-1,5.602636E-1,2.2447756E-1,9.97455E-1,7.2155184E-1,5.8725727E-1,4.2007342E-1,3.4312612E-1,1.5923291E-1,6.642264E-1,8.687972E-1,9.8701525E-1,2.7727783E-1,3.4181738E-1,4.357699E-2,-4.3468833E-1,7.214372E-1,2.9835713E-1,5.39561E-1,1.7290199E-1,2.4277729E-1,3.4839022E-1,1.8699804E-1,3.0187607E-1,-7.7749796E-2,2.027106E-1,-8.98058E-2,9.743124E-1,9.3507975E-1,2.4079385E-1,-3.517711E-1,2.102223E-1,-4.4511834E-1,9.558704E-1,8.172699E-1,8.73061E-2,3.1212237E-1,1.9905478E-1,3.3171523E-1,-2.9572746E-1,1.1510475E-1,5.439682E-1,8.00415E-1,-8.4659666E-2,1.3195814E-1,-1.9273325E-3,1.4643735E-1,-1.8305892E-1,2.453912E-1,-2.0134534E-1,1.15029015E-1,3.004474E-1,-7.614004E-2,-2.5538483E-1,5.692761E-2,-1.02010705E-1,2.2266181E-1,-5.2906316E-2,-3.3748707E-1,2.076983E-1,-1.8132752E-1,-1.5380637E-2,3.2362944E-1,-1.6527687E-1,8.2802825E-2,3.763939E-1,1.22026645E-1,-1.17831446E-1,-3.9798695E-1],"split_indices":[5,5,8,5,4,0,0,8,6,8,1,6,3,6,4,8,0,0,0,0,8,1,8,6,8,2,7,0,0,4,0,8,6,0,0,8,0,5,8,6,8,0,4,0,0,3,0,0,6,0,0,0,0,0,0,0,0,0,0,0,0,0,0,0,0,0,0,0,0,0,0,0,0],"split_type":[0,0,0,0,0,0,0,0,0,0,0,0,0,0,0,0,0,0,0,0,0,0,0,0,0,0,0,0,0,0,0,0,0,0,0,0,0,0,0,0,0,0,0,0,0,0,0,0,0,0,0,0,0,0,0,0,0,0,0,0,0,0,0,0,0,0,0,0,0,0,0,0,0],"sum_hessian":[1.624154E3,1.5597808E3,6.437334E1,1.5253317E3,3.4449074E1,5.1294518E1,1.307882E1,1.5212167E3,4.1149893E0,6.7440815E0,2.7704994E1,2.902494E1,2.2269577E1,3.1789126E0,9.899907E0,1.519072E3,2.1446693E0,2.8986347E0,1.2163545E0,3.3964007E0,3.3476806E0,1.2698704E1,1.50062895E1,1.0960322E1,1.806462E1,3.265406E0,1.9004171E1,1.9597472E0,1.2191656E0,8.296778E0,1.60313E0,1.5036421E3,1.5429896E1,1.4480383E0,1.8996422E0,8.799593E0,3.8991108E0,7.9873176E0,7.018972E0,5.956483E0,5.0038395E0,6.4894276E0,1.15751915E1,1.3914399E0,1.873966E0,2.3540523E0,1.665012E1,1.4073205E0,6.8894567E0,1.4881628E3,1.5479311E1,1.4304383E1,1.1255125E0,2.3736112E0,6.4259815E0,6.7615576E0,1.2257602E0,3.8854675E0,3.1335044E0,3.5825677E0,2.3739154E0,1.8591102E0,3.1447291E0,1.9064295E0,4.582998E0,3.2405128E0,8.334679E0,1.1466681E0,1.2073842E0,1.02184305E1,6.4316893E0,1.1087911E0,5.780666E0],"tree_param":{"num_deleted":"0","num_feature":"9","num_nodes":"73","size_leaf_vector":"0"}},{"base_weights":[-9.7385055E-4,-2.729351E-3,6.1933476E-1,1.8184232E-4,-6.581142E-1,1.0177356E0,4.922809E-2,-3.0998136E-3,5.786307E-1,-9.9151415E-1,6.1891306E-2,2.710782E-3,-2.885583E-1,-1.2474499E-1,1.0157199E0,-2.4187237E-1,-1.1674665E0,-1.7924758E-3,9.984604E-1,-1.1035342E0,-7.951947E-2,4.365577E-1,-8.933978E-1,1.2145587E0,1.157509E-1,3.1034618E-3,-4.7383037E-1,1.3575763E0,-4.461327E-1,-1.4522429E0,6.2318128E-2,-1.8928847E-1,7.448734E-1],"categories":[],"categories_nodes":[],"categories_segments":[],"categories_sizes":[],"default_left":[true,true,true,true,true,false,false,true,true,true,false,true,true,true,true,false,false,true,true,true,true,false,false,false,false,false,false,false,false,false,false,false,false],"id":14,"left_children":[1,3,5,7,9,-1,-1,11,13,15,-1,17,19,21,23,-1,-1,25,27,29,31,-1,-1,-1,-1,-1,-1,-1,-1,-1,-1,-1,-1],"loss_changes":[1.7670748E0,3.0864186E0,9.9003196E-1,3.06075E0,1.7786357E0,0E0,0E0,2.6602304E0,2.9231E0,3.7032223E-1,0E0,7.0524073E0,5.3629465E0,2.2783046E0,8.828521E-1,0E0,0E0,3.6212337E0,4.2789655E0,2.7141938E0,2.542784E0,0E0,0E0,0E0,0E0,0E0,0E0,0E0,0E0,0E0,0E0,0E0,0E0],"parents":[2147483647,0,0,1,1,2,2,3,3,4,4,7,7,8,8,9,9,11,11,12,12,13,13,14,14,17,17,18,18,19,19,20,20],"right_children":[2,4,6,8,10,-1,-1,12,14,16,-1,18,20,22,24,-1,-1,26,28,30,32,-1,-1,-1,-1,-1,-1,-1,-1,-1,-1,-1,-1],"split_conditions":[9.971165E-1,9.9304163E-1,4.5554638E-1,9.8682725E-1,6.3213027E-1,3.0532068E-1,1.4768428E-2,9.67228E-1,4.2751825E-1,2.3599927E-1,1.8567393E-2,9.6252275E-1,9.704052E-1,2.0394935E-1,6.4879704E-1,-7.256171E-2,-3.5023996E-1,9.541501E-1,8.319725E-1,7.667583E-1,9.432177E-1,1.3096732E-1,-2.6801935E-1,3.6436763E-1,3.472527E-2,9.310386E-4,-1.4214912E-1,4.072729E-1,-1.3383982E-1,-4.3567288E-1,1.8695438E-2,-5.678654E-2,2.2346203E-1],"split_indices":[4,4,8,4,3,0,0,4,1,6,0,4,4,1,0,0,0,4,3,6,8,0,0,0,0,0,0,0,0,0,0,0,0],"split_type":[0,0,0,0,0,0,0,0,0,0,0,0,0,0,0,0,0,0,0,0,0,0,0,0,0,0,0,0,0,0,0,0,0],"sum_hessian":[1.6201774E3,1.616598E3,3.5794425E0,1.6104442E3,6.1538057E0,1.6448352E0,1.9346073E0,1.6023484E3,8.095801E0,3.9483995E0,2.2054064E0,1.5713535E3,3.099488E1,3.3766332E0,4.719168E0,1.20199E0,2.7464094E0,1.5652728E3,6.080715E0,5.45367E0,2.554121E1,2.2012417E0,1.1753913E0,3.5788927E0,1.1402755E0,1.5501877E3,1.5084992E1,4.918297E0,1.1624182E0,4.0089397E0,1.4447305E0,2.3219847E1,2.3213627E0],"tree_param":{"num_deleted":"0","num_feature":"9","num_nodes":"33","size_leaf_vector":"0"}},{"base_weights":[-6.668837E-4,-3.2069778E-1,2.5952284E-3,8.1573874E-2,-8.8377357E-1,5.6095946E-1,1.2334107E-4,8.786639E-1,-3.3323336E-1,-1.1769118E0,-6.572241E-2,-1.8828738E-1,1.3093457E0,7.446408E-2,-1.617209E-2,2.2155045E-1,1.0909446E0,-6.9362396E-1,5.776294E-1,5.73226E-1,-6.5808386E-1,-7.288173E-2,2.1738012E-1,-1.4645742E-1,1.892949E-2,-1.1339214E0,7.53678E-2,-3.233719E-1,1.24765016E-1,7.8573036E-1,5.9201844E-2,-2.0127842E-1,3.5491306E-1,6.7764163E-1,1.0652644E-2,6.825465E-2,-5.7027954E-1,4.6188515E-1,-1.5976073E-1,1.016856E0,2.1964673E-2,2.7276266E-1,-1.1991845E-1,-3.3301124E-1,-3.2238513E-2,-1.6563186E-1,6.624964E-1,-6.2066257E-1,8.6994207E-1,3.4035388E-1,5.036386E-4],"categories":[],"categories_nodes":[],"categories_segments":[],"categories_sizes":[],"default_left":[true,true,true,true,true,true,true,true,true,false,false,true,false,true,true,false,false,true,false,false,false,true,true,true,true,false,false,true,true,true,true,true,true,true,true,false,false,false,false,false,false,false,false,false,false,false,false,false,false,false,false],"id":15,"left_children":[1,3,5,7,9,11,13,15,17,-1,-1,19,-1,21,23,-1,-1,25,-1,-1,-1,27,29,31,33,-1,-1,35,37,39,41,43,45,47,49,-1,-1,-1,-1,-1,-1,-1,-1,-1,-1,-1,-1,-1,-1,-1,-1],"loss_changes":[1.6912855E0,3.7747593E0,2.2136521E0,3.7480724E0,1.576406E0,4.210286E0,1.9368371E0,2.956102E-1,2.89496E0,0E0,0E0,1.9537653E0,0E0,6.069014E0,5.9999914E0,0E0,0E0,2.0826712E0,0E0,0E0,0E0,7.0844774E0,1.3094278E1,7.7245374E0,5.6298695E0,0E0,0E0,6.1336656E0,7.7714043E0,5.5810127E0,4.4481764E0,5.5926714E0,4.5618277E0,3.7392497E0,3.4199944E0,0E0,0E0,0E0,0E0,0E0,0E0,0E0,0E0,0E0,0E0,0E0,0E0,0E0,0E0,0E0,0E0],"parents":[2147483647,0,0,1,1,2,2,3,3,4,4,5,5,6,6,7,7,8,8,11,11,13,13,14,14,17,17,21,21,22,22,23,23,24,24,27,27,28,28,29,29,30,30,31,31,32,32,33,33,34,34],"right_children":[2,4,6,8,10,12,14,16,18,-1,-1,20,-1,22,24,-1,-1,26,-1,-1,-1,28,30,32,34,-1,-1,36,38,40,42,44,46,48,50,-1,-1,-1,-1,-1,-1,-1,-1,-1,-1,-1,-1,-1,-1,-1,-1],"split_conditions":[9.2969965E-3,5.6339353E-3,1.321652E-2,2.3811543E-1,7.855013E-1,6.2205356E-1,1.8416573E-1,1.4238177E-1,4.514492E-3,-3.5307357E-1,-1.9716725E-2,2.8870326E-1,3.9280373E-1,9.3992084E-2,3.5325477E-1,6.646514E-2,3.272834E-1,6.293874E-1,1.7328882E-1,1.719678E-1,-1.9742517E-1,4.412378E-1,1.1472058E-1,9.167867E-1,3.6236155E-1,-3.4017643E-1,2.261034E-2,3.536241E-1,7.1406907E-1,7.7538353E-1,4.6060368E-1,5.588144E-1,4.0432408E-1,1.6825011E-1,3.1585116E-2,2.0476395E-2,-1.7108387E-1,1.3856556E-1,-4.792822E-2,3.050568E-1,6.589402E-3,8.18288E-2,-3.597554E-2,-9.9903375E-2,-9.671554E-3,-4.968956E-2,1.9874893E-1,-1.8619877E-1,2.6098263E-1,1.0210617E-1,1.5109158E-4],"split_indices":[4,4,4,2,2,8,0,2,4,0,0,8,0,0,0,0,0,2,0,0,0,2,0,3,0,0,0,1,2,2,6,1,7,1,6,0,0,0,0,0,0,0,0,0,0,0,0,0,0,0,0],"split_type":[0,0,0,0,0,0,0,0,0,0,0,0,0,0,0,0,0,0,0,0,0,0,0,0,0,0,0,0,0,0,0,0,0,0,0,0,0,0,0,0,0,0,0,0,0,0,0,0,0,0,0],"sum_hessian":[1.6182443E3,1.5346631E1,1.6028976E3,9.450295E0,5.8963356E0,6.0689645E0,1.5968286E3,2.8518872E0,6.598408E0,4.017896E0,1.8784397E0,3.406728E0,2.6622365E0,2.8645123E2,1.3103774E3,1.1953518E0,1.6565354E0,4.8986955E0,1.6997128E0,1.2158103E0,2.1909175E0,1.4128108E2,1.4517014E2,2.7744012E2,1.0329373E3,2.813328E0,2.0853674E0,6.2030197E1,7.9250885E1,3.0742373E1,1.14427765E2,2.5063379E2,2.6806324E1,1.1814437E1,1.02112286E3,2.426555E1,3.776465E1,3.598762E1,4.326326E1,2.3346148E1,7.396225E0,5.195741E1,6.247036E1,1.403157E2,1.1031808E2,1.0127815E1,1.6678509E1,1.2367859E0,1.0577651E1,2.9522345E1,9.916005E2],"tree_param":{"num_deleted":"0","num_feature":"9","num_nodes":"51","size_leaf_vector":"0"}},{"base_weights":[-1.1718183E-5,1.724001E-2,-6.940167E-2,4.732922E-3,2.3992285E-1,-6.5319455E-1,-2.9619949E-2,-2.755895E-1,1.478259E-2,1.2999262E0,1.3935508E-1,-1.1182637E0,-2.1486571E-1,8.787898E-1,-5.4288737E-2,1.3346602E-1,-7.199377E-1,8.618305E-1,8.476077E-3,2.8885898E-1,1.5035474E0,1.0749688E0,2.2413641E-2,-1.242235E0,-1.297583E-1,2.0453943E-1,-1.038572E0,1.0514841E0,-5.0362468E-2,6.419754E-2,-2.2364718E-1,5.050182E-1,-2.6925886E-1,-1.3258754E0,-2.6441234E-1,1.2438813E-1,1.3104562E0,-5.6111906E-2,4.3822832E-2,-1.671976E-1,1.3679516E0,5.241172E-1,-1.1511911E-1,-1.2710555E-1,-1.3969957E0,-5.9567106E-1,5.1264805E-1,-2.4283014E-1,-1.2709272E0,3.6906752E-1,1.3321928E0,-5.1215357E-1,1.2495459E-1,5.06862E-3,-5.523048E-1,1.0829371E0,-1.5052097E-1,-9.9608827E-1,1.380496E-1,6.761979E-1,-5.0949633E-1,-5.4458666E-1,8.672963E-1,1.4595045E0,4.345782E-1,-4.5244563E-3,-2.5443172E-1,6.1950546E-2,-2.9112494E-1,9.091579E-1,1.5957965E-2,1.3353525E-1,-5.3899825E-1,-3.8952538E-1,-1.515237E0,-6.195085E-3,1.1083364E0,7.602134E-1,-2.0812504E-1,5.5272484E-1,-9.238933E-1,1.561331E-1,-8.401852E-1,-2.6709777E-1,2.8283644E-1,-7.3788184E-1,2.0894876E-2],"categories":[],"categories_nodes":[],"categories_segments":[],"categories_sizes":[],"default_left":[true,true,true,true,true,true,true,true,true,true,true,true,true,true,true,true,true,true,true,false,false,true,true,true,false,true,true,true,false,true,true,true,true,false,true,true,true,true,true,false,false,true,true,false,true,false,true,false,false,true,false,true,true,true,true,false,false,false,false,false,false,false,false,false,false,false,false,false,false,false,false,false,false,false,false,false,false,false,false,false,false,false,false,false,false,false,false],"id":16,"left_children":[1,3,5,7,9,11,13,15,17,19,21,23,25,27,29,31,33,35,37,-1,-1,39,41,43,-1,45,47,49,-1,51,53,55,57,-1,59,61,63,65,67,-1,-1,69,71,-1,73,-1,75,-1,-1,77,-1,79,81,83,85,-1,-1,-1,-1,-1,-1,-1,-1,-1,-1,-1,-1,-1,-1,-1,-1,-1,-1,-1,-1,-1,-1,-1,-1,-1,-1,-1,-1,-1,-1,-1,-1],"loss_changes":[1.9352872E0,3.6048927E0,7.4565673E0,3.4604816E0,7.1565957E0,3.9363813E0,6.8245745E0,7.823574E0,6.325025E0,7.6893425E-1,6.9770107E0,1.0279016E0,4.283873E0,1.3451943E0,5.9412203E0,3.5745134E0,5.3173103E0,2.7319746E0,2.6910124E0,0E0,0E0,2.8082695E0,4.0555067E0,1.2902594E0,0E0,2.4367175E0,4.5697784E-1,8.180022E-1,0E0,6.176509E0,9.158585E0,4.822919E0,3.59516E0,0E0,3.3347425E0,2.666376E0,6.2309265E-2,4.2648168E0,4.642837E0,0E0,0E0,2.4581642E0,4.948067E0,0E0,2.8756332E-1,0E0,2.1020153E0,0E0,0E0,9.203717E-1,0E0,7.8952975E0,4.9071407E0,5.5800786E0,5.333007E0,0E0,0E0,0E0,0E0,0E0,0E0,0E0,0E0,0E0,0E0,0E0,0E0,0E0,0E0,0E0,0E0,0E0,0E0,0E0,0E0,0E0,0E0,0E0,0E0,0E0,0E0,0E0,0E0,0E0,0E0,0E0,0E0],"parents":[2147483647,0,0,1,1,2,2,3,3,4,4,5,5,6,6,7,7,8,8,9,9,10,10,11,11,12,12,13,13,14,14,15,15,16,16,17,17,18,18,21,21,22,22,23,23,25,25,26,26,27,27,29,29,30,30,31,31,32,32,34,34,35,35,36,36,37,37,38,38,41,41,42,42,44,44,46,46,49,49,51,51,52,52,53,53,54,54],"right_children":[2,4,6,8,10,12,14,16,18,20,22,24,26,28,30,32,34,36,38,-1,-1,40,42,44,-1,46,48,50,-1,52,54,56,58,-1,60,62,64,66,68,-1,-1,70,72,-1,74,-1,76,-1,-1,78,-1,80,82,84,86,-1,-1,-1,-1,-1,-1,-1,-1,-1,-1,-1,-1,-1,-1,-1,-1,-1,-1,-1,-1,-1,-1,-1,-1,-1,-1,-1,-1,-1,-1,-1,-1],"split_conditions":[8.061377E-1,7.6027995E-1,6.381522E-2,3.409641E-2,7.6245654E-1,4.7376388E-1,8.529559E-2,4.0904033E-1,4.0315237E-2,2.2321866E-1,1.3857757E-1,9.3172E-1,6.766025E-1,8.1434035E-1,5.99034E-1,4.86243E-1,5.424758E-1,3.6604363E-2,3.5325477E-1,8.6657695E-2,4.5106426E-1,2.0748414E-1,2.3839076E-1,8.388961E-3,-3.892749E-2,4.202799E-1,8.867473E-1,3.6332816E-1,-1.5108741E-2,8.212224E-1,5.894713E-1,4.3674922E-1,3.0627966E-1,-3.9776263E-1,2.5700605E-1,4.9764454E-1,8.0666494E-1,2.8090408E-1,9.379809E-1,-5.0159283E-2,4.1038552E-1,4.7350514E-1,6.4618075E-1,-3.8131665E-2,2.4626842E-1,-1.7870133E-1,4.0441656E-1,-7.284904E-2,-3.812782E-1,4.2868567E-1,3.9965785E-1,1.3833955E-1,9.801429E-1,3.011845E-1,7.1104157E-1,3.2488114E-1,-4.5156293E-2,-2.988265E-1,4.1414883E-2,2.0285937E-1,-1.528489E-1,-1.63376E-1,2.601889E-1,4.3785137E-1,1.3037346E-1,-1.357337E-3,-7.632952E-2,1.8585164E-2,-8.733749E-2,2.7274737E-1,4.7873897E-3,4.0060576E-2,-1.6169947E-1,-1.1685762E-1,-4.545711E-1,-1.8585256E-3,3.3250093E-1,2.2806402E-1,-6.2437516E-2,1.6581745E-1,-2.77168E-1,4.683993E-2,-2.520556E-1,-8.012933E-2,8.485094E-2,-2.2136456E-1,6.268463E-3],"split_indices":[1,1,4,3,1,7,4,1,3,4,4,3,3,2,3,5,1,3,0,0,0,2,7,4,0,2,1,7,0,1,2,0,4,0,2,1,2,0,8,0,0,3,0,0,0,0,3,0,0,2,0,3,8,2,5,0,0,0,0,0,0,0,0,0,0,0,0,0,0,0,0,0,0,0,0,0,0,0,0,0,0,0,0,0,0,0,0],"split_type":[0,0,0,0,0,0,0,0,0,0,0,0,0,0,0,0,0,0,0,0,0,0,0,0,0,0,0,0,0,0,0,0,0,0,0,0,0,0,0,0,0,0,0,0,0,0,0,0,0,0,0,0,0,0,0,0,0,0,0,0,0,0,0,0,0,0,0,0,0,0,0,0,0,0,0,0,0,0,0,0,0,0,0,0,0,0,0],"sum_hessian":[1.6146515E3,1.2937507E3,3.2090076E2,1.2259177E3,6.7833E1,1.9488558E1,3.014122E2,4.151407E1,1.1844037E3,4.8445587E0,6.2988445E1,8.70321E0,1.0785348E1,7.0533752E0,2.9435883E2,2.197973E1,1.9534338E1,7.7505116E0,1.1766532E3,1.2175425E0,3.627016E0,6.087977E0,5.6900467E1,7.5052724E0,1.1979375E0,7.6446285E0,3.140719E0,5.836863E0,1.216512E0,1.7355647E2,1.2080236E2,1.1300206E1,1.0679523E1,7.563179E0,1.1971159E1,3.4147217E0,4.33579E0,4.159725E2,7.6068066E2,1.2438256E0,4.8441515E0,1.163747E1,4.5262997E1,1.136624E0,6.3686485E0,1.8657203E0,5.7789083E0,1.1720177E0,1.9687014E0,2.3758433E0,3.46102E0,1.5842496E1,1.5771397E2,7.181219E1,4.899017E1,5.659155E0,5.6410513E0,3.316246E0,7.3632774E0,2.1108522E0,9.860307E0,1.937233E0,1.4774888E0,3.1358318E0,1.1999582E0,3.309165E2,8.505602E1,7.2239874E2,3.828191E1,6.171842E0,5.465628E0,2.8959724E1,1.6303272E1,1.1200063E0,5.2486424E0,3.6175933E0,2.161315E0,1.2271518E0,1.1486914E0,4.322038E0,1.1520458E1,1.5359052E2,4.12346E0,3.629122E1,3.5520966E1,3.6791412E1,1.2198757E1],"tree_param":{"num_deleted":"0","num_feature":"9","num_nodes":"87","size_leaf_vector":"0"}},{"base_weights":[2.1678125E-5,1.3485754E-2,-7.1416885E-2,5.944966E-3,3.1296656E-1,5.122396E-2,-2.61487E-1,1.2178066E-2,-4.8125896E-1,-2.0796949E-1,6.319758E-1,-4.0851358E-1,1.1275645E-1,-3.2461207E-2,-4.6651885E-1,9.796844E-3,9.489544E-1,-6.8009233E-1,5.1903284E-1,9.040073E-1,-5.345753E-1,9.0908116E-1,1.5779048E-2,-6.491927E-1,5.7514364E-1,6.727556E-1,6.1533775E-2,3.0228454E-1,-3.384407E-1,-5.956143E-1,2.3224026E-1,-4.9071755E-2,4.2141438E-2,-6.830078E-2,-1.0732042E0,1.013539E0,-2.1119086E-1,2.444987E-1,1.1506972E0,-8.014099E-1,1.6495849E-1,1.2676035E-1,1.239725E0,6.238285E-1,-4.3184665E-1,-8.5108685E-1,8.195671E-1,-2.4499147E-1,9.966645E-1,9.6020085E-1,-2.891944E-1,4.2054334E-1,-1.86533E-2,-2.0556535E-1,7.6261085E-1,-8.217952E-1,-2.07182E-2,6.992601E-1,-6.485025E-1,6.2458587E-1,-5.0831205E-1,6.165516E-1,-6.6649884E-2,4.754176E-2,-8.4814405E-1,5.3540254E-1,-9.2424524E-1,-1.2998817E0,4.5287672E-2,-1.0621954E0,4.2320737E-1,-3.132935E-1,6.5507376E-1,7.524433E-1,-6.4932406E-1,1.4865563E0,5.32968E-1,9.402199E-1,-3.3870317E-2,-1.0308608E0,4.380232E-1,-2.0221911E-2,-1.1501635E0,3.853312E-2,1.1544061E0,2.0028032E-1,-6.551527E-1,-7.803854E-1,7.18894E-1,-1.27261E-1,4.3455902E-1,3.7621227E-1,-8.20256E-1,3.4499664E-3,1.013215E0,-1.6804521E-1,-1.4391532E0,5.69153E-1,-5.043397E-1,-4.7367385E-1,-1.111943E0,-2.7988413E-1,1.0874026E0,2.6321384E-1,-1.0027989E0],"categories":[],"categories_nodes":[],"categories_segments":[],"categories_sizes":[],"default_left":[true,true,true,true,true,true,true,true,true,true,true,true,true,true,true,true,false,true,true,true,true,true,true,true,true,true,true,true,true,true,true,true,true,true,true,false,false,false,false,true,true,true,true,true,true,true,false,false,false,true,true,true,true,true,true,true,true,false,true,true,true,false,false,false,false,false,false,false,false,false,false,false,false,false,false,false,false,false,false,false,false,false,false,false,false,false,false,false,false,false,false,false,false,false,false,false,false,false,false,false,false,false,false,false,false],"id":17,"left_children":[1,3,5,7,9,11,13,15,17,19,21,23,25,27,29,31,-1,33,35,37,39,41,43,45,47,49,51,53,55,57,59,61,63,65,67,-1,-1,-1,-1,69,71,73,75,77,79,81,-1,-1,-1,83,85,87,89,91,93,95,97,-1,99,101,103,-1,-1,-1,-1,-1,-1,-1,-1,-1,-1,-1,-1,-1,-1,-1,-1,-1,-1,-1,-1,-1,-1,-1,-1,-1,-1,-1,-1,-1,-1,-1,-1,-1,-1,-1,-1,-1,-1,-1,-1,-1,-1,-1,-1],"loss_changes":[1.5501292E0,3.0604935E0,5.97088E0,4.025798E0,5.6630564E0,4.464114E0,4.6991973E0,2.90842E0,3.683673E0,5.3478284E0,3.5529623E0,4.7891483E0,3.9321384E0,5.069709E0,4.9100704E0,2.4882126E0,0E0,3.3904872E0,1.4215477E0,2.7386284E-1,2.1820722E0,3.5659962E0,2.310295E0,5.2804914E0,1.695034E0,3.4597993E0,3.6931758E0,5.6945677E0,3.9465868E0,3.530408E0,2.9232635E0,5.4638395E0,4.0944076E0,3.958039E0,2.2647018E0,0E0,0E0,0E0,0E0,3.042829E0,1.1103897E0,3.1058476E0,9.528189E-1,7.7858174E-1,3.009891E0,3.47501E0,0E0,0E0,0E0,1.582922E0,7.4314904E-1,8.95067E0,5.253243E0,4.618013E0,2.4008536E0,3.8791442E0,5.0222435E0,0E0,3.0128021E0,2.9462042E0,1.6592231E0,0E0,0E0,0E0,0E0,0E0,0E0,0E0,0E0,0E0,0E0,0E0,0E0,0E0,0E0,0E0,0E0,0E0,0E0,0E0,0E0,0E0,0E0,0E0,0E0,0E0,0E0,0E0,0E0,0E0,0E0,0E0,0E0,0E0,0E0,0E0,0E0,0E0,0E0,0E0,0E0,0E0,0E0,0E0,0E0],"parents":[2147483647,0,0,1,1,2,2,3,3,4,4,5,5,6,6,7,7,8,8,9,9,10,10,11,11,12,12,13,13,14,14,15,15,17,17,18,18,19,19,20,20,21,21,22,22,23,23,24,24,25,25,26,26,27,27,28,28,29,29,30,30,31,31,32,32,33,33,34,34,39,39,40,40,41,41,42,42,43,43,44,44,45,45,49,49,50,50,51,51,52,52,53,53,54,54,55,55,56,56,58,58,59,59,60,60],"right_children":[2,4,6,8,10,12,14,16,18,20,22,24,26,28,30,32,-1,34,36,38,40,42,44,46,48,50,52,54,56,58,60,62,64,66,68,-1,-1,-1,-1,70,72,74,76,78,80,82,-1,-1,-1,84,86,88,90,92,94,96,98,-1,100,102,104,-1,-1,-1,-1,-1,-1,-1,-1,-1,-1,-1,-1,-1,-1,-1,-1,-1,-1,-1,-1,-1,-1,-1,-1,-1,-1,-1,-1,-1,-1,-1,-1,-1,-1,-1,-1,-1,-1,-1,-1,-1,-1,-1,-1],"split_conditions":[8.4488475E-1,8.2712436E-1,6.2149996E-1,8.1623507E-1,3.919623E-1,1.340525E-1,4.793135E-1,9.9728274E-1,8.237101E-1,8.315578E-1,6.5231955E-1,8.5169744E-1,2.0368488E-1,4.4875407E-1,9.424235E-1,3.4293014E-1,2.8468633E-1,3.3493656E-1,6.925546E-1,6.30266E-1,8.403834E-1,2.6040912E-1,8.3570826E-1,8.515165E-1,2.9845428E-1,6.3084275E-1,1.7339739E-1,2.831524E-1,7.1932346E-1,5.0621334E-2,9.6980953E-1,3.646452E-2,9.938639E-1,6.882467E-1,8.2483673E-1,3.040617E-1,-6.3357264E-2,7.334961E-2,3.4520918E-1,9.317069E-1,6.5056276E-1,1.1325767E-1,8.3833885E-1,8.136822E-1,8.4001625E-1,5.1618457E-2,2.4587013E-1,-7.3497444E-2,2.9899937E-1,1.564954E-1,6.0343397E-1,3.7093186E-1,9.7139037E-1,3.9365244E-1,1.5459807E-1,5.937894E-1,9.040878E-1,2.0977804E-1,8.432915E-1,3.4437025E-1,5.1902103E-1,1.8496548E-1,-1.9994967E-2,1.4262528E-2,-2.5444323E-1,1.6062076E-1,-2.772736E-1,-3.8996452E-1,1.3586302E-2,-3.1865865E-1,1.2696221E-1,-9.398805E-2,1.9652213E-1,2.25733E-1,-1.9479723E-1,4.459669E-1,1.598904E-1,2.82066E-1,-1.0161095E-2,-3.0925825E-1,1.3140696E-1,-6.066574E-3,-3.4504908E-1,1.1559937E-2,3.4632182E-1,6.00841E-2,-1.9654581E-1,-2.3411562E-1,2.1566822E-1,-3.8178302E-2,1.3036771E-1,1.1286368E-1,-2.460768E-1,1.03499E-3,3.039645E-1,-5.0413564E-2,-4.3174598E-1,1.7074591E-1,-1.5130192E-1,-1.4210217E-1,-3.335829E-1,-8.396524E-2,3.2622078E-1,7.896416E-2,-3.008397E-1],"split_indices":[1,1,3,1,4,2,2,8,8,1,2,4,2,7,2,3,0,4,6,2,1,8,1,7,5,7,8,2,7,7,2,0,6,7,1,0,0,0,0,0,3,8,1,4,1,2,0,0,0,3,8,2,1,6,7,7,1,0,2,4,7,0,0,0,0,0,0,0,0,0,0,0,0,0,0,0,0,0,0,0,0,0,0,0,0,0,0,0,0,0,0,0,0,0,0,0,0,0,0,0,0,0,0,0,0],"split_type":[0,0,0,0,0,0,0,0,0,0,0,0,0,0,0,0,0,0,0,0,0,0,0,0,0,0,0,0,0,0,0,0,0,0,0,0,0,0,0,0,0,0,0,0,0,0,0,0,0,0,0,0,0,0,0,0,0,0,0,0,0,0,0,0,0,0,0,0,0,0,0,0,0,0,0,0,0,0,0,0,0,0,0,0,0,0,0,0,0,0,0,0,0,0,0,0,0,0,0,0,0,0,0,0,0],"sum_hessian":[1.6096036E3,1.3550312E3,2.5457245E2,1.322745E3,3.228626E1,1.5517673E2,9.939573E1,1.3069988E3,1.5746237E1,1.2394444E1,1.9891813E1,1.7651945E1,1.3752478E2,4.74978E1,5.1897926E1,1.3046927E3,2.3059826E0,1.3402296E1,2.3439407E0,2.41258E0,9.981864E0,1.3393438E1,6.4983745E0,1.4455119E1,3.196826E0,1.0508222E1,1.27016556E2,2.2688427E1,2.4809372E1,4.392957E1,7.9683595E0,4.6246634E2,8.4222644E2,5.7020535E0,7.7002425E0,1.1662046E0,1.177736E0,1.1987966E0,1.2137833E0,7.1202397E0,2.8616245E0,4.389952E0,9.003486E0,2.5885205E0,3.909854E0,1.3077974E1,1.3771441E0,1.2274401E0,1.969386E0,8.092022E0,2.4162002E0,2.2415312E1,1.0460124E2,1.1050509E1,1.1637917E1,9.2106285E0,1.5598744E1,1.2442713E0,4.26853E1,5.3111167E0,2.6572425E0,1.1022104E1,4.514442E2,8.380893E2,4.1371064E0,3.5633137E0,2.1387396E0,6.267812E0,1.4324309E0,5.9795165E0,1.1407235E0,1.6309388E0,1.2306857E0,2.4473495E0,1.9426028E0,5.8552284E0,3.1482575E0,1.4577148E0,1.1308056E0,2.205806E0,1.7040479E0,3.7441006E0,9.333875E0,1.6168969E0,6.475125E0,1.2273391E0,1.1888611E0,4.139047E0,1.8276264E1,8.4960526E1,1.9640717E1,5.876565E0,5.173945E0,3.1399024E0,8.4980135E0,5.091352E0,4.119277E0,6.9477477E0,8.650996E0,3.2461555E1,1.0223741E1,1.931567E0,3.3795497E0,1.2205601E0,1.4366825E0],"tree_param":{"num_deleted":"0","num_feature":"9","num_nodes":"105","size_leaf_vector":"0"}},{"base_weights":[4.17847E-4,6.896582E-3,-1.5542282E-1,3.8266915E-3,8.573363E-1,-9.3510646E-1,-5.176679E-2,5.770355E-3,-6.85171E-1,1.2822701E0,1.4114258E-1,2.6091453E-1,-1.1920909E0,5.5483854E-1,-1.4758523E-1,-5.2291084E-2,2.6979726E-2,1.7748904E-1,-1.1525775E0,-4.0719756E-1,1.2327291E0,8.341235E-1,-2.2839466E-1,2.39506E-3,-5.9098405E-1,3.8930085E-1,1.8304951E-2,-1.1299264E0,5.629749E-1,8.005036E-2,1.1999744E0,-4.4174793E-1,1.1610689E-1,-1.2817809E-2,6.484169E-1,1.126566E-1,-7.485699E-1,7.341001E-1,-2.5718537E-1,-8.956405E-1,2.253445E-2,-6.711607E-1,1.2784678E-1,6.1274034E-1,-6.57307E-1],"categories":[],"categories_nodes":[],"categories_segments":[],"categories_sizes":[],"default_left":[true,true,true,true,true,true,true,true,true,false,false,false,false,true,true,true,true,false,false,true,false,true,true,true,true,true,true,false,false,false,false,true,true,false,false,false,false,false,false,false,false,false,false,false,false],"id":18,"left_children":[1,3,5,7,9,11,13,15,17,-1,-1,-1,-1,19,21,23,25,-1,-1,27,-1,29,31,33,35,37,39,-1,-1,-1,-1,41,43,-1,-1,-1,-1,-1,-1,-1,-1,-1,-1,-1,-1],"loss_changes":[1.620903E0,4.0206027E0,5.130278E0,2.0619135E0,1.5047698E0,2.6041217E0,3.4308162E0,1.8897115E0,1.9509976E0,0E0,0E0,0E0,0E0,5.7646685E0,4.200494E0,1.2097611E1,3.5250058E0,0E0,0E0,3.5021205E0,0E0,1.0238183E0,3.541683E0,3.6816108E0,4.280855E0,6.035132E0,4.266709E0,0E0,0E0,0E0,0E0,3.945107E0,7.6829724E0,0E0,0E0,0E0,0E0,0E0,0E0,0E0,0E0,0E0,0E0,0E0,0E0],"parents":[2147483647,0,0,1,1,2,2,3,3,4,4,5,5,6,6,7,7,8,8,13,13,14,14,15,15,16,16,19,19,21,21,22,22,23,23,24,24,25,25,26,26,31,31,32,32],"right_children":[2,4,6,8,10,12,14,16,18,-1,-1,-1,-1,20,22,24,26,-1,-1,28,-1,30,32,34,36,38,40,-1,-1,-1,-1,42,44,-1,-1,-1,-1,-1,-1,-1,-1,-1,-1,-1,-1],"split_conditions":[9.598919E-1,9.5694304E-1,9.649559E-1,9.5413643E-1,4.190229E-1,2.0631558E-1,1.3635796E-1,2.799183E-1,4.7982764E-1,3.8468105E-1,4.2342775E-2,7.827436E-2,-3.5762727E-1,9.833881E-1,7.091658E-2,2.5848266E-1,2.9404503E-1,5.3246714E-2,-3.4577328E-1,4.486855E-1,3.6981875E-1,4.499206E-1,6.8372226E-1,9.786451E-1,1.9284332E-1,6.3459796E-1,2.9646337E-1,-3.3897793E-1,1.6889247E-1,2.4015108E-2,3.5999233E-1,6.550212E-1,6.1129856E-1,-3.845343E-3,1.9452508E-1,3.379698E-2,-2.2457097E-1,2.2023004E-1,-7.715561E-2,-2.6869217E-1,6.7603355E-3,-2.0134822E-1,3.8354035E-2,1.8382211E-1,-1.9719212E-1],"split_indices":[1,1,1,1,3,3,0,8,7,0,0,0,0,1,6,8,8,0,0,5,0,7,2,0,0,2,8,0,0,0,0,6,3,0,0,0,0,0,0,0,0,0,0,0,0],"split_type":[0,0,0,0,0,0,0,0,0,0,0,0,0,0,0,0,0,0,0,0,0,0,0,0,0,0,0,0,0,0,0,0,0,0,0,0,0,0,0,0,0,0,0,0,0],"sum_hessian":[1.6033484E3,1.5402708E3,6.307764E1,1.5357317E3,4.5391364E0,6.4606266E0,5.6617016E1,1.5324004E3,3.3312786E0,2.3527822E0,2.1863542E0,1.1399477E0,5.320679E0,7.069712E0,4.9547302E1,4.0961063E2,1.1227898E3,1.3886365E0,1.9426421E0,3.0874453E0,3.982267E0,3.0593128E0,4.648799E1,3.727645E2,3.6846134E1,2.5227558E1,1.0975621E3,1.6749945E0,1.4124508E0,1.3975536E0,1.6617593E0,2.8534195E1,1.7953794E1,3.65146E2,7.618495E0,6.794216E0,3.005192E1,1.6364262E1,8.8632965E0,4.084981E0,1.0934772E3,2.021428E1,8.319916E0,1.1059735E1,6.894059E0],"tree_param":{"num_deleted":"0","num_feature":"9","num_nodes":"45","size_leaf_vector":"0"}},{"base_weights":[3.2894997E-4,-3.0298403E-1,3.4721945E-3,2.4562217E-2,-9.9009156E-1,1.0241432E0,-4.8014193E-4,5.6496185E-1,-6.716817E-1,9.502528E-2,-1.2869116E0,1.2787355E0,-3.2727942E-2,-1.1227485E0,2.0753262E-3,9.148186E-1,-1.6450346E-1,-1.2342031E0,2.8611648E-1,1.0577332E0,5.8153376E-4,1.11531E0,1.3740617E-1,-6.5050757E-1,3.875597E-1,-5.2781606E-1,2.5670493E-3,-9.666366E-1,6.4246494E-1,5.3454953E-1,-7.148684E-4],"categories":[],"categories_nodes":[],"categories_segments":[],"categories_sizes":[],"default_left":[true,true,true,true,true,true,true,true,true,false,false,false,false,false,true,true,true,false,false,false,true,false,false,false,false,true,true,false,false,false,false],"id":19,"left_children":[1,3,5,7,9,11,13,15,17,-1,-1,-1,-1,-1,19,21,23,-1,-1,-1,25,-1,-1,-1,-1,27,29,-1,-1,-1,-1],"loss_changes":[1.527638E0,3.7231002E0,6.397622E0,4.9340186E0,1.8388648E0,1.6878729E0,4.5355725E0,2.0284297E0,3.4493153E0,0E0,0E0,0E0,0E0,0E0,2.4879105E0,6.45658E-1,1.1194844E0,0E0,0E0,0E0,1.6556934E0,0E0,0E0,0E0,0E0,3.6549697E0,2.7448711E0,0E0,0E0,0E0,0E0],"parents":[2147483647,0,0,1,1,2,2,3,3,4,4,5,5,6,6,7,7,8,8,14,14,15,15,16,16,20,20,25,25,26,26],"right_children":[2,4,6,8,10,12,14,16,18,-1,-1,-1,-1,-1,20,22,24,-1,-1,-1,26,-1,-1,-1,-1,28,30,-1,-1,-1,-1],"split_conditions":[1.1268234E-2,6.8586385E-1,1.36250425E-2,5.376624E-1,2.2544676E-1,8.571373E-1,1.5156932E-2,6.286545E-1,2.5344405E-1,2.8507585E-2,-3.860735E-1,3.8362068E-1,-9.818383E-3,-3.3682457E-1,1.5589826E-2,7.1451145E-1,3.6154366E-1,-3.7026095E-1,8.583495E-2,3.1731996E-1,2.7469876E-3,3.34593E-1,4.1221853E-2,-1.9515228E-1,1.1626792E-1,8.4062505E-1,6.9623846E-3,-2.89991E-1,1.9273949E-1,1.6036487E-1,-2.1446054E-4],"split_indices":[7,3,7,5,2,3,7,6,3,0,0,0,0,0,7,0,8,0,0,0,5,0,0,0,0,4,5,0,0,0,0],"split_type":[0,0,0,0,0,0,0,0,0,0,0,0,0,0,0,0,0,0,0,0,0,0,0,0,0,0,0,0,0,0,0],"sum_hessian":[1.600224E3,1.5434684E1,1.5847893E3,1.1105101E1,4.3295827E0,5.117421E0,1.5796719E3,6.3584538E0,4.746647E0,1.0759549E0,3.2536275E0,3.9548113E0,1.1626099E0,2.5929465E0,1.577079E3,4.1256623E0,2.2327914E0,2.8085709E0,1.9380761E0,1.2293309E0,1.5758496E3,2.9342802E0,1.1913824E0,1.0926051E0,1.1401863E0,4.907855E0,1.5709418E3,3.6959841E0,1.2118708E0,8.639532E0,1.5623022E3],"tree_param":{"num_deleted":"0","num_feature":"9","num_nodes":"31","size_leaf_vector":"0"}},{"base_weights":[2.3727134E-4,-1.708294E-3,4.7694698E-1,1.4126003E-3,-7.2360563E-1,9.1224754E-1,1.2173385E-1,-4.5061836E-4,5.22987E-1,-9.114061E-1,4.0318273E-2,5.51879E-1,-2.637608E-1,2.0558876E-3,-7.6715714E-1,1.0670583E0,-8.4505655E-2,-2.2846985E-1,-1.0126556E0,3.17903E-1,-7.4133587E-1,-3.5331475E-3,1.7128552E-1,-1.1813264E0,3.8293695E-1,-4.634624E-1,2.975808E-1,5.5446714E-4,-3.7213802E-1,3.5550678E-1,-5.0253356E-1],"categories":[],"categories_nodes":[],"categories_segments":[],"categories_sizes":[],"default_left":[true,true,true,true,true,false,true,true,true,true,false,false,true,true,true,false,true,false,false,false,false,true,true,false,false,false,false,false,false,false,false],"id":20,"left_children":[1,3,5,7,9,-1,11,13,15,17,-1,-1,19,21,23,-1,25,-1,-1,-1,-1,27,29,-1,-1,-1,-1,-1,-1,-1,-1],"loss_changes":[1.4837955E0,3.5910099E0,8.944328E-1,1.543066E0,1.0210719E0,0E0,9.306767E-1,3.0435936E0,1.9582719E0,1.5237427E-1,0E0,0E0,1.1172618E0,1.4938596E0,2.9106004E0,0E0,6.587399E-1,0E0,0E0,0E0,0E0,2.3043978E0,6.4466186E0,0E0,0E0,0E0,0E0,0E0,0E0,0E0,0E0],"parents":[2147483647,0,0,1,1,2,2,3,3,4,4,6,6,7,7,8,8,9,9,12,12,13,13,14,14,16,16,21,21,22,22],"right_children":[2,4,6,8,10,-1,12,14,16,18,-1,-1,20,22,24,-1,26,-1,-1,-1,-1,28,30,-1,-1,-1,-1,-1,-1,-1,-1],"split_conditions":[9.9591905E-1,9.915618E-1,1.5460657E-1,9.892199E-1,7.769048E-1,2.7367428E-1,2.651954E-1,9.864399E-1,9.902168E-1,4.229627E-1,1.2095482E-2,1.655637E-1,3.6187863E-1,9.555239E-1,7.7347857E-1,3.201175E-1,3.57767E-1,-6.854096E-2,-3.037967E-1,9.537091E-2,-2.2240077E-1,9.456245E-1,8.1572866E-1,-3.5439792E-1,1.1488109E-1,-1.3903873E-1,8.927424E-2,1.6634015E-4,-1.11641414E-1,1.0665204E-1,-1.5076007E-1],"split_indices":[3,3,2,3,1,0,0,3,3,5,0,0,4,3,6,0,5,0,0,0,0,3,1,0,0,0,0,0,0,0,0],"split_type":[0,0,0,0,0,0,0,0,0,0,0,0,0,0,0,0,0,0,0,0,0,0,0,0,0,0,0,0,0,0,0],"sum_hessian":[1.5979529E3,1.5924502E3,5.50275E0,1.5865891E3,5.861072E0,1.7679831E0,3.734767E0,1.581937E3,4.652013E0,4.5495634E0,1.3115083E0,1.5611652E0,2.1736019E0,1.5777764E3,4.1607256E0,2.0550296E0,2.5969832E0,1.0078739E0,3.5416899E0,1.1307459E0,1.0428559E0,1.5282819E3,4.9494434E1,3.0391262E0,1.1215993E0,1.1969047E0,1.4000785E0,1.5125076E3,1.5774338E1,3.9238956E1,1.0255479E1],"tree_param":{"num_deleted":"0","num_feature":"9","num_nodes":"31","size_leaf_vector":"0"}},{"base_weights":[-1.1299807E-5,-9.325268E-3,9.5733106E-2,-6.093569E-1,-6.864065E-3,-5.362352E-2,2.576946E-1,3.3475325E-1,-9.649798E-1,6.8103236E-1,-9.82923E-3,-3.947688E-1,1.9915184E-1,3.2961044E-1,-5.895949E-1,-6.7852855E-2,8.8506794E-1,7.979974E-3,-8.4544316E-2,-5.607118E-1,4.31426E-1,3.6473408E-1,-5.5257654E-1,6.739608E-3,5.4821765E-1,-1.0648941E0,6.906297E-2,1.3587336E-1,1.1465105E0,8.281249E-4,5.291639E-1,-9.848378E-1,-6.412171E-2,7.335036E-2,-8.2011956E-1,-6.903462E-1,8.680975E-1,1.0089782E-1,6.612437E-1,-8.484516E-1,6.3268703E-1,7.912838E-1,-2.3086788E-1,8.92077E-1,-1.6665749E-1,5.735082E-1,-4.637983E-1,-4.0953E-1,8.108737E-3,8.2095695E-1,-6.320754E-2,-1.2997408E0,-7.296901E-2,-1.1329189E-2,-3.5205996E-1,1.0233185E0,-2.8538656E-1,-2.0666154E-1,-1.1561238E0,2.0631734E-1,1.1426921E0,3.4538516E-1,-1.1888199E0,1.3559844E-1,1.1091284E0,-1.2630029E0,-3.9516132E-2,1.0786432E0,-1.2961093E-1,-5.435076E-1,4.1919535E-1,9.8764795E-1,-4.2232558E-1,5.438244E-1,-7.133738E-1],"categories":[],"categories_nodes":[],"categories_segments":[],"categories_sizes":[],"default_left":[true,true,true,true,true,true,true,false,false,true,true,true,true,true,true,false,true,true,true,true,true,true,true,true,true,false,true,false,false,true,true,true,true,true,true,false,true,true,true,true,false,true,true,true,true,false,false,false,false,false,false,false,false,false,false,false,false,false,false,false,false,false,false,false,false,false,false,false,false,false,false,false,false,false,false],"id":21,"left_children":[1,3,5,7,9,11,13,-1,-1,15,17,19,21,23,25,-1,27,29,31,33,35,37,39,41,43,-1,45,-1,-1,47,49,51,53,55,57,-1,59,61,63,65,-1,67,69,71,73,-1,-1,-1,-1,-1,-1,-1,-1,-1,-1,-1,-1,-1,-1,-1,-1,-1,-1,-1,-1,-1,-1,-1,-1,-1,-1,-1,-1,-1,-1],"loss_changes":[1.4250515E0,2.1465495E0,3.4408867E0,2.31664E0,2.967171E0,6.5057664E0,4.346383E0,0E0,0E0,1.0140786E0,1.9249656E0,4.636903E0,5.613083E0,4.474788E0,1.854758E0,0E0,8.192649E-1,4.35588E0,5.0564566E0,4.5224667E0,3.5025437E0,2.767579E0,3.4283586E0,5.1466956E0,9.445905E0,0E0,1.1594641E0,0E0,0E0,3.450781E0,2.7861805E0,1.6586804E0,4.1510415E0,3.289166E0,3.7464972E0,0E0,6.199963E-1,6.8278303E0,3.823358E0,2.3060222E0,0E0,1.837656E0,4.5390787E0,3.644926E0,5.486701E0,0E0,0E0,0E0,0E0,0E0,0E0,0E0,0E0,0E0,0E0,0E0,0E0,0E0,0E0,0E0,0E0,0E0,0E0,0E0,0E0,0E0,0E0,0E0,0E0,0E0,0E0,0E0,0E0,0E0,0E0],"parents":[2147483647,0,0,1,1,2,2,3,3,4,4,5,5,6,6,9,9,10,10,11,11,12,12,13,13,14,14,16,16,17,17,18,18,19,19,20,20,21,21,22,22,23,23,24,24,26,26,29,29,30,30,31,31,32,32,33,33,34,34,36,36,37,37,38,38,39,39,41,41,42,42,43,43,44,44],"right_children":[2,4,6,8,10,12,14,-1,-1,16,18,20,22,24,26,-1,28,30,32,34,36,38,40,42,44,-1,46,-1,-1,48,50,52,54,56,58,-1,60,62,64,66,-1,68,70,72,74,-1,-1,-1,-1,-1,-1,-1,-1,-1,-1,-1,-1,-1,-1,-1,-1,-1,-1,-1,-1,-1,-1,-1,-1,-1,-1,-1,-1,-1,-1],"split_conditions":[9.1140103E-1,4.90506E-3,5.1953834E-1,2.5171244E-1,7.947698E-3,4.053884E-1,9.259021E-1,1.0042598E-1,-2.8949395E-1,3.693517E-1,8.14237E-1,8.673489E-1,4.2358184E-1,3.669123E-1,6.883433E-1,-2.0355858E-2,1.9384544E-1,8.021268E-1,8.182483E-1,1.7952174E-1,3.1356183E-1,9.6004313E-1,7.3436165E-1,6.282822E-1,6.8656266E-1,-3.1946823E-1,8.8382864E-1,4.076201E-2,3.4395316E-1,1.8980075E-2,6.2649584E-1,6.020696E-1,7.693208E-1,4.110967E-1,3.6697406E-1,-2.0710386E-1,3.3410686E-1,9.5359427E-1,4.7625822E-1,6.021228E-1,1.8980612E-1,9.7012746E-1,6.93601E-1,9.425202E-1,4.0592784E-1,1.7205247E-1,-1.391395E-1,-1.2285901E-1,2.432621E-3,2.462871E-1,-1.8962262E-2,-3.8992226E-1,-2.1890704E-2,-3.3987567E-3,-1.0561799E-1,3.0699557E-1,-8.561597E-2,-6.1998464E-2,-3.4683713E-1,6.1895203E-2,3.4280765E-1,1.0361555E-1,-3.5664597E-1,4.0679533E-2,3.3273852E-1,-3.789009E-1,-1.185484E-2,3.2359296E-1,-3.888328E-2,-1.6305228E-1,1.2575862E-1,2.962944E-1,-1.2669767E-1,1.6314732E-1,-2.1401215E-1],"split_indices":[7,8,0,4,8,4,2,0,0,4,0,2,0,1,3,0,3,0,0,0,3,7,6,0,3,0,3,0,0,6,5,2,7,6,2,0,8,7,2,5,0,7,3,4,6,0,0,0,0,0,0,0,0,0,0,0,0,0,0,0,0,0,0,0,0,0,0,0,0,0,0,0,0,0,0],"split_type":[0,0,0,0,0,0,0,0,0,0,0,0,0,0,0,0,0,0,0,0,0,0,0,0,0,0,0,0,0,0,0,0,0,0,0,0,0,0,0,0,0,0,0,0,0,0,0,0,0,0,0,0,0,0,0,0,0,0,0,0,0,0,0,0,0,0,0,0,0,0,0,0,0,0,0],"sum_hessian":[1.5960197E3,1.4553468E3,1.406728E2,4.9378304E0,1.450409E3,7.3532234E1,6.714058E1,1.3671079E0,3.5707228E0,5.2436466E0,1.4451654E3,3.105658E1,4.247565E1,6.2450882E1,4.6896954E0,1.2656595E0,3.9779873E0,1.1677192E3,2.7744617E2,2.6129704E1,4.926875E0,3.523032E1,7.2453313E0,2.5629036E1,3.6821846E1,2.3657584E0,2.3239367E0,1.422203E0,2.5557845E0,1.1529004E3,1.48188715E1,5.106633E0,2.7233954E2,7.7946725E0,1.8335032E1,1.217722E0,3.7091532E0,1.9351503E1,1.5878817E1,6.0253906E0,1.2199403E0,5.4160013E0,2.0213036E1,2.4695353E1,1.2126494E1,1.1546144E0,1.1693224E0,1.9135128E1,1.1337653E3,9.669796E0,5.1490755E0,3.479626E0,1.6270071E0,2.3102179E2,4.131773E1,1.6288278E0,6.1658444E0,7.060117E0,1.1274916E1,1.6013093E0,2.1078439E0,1.6883213E1,2.4682913E0,7.9045978E0,7.9742193E0,3.6126955E0,2.4126954E0,3.9973533E0,1.4186481E0,1.3759496E1,6.45354E0,2.3253195E1,1.4421568E0,5.275735E0,6.85076E0],"tree_param":{"num_deleted":"0","num_feature":"9","num_nodes":"75","size_leaf_vector":"0"}},{"base_weights":[-9.811302E-5,-3.2134615E-2,2.5954733E-2,-6.730716E-3,-3.640213E-1,5.0054115E-1,1.371447E-2,-1.5856473E-2,9.757915E-1,1.24363355E-1,-5.627823E-1,-6.536708E-1,6.668775E-1,-5.55921E-1,2.3077045E-2,-3.4347335E-1,5.244478E-3,1.5881525E0,5.9252962E-2,-7.084174E-1,4.5533895E-1,5.519401E-1,-7.038863E-1,-2.0682076E-2,-9.6741796E-1,1.3285001E-2,9.0759814E-1,1.649452E-2,-1.0830504E0,-5.505669E-1,3.2291677E-2,-7.0142514E-1,-5.0391033E-2,-7.137367E-1,1.334229E-2,-5.2259105E-1,6.2843513E-1,-1.0519379E0,1.6336642E-1,1.0327626E0,-1.2360406E-2,-3.5354984E-1,9.403508E-1,-1.154163E0,-3.2748723E-1,5.484234E-1,-9.361965E-1,1.0864472E0,-4.105388E-1,7.0960355E-1,-3.9437735E-1,-1.5285344E0,-3.681349E-1,1.8677981E-1,-9.3765116E-1,4.6566916E-1,2.0273376E-2,-9.718689E-1,8.673946E-2,8.332278E-2,-1.0399033E0,-1.0094293E0,3.6582973E-2,2.7087838E-3,5.4736596E-1,1.386872E0,-8.2558766E-2,3.551158E-1,-1.0307893E0,1.1507913E0,2.722566E-1,-4.8059818E-1,-1.50597E0,1.8481815E-2,-9.3014354E-1,-3.0229834E-1,1.0252519E0,1.2623463E0,-1.9306435E-1,-7.530906E-1,3.7205824E-1,-7.2217405E-1,2.7036846E-1,6.470069E-1,-3.9330924E-1,-1.1977743E0,2.837619E-1,1.4209203E0,6.0930856E-2,3.1826727E-2,-3.122213E-1],"categories":[],"categories_nodes":[],"categories_segments":[],"categories_sizes":[],"default_left":[true,true,true,true,true,true,true,true,true,true,true,true,true,true,true,true,true,false,true,true,true,true,true,false,false,true,true,true,true,true,true,true,true,true,true,false,false,false,false,true,true,false,true,true,true,true,false,true,false,false,true,false,true,true,true,true,true,false,false,false,false,false,false,false,false,false,false,false,false,false,false,false,false,false,false,false,false,false,false,false,false,false,false,false,false,false,false,false,false,false,false],"id":22,"left_children":[1,3,5,7,9,11,13,15,17,19,21,23,25,27,29,31,33,-1,35,37,39,41,43,-1,-1,45,47,49,51,53,55,57,59,61,63,-1,-1,-1,-1,65,67,-1,69,71,73,75,-1,77,-1,-1,79,-1,81,83,85,87,89,-1,-1,-1,-1,-1,-1,-1,-1,-1,-1,-1,-1,-1,-1,-1,-1,-1,-1,-1,-1,-1,-1,-1,-1,-1,-1,-1,-1,-1,-1,-1,-1,-1,-1],"loss_changes":[1.3294647E0,6.020713E0,5.096214E0,5.9745674E0,4.9988346E0,4.6709924E0,4.5856113E0,4.560812E0,3.3475938E0,4.596507E0,6.0933495E0,6.3210356E-1,3.0992947E0,4.213345E0,4.4817634E0,4.152667E0,3.6225362E0,0E0,1.4858183E0,1.6097038E0,3.1737785E0,1.9628407E0,5.152876E0,0E0,0E0,3.7336965E0,3.8496952E0,2.4586604E0,1.7474298E0,4.0015554E0,4.3245115E0,3.8984604E0,3.1333036E0,1.5744054E0,3.4887261E0,0E0,0E0,0E0,0E0,2.18789E0,3.1560762E0,0E0,1.8120956E-1,2.7033195E0,4.014371E0,2.209952E0,0E0,3.166647E0,0E0,0E0,1.7775192E0,0E0,1.1225153E0,1.7092254E0,3.18582E0,8.5767E0,3.124148E0,0E0,0E0,0E0,0E0,0E0,0E0,0E0,0E0,0E0,0E0,0E0,0E0,0E0,0E0,0E0,0E0,0E0,0E0,0E0,0E0,0E0,0E0,0E0,0E0,0E0,0E0,0E0,0E0,0E0,0E0,0E0,0E0,0E0,0E0],"parents":[2147483647,0,0,1,1,2,2,3,3,4,4,5,5,6,6,7,7,8,8,9,9,10,10,11,11,12,12,13,13,14,14,15,15,16,16,18,18,19,19,20,20,21,21,22,22,25,25,26,26,27,27,28,28,29,29,30,30,31,31,32,32,33,33,34,34,39,39,40,40,42,42,43,43,44,44,45,45,47,47,50,50,52,52,53,53,54,54,55,55,56,56],"right_children":[2,4,6,8,10,12,14,16,18,20,22,24,26,28,30,32,34,-1,36,38,40,42,44,-1,-1,46,48,50,52,54,56,58,60,62,64,-1,-1,-1,-1,66,68,-1,70,72,74,76,-1,78,-1,-1,80,-1,82,84,86,88,90,-1,-1,-1,-1,-1,-1,-1,-1,-1,-1,-1,-1,-1,-1,-1,-1,-1,-1,-1,-1,-1,-1,-1,-1,-1,-1,-1,-1,-1,-1,-1,-1,-1,-1],"split_conditions":[4.3767887E-1,4.069749E-1,4.5098525E-1,4.0338653E-1,2.8965122E-1,8.7964475E-2,4.5692492E-1,6.691383E-2,4.0535474E-1,4.1480783E-1,7.9277575E-2,3.8181487E-1,3.4850526E-1,6.164543E-1,1.4874384E-2,4.3668604E-1,9.2969965E-3,4.7644576E-1,4.5909572E-1,7.652666E-1,3.8798034E-1,3.9790484E-1,4.9670252E-1,-6.2046233E-3,-2.902254E-1,4.467286E-1,8.80046E-1,2.625722E-1,8.124294E-1,4.0660405E-1,4.714703E-1,7.509106E-1,6.226201E-2,6.8434095E-1,9.847003E-1,-1.5677732E-1,1.8853055E-1,-3.1558138E-1,4.900993E-2,7.799963E-1,8.261926E-1,-1.0606495E-1,5.4846954E-1,4.955569E-1,8.274041E-1,4.4372642E-1,-2.8085896E-1,8.760257E-1,-1.23161644E-1,2.1288107E-1,5.7464457E-1,-4.5856035E-1,4.885233E-1,4.2916644E-1,9.029009E-1,2.1950871E-1,9.6512437E-1,-2.9156068E-1,2.6021838E-2,2.4996834E-2,-3.11971E-1,-3.0282882E-1,1.0974892E-2,8.126352E-4,1.642098E-1,4.1606164E-1,-2.4767632E-2,1.0653474E-1,-3.092368E-1,3.452374E-1,8.167699E-2,-1.4417946E-1,-4.5179102E-1,5.5445447E-3,-2.7904308E-1,-9.06895E-2,3.0757558E-1,3.787039E-1,-5.7919305E-2,-2.2592719E-1,1.11617476E-1,-2.1665223E-1,8.111054E-2,1.941021E-1,-1.1799277E-1,-3.593323E-1,8.512857E-2,4.262761E-1,1.8279258E-2,9.548019E-3,-9.366639E-2],"split_indices":[1,1,1,1,0,0,1,8,1,1,8,8,2,0,5,5,4,0,4,8,2,2,8,0,0,1,2,6,0,4,1,2,8,0,7,0,0,0,0,7,8,0,2,7,8,1,0,7,0,0,4,0,7,7,4,3,6,0,0,0,0,0,0,0,0,0,0,0,0,0,0,0,0,0,0,0,0,0,0,0,0,0,0,0,0,0,0,0,0,0,0],"split_type":[0,0,0,0,0,0,0,0,0,0,0,0,0,0,0,0,0,0,0,0,0,0,0,0,0,0,0,0,0,0,0,0,0,0,0,0,0,0,0,0,0,0,0,0,0,0,0,0,0,0,0,0,0,0,0,0,0,0,0,0,0,0,0,0,0,0,0,0,0,0,0,0,0,0,0,0,0,0,0,0,0,0,0,0,0,0,0,0,0,0,0],"sum_hessian":[1.5908569E3,7.133885E2,8.774685E2,6.636132E2,4.9775257E1,2.1059126E1,8.5640936E2,6.58481E2,5.1321716E0,1.450606E1,3.5269196E1,2.2835693E0,1.8775557E1,1.2904427E1,8.4350494E2,3.8920303E1,6.195607E2,2.637334E0,2.4948375E0,3.8012338E0,1.0704825E1,3.6356852E0,3.163351E1,1.1100168E0,1.1735526E0,5.337806E0,1.3437751E1,6.650876E0,6.253551E0,1.2406502E1,8.3109845E2,1.6893908E1,2.2026396E1,5.92982E0,6.136309E2,1.2741743E0,1.2206631E0,2.578531E0,1.2227029E0,4.2498126E0,6.4550133E0,1.1183238E0,2.5173614E0,1.3462422E1,1.8171087E1,3.6839101E0,1.653896E0,1.1987076E1,1.450675E0,2.2046814E0,4.4461946E0,3.1516225E0,3.1019287E0,4.4490647E0,7.9574375E0,2.1407345E1,8.096911E2,1.240447E1,4.489437E0,2.021105E1,1.8153458E0,4.0058336E0,1.9239862E0,6.026363E2,1.0994652E1,3.0408754E0,1.208937E0,5.222064E0,1.2329493E0,1.3649287E0,1.1524327E0,5.4307904E0,8.031632E0,1.2159801E1,6.0112877E0,1.4546517E0,2.2292583E0,1.0550128E1,1.436948E0,3.040546E0,